{"version": "0.5.4", "metadata": {"date": {"year": 2025, "month": 4, "day": 14, "hour": 13, "minute": 44, "second": 52}, "loudness": -10.792764663696289, "gain": 0.7201412041141599, "name": "1.SF300_Fuzz1_L12_T12_G12_B12_U_U_PB", "modeled_by": "Schultz", "gear_type": "pedal", "gear_make": "GearCo", "gear_model": "GearName", "tone_type": "fuzz", "input_level_dbu": null, "output_level_dbu": null, "training": {"settings": {"ignore_checks": true}, "data": {"latency": {"manual": -80, "calibration": {"algorithm_version": 1, "delays": [-79], "safety_factor": 1, "recommended": -80, "warnings": {"matches_lookahead": false, "disagreement_too_high": false}}}, "checks": {"version": 3, "passed": true}}, "validation_esr": 0.016726324868311007}}, "architecture": "WaveNet", "config": {"layers": [{"input_size": 1, "condition_size": 1, "head_size": 8, "channels": 16, "kernel_size": 3, "dilations": [1, 2, 4, 8, 16, 32, 64, 128, 256, 512], "activation": "Tanh", "gated": false, "head_bias": false}, {"input_size": 16, "condition_size": 1, "head_size": 1, "channels": 8, "kernel_size": 3, "dilations": [1, 2, 4, 8, 16, 32, 64, 128, 256, 512], "activation": "Tanh", "gated": false, "head_bias": true}], "head": null, "head_scale": 0.02}, "weights": [-0.000180677481694147, 0.4400784969329834, -0.8728153705596924, -0.7173477411270142, -0.36514580249786377, -0.0006066910573281348, -0.0009106446523219347, 0.8353419303894043, -0.12573087215423584, 0.22458675503730774, -0.3583596646785736, 0.0006009173230268061, -0.9484667181968689, -0.7538259029388428, -0.4101238250732422, -0.0012029176577925682, 0.033262692391872406, 0.08402927964925766, -0.20683149993419647, -0.03348188474774361, 0.16515685617923737, 0.0028522044885903597, -0.06521297246217728, -0.010866910219192505, 0.0888047069311142, -0.01874176785349846, 0.013099861331284046, -0.0205276757478714, -0.11880729347467422, -0.14746622741222382, 0.06209496781229973, 0.1806567758321762, 0.016645045951008797, -0.12343306839466095, -0.05643508955836296, -0.16874584555625916, -0.006321755237877369, 0.15862224996089935, 0.1824856400489807, -0.0423334538936615, 0.002937668701633811, -0.16276562213897705, 0.16707204282283783, -0.11123184114694595, 0.002212052932009101, -0.19678544998168945, 0.06619564443826675, -0.023720018565654755, 0.05817495658993721, -0.023249389603734016, 0.003481054911389947, 0.257269948720932, 0.02127082273364067, -0.09976163506507874, 0.20736868679523468, -0.11869224160909653, -0.09047077596187592, 0.002327768597751856, -0.12936939299106598, -0.1869846135377884, 0.18227477371692657, 0.05219010263681412, -0.05666828528046608, -0.029704585671424866, 0.051127225160598755, -0.031384050846099854, 0.020412763580679893, -1.4645697774540167e-05, 0.06010308489203453, 0.2015436291694641, -0.07689210772514343, -0.019412798807024956, -0.0058776335790753365, 0.15498027205467224, 0.1586824357509613, 0.06581676006317139, 0.06752588599920273, -0.0890367329120636, -0.043793294578790665, -0.11720423400402069, -0.14783324301242828, 0.15356610715389252, 0.06311140954494476, -0.1696603149175644, -0.013894499279558659, -0.06015150249004364, -0.05808886140584946, -0.00494665140286088, 0.08696737140417099, -0.05734637379646301, -0.012842988595366478, 0.03586013987660408, 0.07046176493167877, 0.11141650378704071, -0.11055164039134979, -0.06362822651863098, 0.0073009091429412365, 0.0443742498755455, -0.10840094089508057, -0.14207683503627777, 0.1707056611776352, 0.13083457946777344, -0.12451151758432388, -0.0006461136508733034, -0.10315612703561783, -0.0642978698015213, -0.0760054960846901, -0.07955323904752731, -0.07133215665817261, -0.08763846009969711, -0.1520313322544098, 5.056854206486605e-05, -0.09979663789272308, 0.08578138798475266, 0.0017271825345233083, -0.09969379752874374, 0.034799087792634964, -0.11272326856851578, -0.006469521671533585, -0.04130006209015846, 0.17189589142799377, -0.017396315932273865, -0.1449452042579651, 0.18471290171146393, -0.15873752534389496, -0.15384851396083832, 0.08504602313041687, -0.0297226645052433, -0.002413119887933135, -0.18404099345207214, -0.07004354894161224, -0.003259908640757203, -0.09596926718950272, 0.019434357061982155, 0.17839421331882477, -0.1301276981830597, 0.0071006896905601025, -0.058208055794239044, 0.17507438361644745, 0.10648425668478012, 0.20014522969722748, -0.03446634113788605, 0.11895038932561874, -0.07657186686992645, -0.005229432601481676, -0.0739152804017067, 0.05557017773389816, 0.11606185138225555, -0.10004734247922897, -0.18694859743118286, -0.021507756784558296, -0.14753857254981995, -0.10328225046396255, 0.19656914472579956, 0.05645878240466118, -0.20860610902309418, 0.2100154310464859, -0.114497110247612, -0.057043012231588364, -0.14257192611694336, -0.031978826969861984, -0.03321761637926102, -0.029268546029925346, -0.14251454174518585, -0.13671547174453735, 0.12462162226438522, -0.041776273399591446, 0.1741696000099182, -0.24847908318042755, 0.012628848664462566, 0.24573101103305817, -0.17836689949035645, 0.14697161316871643, 0.16431188583374023, -0.2546961307525635, 0.03463459014892578, -0.10933215171098709, 0.007069958373904228, 0.14304153621196747, -0.10892140120267868, -0.09677165001630783, -0.053599756211042404, -0.01628803461790085, 0.15861670672893524, 0.062301646918058395, 0.14097127318382263, -0.1841605007648468, -0.04100167378783226, -0.2257654219865799, 0.2074633687734604, 0.12860369682312012, 0.20833510160446167, -0.22995546460151672, 0.017443066462874413, -0.014459737576544285, -0.20216065645217896, -0.059332557022571564, 0.16976714134216309, -0.2026936113834381, 0.01863609440624714, 0.12422367930412292, -0.027865078300237656, -0.09092603623867035, 0.014588979072868824, -0.20683731138706207, 0.054823365062475204, -0.10918436199426651, 0.13859684765338898, 0.04371253028512001, -0.004413520451635122, 0.035504091531038284, -0.06465264409780502, -0.11417859047651291, 0.016995176672935486, 0.041730139404535294, 0.15699724853038788, -0.15705181658267975, -0.03480099141597748, 0.2536712884902954, -0.162986621260643, 0.02424388937652111, 0.2727557420730591, 0.0002805235853884369, -0.05136137455701828, -0.2338445782661438, 0.07659867405891418, -0.05240678787231445, 0.039840515702962875, -0.008080648258328438, -0.06302367150783539, -0.13595257699489594, 0.1638515144586563, 0.027767010033130646, 0.2359791249036789, 0.011410814709961414, -0.11991545557975769, -0.05982866510748863, -0.04445117339491844, -0.02889668010175228, 0.17023110389709473, -0.006905384361743927, 0.12649734318256378, 0.056275513023138046, -0.052924491465091705, 0.11742660403251648, -0.0009157320600934327, 0.06108523905277252, -0.07853340357542038, 0.13899347186088562, -0.07087916880846024, -0.039859749376773834, 0.15063036978244781, 0.06939902901649475, -0.03956310451030731, -0.10159067809581757, -0.011260448954999447, -0.1350117325782776, 0.06309153884649277, -0.17546768486499786, -0.07522571086883545, 0.023616664111614227, -0.05020377039909363, 0.05033234506845474, -0.0014034445630386472, 0.18228404223918915, -0.07275313884019852, -0.15107396245002747, 0.17363880574703217, 0.09718266874551773, -0.06729035079479218, 0.06484110653400421, -0.04486308619379997, -0.08939582109451294, -0.06933996826410294, -0.07806115597486496, -0.09753751754760742, 0.23562072217464447, -0.06799682974815369, 0.0951685905456543, -0.08845479786396027, 0.006094498559832573, -0.18221218883991241, 0.041004329919815063, 0.13026070594787598, 0.12401337176561356, -0.018449492752552032, -0.06616933643817902, -0.06034013628959656, 0.10541412979364395, 0.0018974939594045281, -0.14578810334205627, 0.19188398122787476, 0.018673937767744064, -0.11552693694829941, 0.09576678276062012, -0.11370240896940231, -0.011207989417016506, 0.02426815778017044, 0.03832876309752464, -0.15479609370231628, 0.0644315779209137, -0.019847771152853966, -0.13844101130962372, -0.10661405324935913, -0.016962289810180664, -0.10949540138244629, -0.06493884325027466, 0.02112327329814434, 0.02490038052201271, -0.11508385092020035, -0.07919928431510925, 0.00973137840628624, 0.14663952589035034, -0.011609883047640324, 0.08811876177787781, 0.19440490007400513, -0.034973111003637314, 0.03371335193514824, 0.1566685140132904, -0.04534993693232536, -0.006849275436252356, -0.0868825614452362, -0.06753211468458176, -0.006395033095031977, 0.17897926270961761, 0.08999703079462051, 0.051382649689912796, -0.0779419019818306, 0.11909370869398117, -0.026807336136698723, -0.010021096095442772, -0.1705581247806549, 0.10816565155982971, -0.011085477657616138, -0.059349000453948975, 0.09110470861196518, 0.20696790516376495, 0.18781812489032745, 0.14718672633171082, 0.21111927926540375, 0.006019302178174257, -0.018613489344716072, 0.2145695984363556, 0.12110451608896255, -0.05401371419429779, 0.22744598984718323, 0.11070705950260162, 0.11233808100223541, 0.007432702463120222, -0.006185649428516626, -0.057990942150354385, 0.02867468073964119, 0.13735587894916534, 0.2263912707567215, 0.10709458589553833, 0.17637868225574493, 0.0796634629368782, 0.03535155951976776, -0.22369077801704407, -0.1027093306183815, -0.06855854392051697, -0.2632751166820526, -0.2499229907989502, 0.14440611004829407, -0.036994051188230515, 0.007255345582962036, 0.15118902921676636, 0.009942786768078804, 0.059317104518413544, -0.018753118813037872, -0.010126403532922268, 0.08781833946704865, 0.018524931743741035, 0.05135297030210495, -0.004735023248940706, -0.11132515966892242, 0.02506570890545845, 0.010873784311115742, 0.16182993352413177, 0.2209930419921875, 0.2520010769367218, -0.07696034759283066, -0.047498710453510284, 0.003905987599864602, 0.08775581419467926, 0.037144508212804794, -0.044557761400938034, 0.1293623298406601, -0.17349675297737122, -0.0666019544005394, 0.04450272023677826, -0.15551617741584778, -0.2151992917060852, -0.049848876893520355, -0.2282363921403885, -0.032772816717624664, 0.13641853630542755, 0.05859392136335373, 0.014637758024036884, 0.10629420727491379, 0.09713835269212723, 0.007368065416812897, -0.14879417419433594, 0.16580088436603546, 0.1538289338350296, -0.2159353494644165, 0.09991410374641418, 0.009847487322986126, 0.05049152299761772, 0.04447987303137779, -0.18041954934597015, 0.0816255435347557, 0.0909227505326271, -0.08678948134183884, 0.006020706612616777, -0.015241339802742004, 0.02336350828409195, -0.09123371541500092, 0.036287546157836914, 0.1132957935333252, 0.01839957758784294, -0.051770251244306564, 0.1063680425286293, -0.03411246836185455, 0.06530822068452835, -0.2003759741783142, 0.10910121351480484, -0.08170752972364426, 0.025072097778320312, -0.06151174381375313, -0.13214750587940216, -0.03746514022350311, 0.2337108999490738, -0.0031296475790441036, -0.16063910722732544, 0.05332249775528908, -0.007287184242159128, -0.21022376418113708, 0.17323891818523407, -0.1677359789609909, -0.2371808886528015, -0.035260047763586044, -0.06072144955396652, 0.004372805822640657, -0.027968959882855415, 0.15322345495224, -0.026844674721360207, -0.00900739524513483, 0.019478902220726013, -0.14781799912452698, 0.25644558668136597, 0.03568945825099945, 0.14900875091552734, 0.11570381373167038, -0.05456283316016197, 0.11141975969076157, -0.03627725690603256, 0.10865896940231323, -0.1245374083518982, -0.08673257380723953, -0.10636713355779648, -0.06856238096952438, -0.01786525920033455, -0.14927324652671814, 0.0030712103471159935, 0.19816413521766663, 0.1698455810546875, 0.15050232410430908, -0.1663571000099182, -0.08371484279632568, 0.0732634961605072, 0.18664047122001648, 0.11730824410915375, -0.0308181531727314, -0.0032340576872229576, -0.1786496639251709, -0.11393669247627258, 0.11716929823160172, -0.04448753967881203, 0.058818135410547256, -0.1475614756345749, -0.0037734450306743383, -0.08468030393123627, 0.006110219284892082, 0.02522013895213604, 0.10221892595291138, 0.045957427471876144, 0.11961065232753754, -0.005169176496565342, -0.09014280140399933, 0.006482234224677086, 0.008102471008896828, 0.025472043082118034, -0.11082546412944794, 0.06703747063875198, 0.08197478950023651, -0.1739138960838318, 0.2223985642194748, 0.24109268188476562, -0.20065635442733765, 0.1808018684387207, 0.15929371118545532, 0.40868520736694336, -0.23478567600250244, 0.06006338819861412, 0.25828343629837036, -0.2727259397506714, -0.0007908409461379051, 0.28777268528938293, -0.26598256826400757, -0.10100571066141129, -0.1307874321937561, 0.11376532167196274, -0.0928233414888382, -0.10825243592262268, 0.030996263027191162, 0.2583112418651581, -0.322934627532959, 0.40182825922966003, 0.04634227603673935, 0.37990009784698486, -0.3517441749572754, -0.007657702546566725, -0.4340870976448059, 0.22606389224529266, -0.017025554552674294, 0.4692145586013794, -0.35237178206443787, -0.05766817182302475, 0.20503585040569305, -0.11352460086345673, 0.12259490042924881, 0.22617648541927338, -0.4336484372615814, -0.16937735676765442, 0.33699679374694824, -0.3565627634525299, -0.15512286126613617, 0.28263986110687256, -0.28821510076522827, -0.13519521057605743, -0.05808798596262932, 0.1756853461265564, 0.16500326991081238, -0.01702958159148693, 0.0787331610918045, -0.019305257126688957, -0.028644302859902382, -0.1993749737739563, 0.22588559985160828, -0.09607991576194763, 0.013585180975496769, 0.061999719589948654, -0.05192701891064644, 0.17834797501564026, -0.09384797513484955, 0.0030788579024374485, 0.11113918572664261, 0.005288437940180302, -0.05301656201481819, -0.24269840121269226, -0.019311334937810898, -0.032619886100292206, 0.05508901923894882, -0.2370673269033432, 0.09616755694150925, -0.1830092966556549, 0.054572995752096176, 0.12306667119264603, 0.19436560571193695, 0.0109188761562109, 0.05523715913295746, -0.18204835057258606, -0.004596110433340073, 0.02078115940093994, 0.2613205015659332, -0.1377606838941574, -0.10404465347528458, 0.17511121928691864, 0.04788826406002045, 0.00027977765421383083, 0.032382916659116745, -0.20976093411445618, 0.07505645602941513, 0.13936291635036469, -0.15544919669628143, 0.06413330882787704, 0.20008216798305511, 0.02969781681895256, 0.09330692142248154, -0.048581562936306, -0.06713086366653442, -0.26469188928604126, 0.008245018310844898, 0.09392184019088745, 0.05671340599656105, -0.1676555871963501, 0.149093359708786, 0.140147864818573, 0.17243611812591553, -0.13803279399871826, -0.05015414208173752, -0.05710214376449585, 0.12001916021108627, -0.05672306567430496, -0.023725785315036774, 0.05954807996749878, -0.10822267830371857, -0.089298777282238, 0.09102179110050201, 0.1605711281299591, -0.08372510224580765, -0.09817368537187576, -0.06810419261455536, 0.008677657693624496, 0.140004500746727, 0.0659627914428711, 0.05002039298415184, 0.08959764242172241, 0.014224879443645477, -0.10799609124660492, 0.1562819629907608, 0.03514714539051056, -0.10299880057573318, -0.059595223516225815, -0.06875970214605331, 0.16258257627487183, -0.08695809543132782, -0.12778834998607635, 0.03282514587044716, 0.07556647807359695, 0.04182906448841095, 0.0885673314332962, -0.0027546987403184175, 0.054519280791282654, 0.003317489055916667, -0.07681853324174881, -0.23701518774032593, -0.19250686466693878, 0.0696476399898529, -0.06288204342126846, 0.07821986824274063, 0.1663401573896408, -0.04843203350901604, -0.16942015290260315, 0.25648361444473267, -0.019364990293979645, 0.19944874942302704, -0.229352205991745, 0.028453610837459564, 0.15842416882514954, -0.17437811195850372, 0.1779649257659912, -0.025896288454532623, -0.2416898012161255, -0.1356215924024582, -0.04444268345832825, 0.187348410487175, -0.07286093384027481, 0.07972980290651321, -0.06144104525446892, -0.09521067142486572, 0.02569534070789814, 0.002568928524851799, 0.04853695631027222, 0.18599404394626617, -0.16565413773059845, 0.061232179403305054, -0.1128930002450943, 0.24133016169071198, -0.08489935100078583, 0.050535645335912704, -0.14922544360160828, 0.082973413169384, 0.10410623997449875, -0.00543312169611454, 0.043662142008543015, 0.0759047344326973, -0.013904493302106857, 0.023832401260733604, 0.20585566759109497, -0.21270771324634552, 0.04230263829231262, 0.06642244011163712, -0.05528483912348747, 0.047167930752038956, -0.05849338695406914, -0.09391338378190994, 0.054179076105356216, 0.02035033330321312, -0.05179697275161743, -0.038068871945142746, 0.21114777028560638, 0.04618217796087265, -0.04432821646332741, -0.25843924283981323, 0.18729715049266815, -0.16274218261241913, -0.0897117331624031, 0.10779962688684464, -0.11675833910703659, -0.06565894931554794, -0.03660512715578079, 0.10723859071731567, 0.016059817746281624, -0.056147702038288116, 0.032218195497989655, 0.08661133795976639, -0.03292934224009514, 0.14849470555782318, 0.10477717965841293, -0.15461134910583496, -0.15204225480556488, -0.2263316810131073, 0.257685124874115, 0.008073302917182446, 0.11815709620714188, -0.05819046124815941, 0.051863256841897964, 0.00984005443751812, 0.21318772435188293, -0.1436004489660263, -0.11381294578313828, 0.0083476472645998, -0.13965611159801483, -0.08977410942316055, 0.22015471756458282, -0.17074671387672424, -0.03482130914926529, 0.01323673501610756, -0.07827826589345932, -0.0022313599474728107, 0.05880396440625191, 0.07112392783164978, -0.03263084590435028, 0.0987483412027359, -0.06233089417219162, -0.1329645812511444, 0.09872841089963913, -0.16609247028827667, -0.23354443907737732, 0.07775120437145233, 0.18365029990673065, 0.08340474218130112, 0.0034040038008242846, 0.19213540852069855, 0.21926386654376984, -0.14104025065898895, 0.045785460621118546, 0.07112285494804382, -0.18716606497764587, -0.09834552556276321, -0.007069278508424759, 0.15045508742332458, 0.0713251382112503, 0.08589596301317215, -0.11050941050052643, 0.04044346511363983, -0.1838606297969818, -0.03579632565379143, 0.06057063490152359, 0.1808549463748932, -0.22579148411750793, 0.07389304041862488, -0.06006556376814842, -0.02543230541050434, 0.027279403060674667, 0.2388252168893814, -0.18560868501663208, 0.019137410447001457, 0.15277135372161865, -0.19608254730701447, 0.14886826276779175, 0.1999247521162033, 0.026429668068885803, -0.024622509256005287, 0.2664357125759125, -0.15224410593509674, 0.2071114033460617, -0.02060328610241413, -0.19820840656757355, -0.014331475831568241, -0.08739224821329117, -0.020832080394029617, -0.0703641027212143, -0.08487624675035477, -0.09320343285799026, -0.09223144501447678, 0.027419952675700188, 0.0775846466422081, 0.00011503697169246152, 0.02164032869040966, 0.025811992585659027, 0.08457788825035095, 0.004805139731615782, -0.009685530327260494, 0.024556130170822144, -0.014954432845115662, -0.02661447413265705, -0.021623466163873672, 0.34017956256866455, -0.36762815713882446, 0.6892236471176147, -0.5907207727432251, 0.039668213576078415, 0.7757276296615601, 0.8992650508880615, -0.6008067727088928, 0.0820944532752037, 0.16098618507385254, -0.4066944420337677, -0.27213960886001587, 0.28342729806900024, -0.5885520577430725, 0.08681099861860275, 0.48948806524276733, 0.044353146106004715, 0.14604295790195465, 0.12281875312328339, 0.15854305028915405, 0.18505603075027466, 0.07373473793268204, 0.020065350458025932, -0.2051851451396942, -0.03311548009514809, 0.14062000811100006, -0.11358215659856796, -0.10847322642803192, 0.2130027860403061, -0.03145322576165199, 0.2080877721309662, 0.039001189172267914, -0.02273070253431797, -0.173167884349823, -0.24800805747509003, 0.06535361707210541, 0.09869679063558578, -0.019801463931798935, 0.008203119970858097, -0.013495695777237415, 0.007227092515677214, 0.23476815223693848, -0.23297418653964996, 0.08223175257444382, -0.0008155328105203807, -0.07556787133216858, 0.006921216379851103, 0.2941620945930481, -0.036179069429636, 0.12963272631168365, -0.039064422249794006, 0.28736141324043274, -0.02647079899907112, -0.15928660333156586, 0.008428703062236309, -0.27474820613861084, -0.07948971539735794, -0.1251988410949707, 0.28629499673843384, -0.1486789435148239, 0.10408271849155426, 0.3210802972316742, -0.07134439796209335, 0.1438148319721222, 0.1745140254497528, -0.22053730487823486, -0.033289093524217606, -0.30032825469970703, -0.05417255312204361, 0.20398931205272675, 0.0031762507278472185, 0.05775156989693642, -0.037023913115262985, 0.17075103521347046, -0.037454139441251755, -0.15261349081993103, 0.09749443829059601, 0.05322558805346489, -0.13959994912147522, -0.09091924875974655, -0.10799247771501541, -0.19586533308029175, -0.20837070047855377, 0.0977272018790245, 0.07666367292404175, 0.24489347636699677, 0.0010539765935391188, 0.03227264806628227, 0.13639594614505768, 0.20380917191505432, 0.04553551971912384, 0.07193631678819656, 0.15896959602832794, 0.06028139218688011, -0.05404244735836983, 0.0021253523882478476, -0.3014180660247803, 0.0013299512211233377, -0.010715939104557037, 0.01300748996436596, 0.2376841902732849, 0.19916079938411713, 0.0037665837444365025, 0.18540243804454803, 0.16166728734970093, -0.10945681482553482, -0.18792513012886047, -0.06521829217672348, -0.1374804973602295, -0.1341848373413086, 0.06002439185976982, 0.014924442395567894, 0.11639218032360077, 0.035190142691135406, 0.23751336336135864, 0.24730592966079712, -0.13476233184337616, -0.30101293325424194, -0.0026067227590829134, 0.07257957756519318, -0.0023373316507786512, -0.1755772978067398, -0.4448726773262024, 0.31075915694236755, 0.014269950799643993, -0.0796118676662445, 0.12680169939994812, -0.056861672550439835, 0.23261380195617676, 0.0822846069931984, 0.305422842502594, -0.21307706832885742, -0.2896101474761963, 0.1332201063632965, 0.020342381671071053, 0.05814962461590767, 0.11382809281349182, -0.20223505795001984, 0.11913379281759262, -0.20062723755836487, 0.062090955674648285, -0.14110508561134338, -0.05871512368321419, -0.008040019311010838, -0.14158010482788086, 0.06959839910268784, -0.30914798378944397, -0.1007475033402443, 0.1932312548160553, -0.18620356917381287, 0.016505923122167587, -0.057080406695604324, -0.29928961396217346, -0.31284913420677185, 0.042006995528936386, 0.2507714331150055, -0.0946110337972641, -0.01951310597360134, 0.024667538702487946, 0.15717333555221558, -0.18886134028434753, -0.13460370898246765, 0.2586166262626648, -0.32061323523521423, -0.17536672949790955, 0.12992319464683533, -0.008210543543100357, -0.3351341784000397, 0.09603960067033768, 0.2672792077064514, 0.022400444373488426, -0.009922661818563938, 0.07227707654237747, 0.08314133435487747, -0.22960400581359863, 0.03415914997458458, 0.04769193008542061, 0.2721590995788574, -0.33781808614730835, 0.2257440835237503, 0.08281952142715454, -0.26655030250549316, 0.01805478148162365, -0.24094636738300323, -0.044829610735177994, -0.12297874689102173, 0.07837186008691788, 0.05952775850892067, -0.026681987568736076, 0.22534343600273132, -0.12186931818723679, 0.40154364705085754, -0.0014784062514081597, -0.052954211831092834, 0.13836488127708435, -0.032276712357997894, 0.08019518107175827, -0.1500316709280014, -0.010246407240629196, 0.026707153767347336, -0.008476592600345612, -0.2705329358577728, -0.06949017196893692, -0.20300599932670593, -0.17132847011089325, 0.1640409529209137, -0.16562749445438385, -0.24323494732379913, 0.017636911943554878, -0.07898440957069397, 0.07653555274009705, 0.0868367999792099, 0.09940388798713684, -0.08273130655288696, -0.015980686992406845, 0.21863320469856262, 0.20193147659301758, -0.03573086857795715, -0.30099859833717346, 0.056512001901865005, 0.12963801622390747, -0.17369456589221954, -0.07909738272428513, 0.14932212233543396, -0.18613751232624054, -0.07004237174987793, -0.3397373855113983, 0.3143494725227356, 0.16155782341957092, 0.022099468857049942, 0.009574893862009048, -0.13940978050231934, -0.22032777965068817, -0.09222878515720367, 0.07148577272891998, 0.24671994149684906, -0.11237869411706924, 0.14010709524154663, -0.45713305473327637, 0.4715815484523773, -0.14395210146903992, 0.22784189879894257, -0.06454752385616302, -0.08662164211273193, 0.11944267153739929, 0.06424825638532639, 0.02054193802177906, 0.15373434126377106, -0.24746957421302795, 0.034849863499403, -0.08609788119792938, -0.08809199929237366, 0.0009518698789179325, 0.19247615337371826, -0.216500386595726, 0.014517340809106827, 0.16938649117946625, -0.0034275755751878023, 0.18105536699295044, -0.11647457629442215, -0.10025250166654587, 0.18015891313552856, -0.013131581246852875, 0.1585332453250885, -0.10735567659139633, -0.09967679530382156, -0.12850864231586456, -0.1895858347415924, -0.04436782747507095, 0.18864938616752625, 0.034561410546302795, -0.07607035338878632, 0.027812397107481956, -0.05783892422914505, 0.1253499686717987, -0.07561106234788895, -0.15961503982543945, -0.03980422765016556, 0.09023536741733551, -0.006697682663798332, 0.000515979714691639, -0.059846725314855576, 0.03796951472759247, 0.030529484152793884, 0.0034261676482856274, 0.09759078919887543, 0.037378981709480286, 0.024750161916017532, 0.046379026025533676, -0.11145185679197311, -0.09614807367324829, 0.3452971279621124, 0.0019437354058027267, 0.12298734486103058, -0.06600917130708694, -0.05837005749344826, 0.09475967288017273, -0.2047884315252304, 0.0641774833202362, 0.05448631942272186, 0.0563068725168705, -0.019088126718997955, 0.1732402741909027, 0.06575635075569153, -0.0048132045194506645, 0.06647902727127075, -0.19670625030994415, -0.1674281507730484, -0.08927302807569504, -0.01101108267903328, -0.00604841485619545, -0.23090897500514984, -0.055318478494882584, -0.004503215663135052, -0.03438892215490341, -0.03256469964981079, 0.12682783603668213, -0.13043683767318726, -0.09440815448760986, -0.09442463517189026, 0.1089029312133789, -0.2523283064365387, -0.03352011367678642, -0.00930552277714014, -0.18056736886501312, -0.046455711126327515, -0.041654322296381, -0.10722183436155319, -0.013605436310172081, -0.07917547225952148, -0.15013043582439423, 0.023035719990730286, 0.09629068523645401, 0.05363287031650543, -0.04293780028820038, -0.19749343395233154, 0.0024677978362888098, -0.006256746128201485, 0.08266577124595642, 0.02203046716749668, 0.03193255886435509, 0.11730708181858063, -0.11500056087970734, -0.11126688122749329, 0.1869639903306961, -0.21489101648330688, -0.0045599560253322124, -0.06044469028711319, 0.10235487669706345, -0.11923110485076904, 0.19897495210170746, -0.10533303767442703, -0.07379644364118576, -0.004065950401127338, 0.24340450763702393, -0.19387193024158478, -0.008516884408891201, 0.139777272939682, 0.07271814346313477, -0.10039497166872025, -0.12556369602680206, -0.10166968405246735, 0.07689926028251648, 0.11888693273067474, 0.17340463399887085, -0.22861342132091522, 0.045814432203769684, -0.04059940576553345, 0.1408035308122635, -0.13753782212734222, -0.10843225568532944, 0.023331493139266968, -0.12675358355045319, -0.17302729189395905, 0.06554242968559265, -0.011185034178197384, -0.019900698214769363, 0.09917011111974716, -0.05658472329378128, -0.13628756999969482, 0.11265075206756592, -0.06362048536539078, 0.13494639098644257, -0.2738548815250397, -0.08297022432088852, -0.07370869815349579, 0.019610702991485596, 0.05068374425172806, 0.061848025768995285, -0.0684048980474472, 3.1649786251364276e-05, 0.05431010574102402, 0.03624840825796127, 0.1642712950706482, 0.03073118068277836, -0.07663148641586304, 0.1359747052192688, -0.04677098989486694, 0.1211564913392067, 0.02660101093351841, 0.12120087444782257, 0.2690601646900177, 0.06084344536066055, -0.37006503343582153, -0.1640043407678604, -0.09897758066654205, -0.01186348870396614, 0.15159082412719727, 0.05834124609827995, -0.11644894629716873, -0.05032280460000038, -0.1415201872587204, 0.15600672364234924, -0.07543312013149261, -0.06860077381134033, -0.18409210443496704, 0.08254149556159973, 0.30080151557922363, 0.10737986117601395, 0.07300031930208206, 0.10140956193208694, -0.05157679691910744, -0.06365875154733658, 0.02329658344388008, -0.049007073044776917, 0.09307313710451126, -0.10675869882106781, 0.015753336250782013, 0.052234116941690445, -0.08692219108343124, 0.17091073095798492, 0.1074691116809845, -0.16653943061828613, -0.06169333681464195, 0.1043551042675972, -0.2070782482624054, 0.1800367534160614, 0.19546571373939514, 0.1351930797100067, -0.04772554337978363, -0.2358642816543579, 0.22243298590183258, 0.10708187520503998, -0.16560134291648865, -0.06137838959693909, -0.052932027727365494, -0.12401071190834045, -0.07361678034067154, 0.07441866397857666, 0.0841476172208786, -0.07022122293710709, 0.1374840885400772, 0.0819503515958786, -0.14957566559314728, -0.08739485591650009, 0.1355118751525879, 0.14756767451763153, 0.012727683410048485, -0.028199058026075363, 0.04203053563833237, -0.34116992354393005, 0.09068721532821655, 0.1310800313949585, 0.03140377253293991, -0.09894512593746185, 0.08006022125482559, -0.1343129277229309, 0.03603348508477211, 0.12360591441392899, 0.18389210104942322, -0.1266591101884842, 0.1557401865720749, -0.010403400287032127, -0.14697106182575226, 0.0009180781780742109, 0.06452286243438721, 0.010640599764883518, 0.03725394979119301, -0.049551211297512054, 0.16325649619102478, -0.1560806930065155, -0.022639835253357887, -0.015336358919739723, 0.07377298176288605, 0.06525979936122894, 0.022627655416727066, -0.09549102932214737, 0.06992170214653015, -0.016468528658151627, -0.08256372809410095, 0.12728627026081085, 0.15277421474456787, -0.06115937978029251, -0.05494671314954758, -0.03901829198002815, -0.10901189595460892, 0.02708885632455349, -0.13879118859767914, 0.2075270712375641, -0.2388286292552948, -0.09251456707715988, 0.054701510816812515, 0.17851467430591583, 0.09261899441480637, 0.1159401386976242, 0.040297772735357285, 0.009800735861063004, -0.1272917240858078, -0.04783076420426369, -0.022883981466293335, 0.09380696713924408, -0.10657579451799393, 0.02623252384364605, 0.024438029155135155, 0.09195201843976974, 0.05401041358709335, -0.19019514322280884, -0.20219901204109192, 0.1001085564494133, -0.01195928081870079, -0.07709704339504242, 0.04945690557360649, -0.05264667794108391, -0.1382477879524231, -0.08033899962902069, 0.13579031825065613, 0.021958209574222565, -0.10728556662797928, -0.07050269097089767, 0.13974297046661377, 0.03237152472138405, -0.1433478146791458, 0.3385353982448578, 0.10856815427541733, -0.1145840734243393, -0.05618172511458397, -0.042350947856903076, 0.026530887931585312, -0.1391325742006302, 0.010554708540439606, -0.012895564548671246, 0.14343079924583435, 0.05117926374077797, 0.14616721868515015, -0.07138171046972275, 0.1381925642490387, -0.08307412266731262, -0.12982797622680664, -0.04356341063976288, 0.12956078350543976, -0.14126093685626984, 0.16917182505130768, 0.06814876943826675, 0.15434153378009796, -0.10163182765245438, 0.19861729443073273, -0.017648089677095413, 0.027076490223407745, 0.05296488106250763, 0.1266651749610901, 0.04963583126664162, 0.1463763266801834, -0.26201391220092773, 0.032185669988393784, -0.02401641570031643, 0.006558172404766083, -0.04787762463092804, -0.10233714431524277, -0.0977674052119255, -0.009534559212625027, -0.12530383467674255, 0.0896824300289154, -0.21993377804756165, -0.0948123186826706, -0.16599810123443604, -0.007046401966363192, -0.09069208055734634, 0.06202944368124008, -0.051165029406547546, -0.16819554567337036, 0.1875305026769638, -0.22082380950450897, 0.036189597100019455, -0.013284857384860516, 0.06994923949241638, 0.2908206284046173, -0.023657463490962982, 0.015876999124884605, -0.04714804142713547, 0.19791869819164276, -0.05997980386018753, 0.0773632749915123, -0.09893213957548141, 0.2124338150024414, -0.04349556565284729, -0.08018185943365097, 0.2602594792842865, -0.11074867844581604, -0.054235804826021194, 0.07915724068880081, -0.00021728136925958097, -0.05496705695986748, -0.21476878225803375, 0.03984920307993889, -0.04246101900935173, -0.0006468864157795906, 0.13718830049037933, 0.0410393550992012, -0.04888371378183365, -0.04636751115322113, -0.09929221868515015, 0.24834702908992767, 0.1365760862827301, 0.16819851100444794, 0.12990765273571014, 0.009480874054133892, 0.13669109344482422, -0.21237190067768097, -0.06321288645267487, 0.05785466730594635, -0.08607599139213562, -0.10444391518831253, -0.09613227099180222, 0.09585106372833252, -0.14378617703914642, 0.018936891108751297, 0.052680738270282745, 0.21024423837661743, 0.025329284369945526, -0.14570802450180054, -0.19646717607975006, -0.0442349873483181, 0.163059800863266, -0.018589774146676064, 0.004935292527079582, 0.06710111349821091, -0.0035510468296706676, -0.11109986156225204, -0.048502638936042786, 0.10003185272216797, -0.08125603199005127, -0.02961966022849083, -0.08942681550979614, -0.05696769803762436, 0.046667154878377914, 0.09972614049911499, -0.038878895342350006, -0.14840273559093475, -0.03282725065946579, -0.15896382927894592, 0.21351277828216553, 0.21275492012500763, 0.16109813749790192, -0.11605117470026016, 0.04228878766298294, -0.13312216103076935, 0.10148786008358002, -0.051136862486600876, -0.03963782265782356, 0.10782567411661148, -0.1688794493675232, -0.07647265493869781, 0.014689345844089985, -0.20997418463230133, -0.09226762503385544, -0.09966807812452316, -0.0011937151430174708, 0.02816046215593815, 0.1992490440607071, -0.05373683571815491, -0.020591912791132927, -0.07634361833333969, 0.18218766152858734, 0.11744830012321472, -0.11860943585634232, -0.18063431978225708, -0.14901278913021088, -0.14858049154281616, 0.22477196156978607, 0.12515059113502502, 0.1341477930545807, 0.11560378223657608, 0.029199793934822083, -0.08196591585874557, 0.1469523161649704, 0.11921293288469315, 0.001038368558511138, -0.16224026679992676, 0.07334087044000626, -0.1242968812584877, -0.06755631417036057, 0.08050767332315445, -0.01156347431242466, -0.1849595606327057, -0.18863126635551453, 0.14043039083480835, 0.02284201979637146, -0.039315059781074524, 0.09238466620445251, -0.03080321103334427, -0.029812870547175407, -0.10731493681669235, 0.10291764885187149, 0.01286363136023283, -0.12970079481601715, -0.08969476819038391, 0.011344741098582745, 0.16810621321201324, 0.050649724900722504, 0.24407239258289337, 0.040886033326387405, 0.038013577461242676, -0.013515886850655079, -0.1517122983932495, 0.05344105511903763, -0.03524705767631531, -0.05049372836947441, -0.0603187121450901, -0.04556630179286003, -0.01949881576001644, 0.2109716832637787, 0.10802552103996277, 0.09678179770708084, -0.10324334353208542, 0.018886812031269073, 0.11609690636396408, -0.020172441378235817, 0.03425797447562218, -0.10387209802865982, -0.03370510786771774, 0.17792102694511414, -0.08192738890647888, 0.12490787357091904, -0.02114851400256157, -0.11209195107221603, -0.1696772277355194, -0.12299434840679169, 0.022181065753102303, -0.0712171345949173, -0.027280203998088837, 0.15918001532554626, -0.19293491542339325, -0.04581356421113014, 0.22630923986434937, 0.02100183442234993, 0.16074347496032715, -0.1481918841600418, -0.1507379114627838, -0.200551375746727, 0.15226902067661285, -0.005705145187675953, 0.07349111884832382, -0.02885757014155388, -0.09303538501262665, -0.037333790212869644, 0.03847979009151459, 0.015710681676864624, -0.010064412839710712, -0.15191946923732758, -0.03509238734841347, 0.10093174874782562, -0.0527091808617115, 0.05122170224785805, -0.06358404457569122, -0.036930184811353683, -0.13379080593585968, -0.029410699382424355, 0.027479173615574837, -0.05580483376979828, 0.10173177719116211, -0.13969235122203827, -0.0021336120553314686, 0.11440280079841614, -0.1023048460483551, -0.1237313449382782, -0.041269946843385696, 0.14060167968273163, -0.2112235724925995, -0.16113708913326263, -0.05269172787666321, -0.08517139405012131, -0.05299043282866478, -0.12368061393499374, 0.09957457333803177, 0.0065055727027356625, -0.07556313276290894, 0.1232614666223526, 0.1926455795764923, 0.11836715042591095, 0.08423657715320587, 0.2027669996023178, 0.041266851127147675, -0.08483878523111343, -0.053137365728616714, 0.20340465009212494, 0.0024373207706958055, -0.03279486298561096, -0.02858155407011509, 0.0381368063390255, -0.07087919861078262, 0.03822958096861839, 0.12042411416769028, 0.05929214507341385, -0.18201518058776855, -0.02740558050572872, -0.08730681240558624, 0.027414407581090927, -0.04268316552042961, -0.1281636655330658, 0.05903615057468414, -0.04757187142968178, -0.041208088397979736, 0.01319018006324768, 0.07884478569030762, -0.10386528074741364, -0.04103934392333031, 0.07716111093759537, -0.1497683972120285, -0.19060245156288147, 0.017056003212928772, -0.10685399174690247, -0.18426616489887238, -0.05813130363821983, 0.14710400998592377, 0.07818775624036789, -0.030810575932264328, 0.1363505721092224, 0.00404864177107811, 0.05706761032342911, 0.04035380482673645, -0.06157372519373894, -0.07287833094596863, 0.24609875679016113, -0.15397293865680695, 0.11629261821508408, 0.03082379885017872, -0.16166093945503235, 0.08484616875648499, 0.15043073892593384, 0.1686381697654724, 0.20898926258087158, -0.07485713064670563, -0.14016938209533691, -0.24387753009796143, -0.0039297547191381454, 0.14452913403511047, -0.010253536514937878, 0.020664032548666, -0.12240274250507355, -0.1025119423866272, 0.33688855171203613, -0.20230793952941895, -0.013183947652578354, 0.024061838164925575, -0.028450265526771545, 0.1507677584886551, 0.0029787137173116207, -0.0873749628663063, 0.08451280742883682, 0.02266949787735939, -0.21973246335983276, -0.08941689133644104, 0.13142120838165283, 0.07515087723731995, 0.02520173415541649, 0.1371699571609497, -0.21830500662326813, 0.16445031762123108, 0.16593900322914124, -0.19119510054588318, -0.04166317731142044, 0.09473835676908493, 0.054446641355752945, -0.21524196863174438, -0.17187432944774628, -0.07081235945224762, 0.06577897816896439, -0.07098432630300522, -0.13804490864276886, -0.025676103308796883, 0.16574829816818237, 0.2880525588989258, -0.039473652839660645, 0.30299168825149536, -0.08317284286022186, 0.09690424054861069, -0.10784704238176346, 0.09420181810855865, -0.17576679587364197, 0.21095117926597595, 0.21595974266529083, 0.06266848742961884, -0.19521082937717438, -0.18384796380996704, 0.013948963955044746, 0.23397134244441986, 0.09995526820421219, 0.17745815217494965, 0.05265508592128754, 0.04913371428847313, -0.2166977971792221, -0.059456683695316315, 0.023338960483670235, -0.16932064294815063, -0.0025018909946084023, -0.07685498893260956, -0.10061171650886536, -0.060004834085702896, 0.023537233471870422, 0.15663954615592957, 0.11515377461910248, 0.01642186939716339, -0.06992902606725693, -0.09766235947608948, 0.0856022909283638, 0.023530103266239166, 0.21708634495735168, 0.11373872309923172, 0.1571885496377945, -0.10681170970201492, 0.0056768665090203285, -0.012478450313210487, 0.015756340697407722, -0.016239793971180916, 0.038559991866350174, 0.09790831059217453, 0.10534083843231201, -0.09940077364444733, 0.16839691996574402, -0.029538601636886597, -0.26105424761772156, 0.24879856407642365, 0.03312559425830841, 0.05571611225605011, -0.04445531964302063, 0.051846858114004135, 0.032277852296829224, -0.030531341210007668, -0.004852531477808952, 0.08331448584794998, -0.228690505027771, 0.18695946037769318, 0.040779341012239456, 0.05775421857833862, -0.1504770666360855, -0.15324506163597107, 0.04033765196800232, -0.03176997974514961, -0.12186042219400406, 0.01032776478677988, -0.10390015691518784, 0.14767029881477356, 0.1555289626121521, -0.16911277174949646, 0.027234798297286034, -0.013428892008960247, -0.20115506649017334, -0.09372472763061523, -0.09340012818574905, 0.15592961013317108, -0.20977646112442017, -0.0441415011882782, -0.06775631755590439, -0.18846340477466583, 0.16924647986888885, 0.009155797772109509, -0.060693059116601944, 0.15742161870002747, -0.0594891794025898, 0.1099298894405365, 0.02181491069495678, -0.1350337415933609, 0.03396131843328476, 0.2350292056798935, 0.05114861950278282, 0.17564424872398376, -0.09364323318004608, -0.1255687028169632, 0.09339455515146255, 0.2593086361885071, 0.028535153716802597, -0.035389773547649384, -0.2017071694135666, -0.02778461016714573, 0.04183521121740341, 0.01365633774548769, -0.13763464987277985, -0.18456391990184784, -0.3317287862300873, 0.16215868294239044, -0.014973524026572704, 0.22125302255153656, -0.01741822436451912, 0.2421800047159195, 0.054970357567071915, -0.14057932794094086, 0.09211169183254242, 0.17464599013328552, -0.06482347100973129, -0.08466970920562744, 0.07719691097736359, -0.08989543467760086, -0.12388602644205093, 0.09749367833137512, -0.2291579395532608, 0.14370687305927277, -0.12170392274856567, 0.05957756191492081, -0.04318799078464508, 0.01023371797055006, -0.16557106375694275, 0.06668055057525635, -0.019352557137608528, -0.043673545122146606, 0.09683375060558319, 0.06521572917699814, 0.023651203140616417, 0.018860241398215294, 0.1329728364944458, -0.046389639377593994, 0.03432796150445938, 0.027282172814011574, -0.056872379034757614, -0.040724996477365494, -0.07016591727733612, 0.064894899725914, -0.07328005880117416, 0.10685225576162338, -0.07092691957950592, 0.007192960940301418, -0.15001173317432404, -0.0030513633973896503, -0.0846407413482666, -0.06752538681030273, -0.10520780086517334, -0.10423814505338669, 0.08968478441238403, 0.19042065739631653, 0.06512287259101868, 0.0973072275519371, -0.2162998765707016, -0.18272581696510315, 0.09041086584329605, 0.2716812491416931, -0.05182056501507759, -0.07454679906368256, 0.035608768463134766, 0.09317562729120255, 0.13265283405780792, -0.14021307229995728, 0.09315263479948044, -0.08607643842697144, -0.05535094812512398, -0.040104180574417114, 0.17216448485851288, 0.2582918405532837, 0.047469474375247955, 0.059651196002960205, -0.016090579330921173, 0.13288243114948273, -0.12314409017562866, 0.07899998128414154, 0.0872027650475502, 0.0661875382065773, -0.06797933578491211, -0.012772619724273682, 0.03997262939810753, 0.003024577395990491, 0.07894865423440933, 0.045414671301841736, 0.02459673583507538, -0.0677671879529953, -0.4018588960170746, 0.23683932423591614, 0.5857903957366943, -0.4719982147216797, 0.1748639941215515, -0.7227251529693604, -0.37370046973228455, -0.5061268210411072, 0.7946369051933289, -0.8543685674667358, -0.514872670173645, -0.7139334082603455, 0.25829315185546875, -0.7524351477622986, 0.3546678125858307, -0.7102777361869812, -0.10026862472295761, 0.07941051572561264, 0.11413182318210602, 0.27085602283477783, 0.2591817080974579, -0.053294967859983444, -0.21092861890792847, -0.13581021130084991, -0.04801396653056145, -0.2907199561595917, 0.018248025327920914, 0.1545463502407074, 0.03293699026107788, 0.0914868488907814, -0.024273306131362915, -0.08629744499921799, -0.07061053812503815, -0.2024834305047989, -0.048798397183418274, 0.0002547500771470368, -0.2205934375524521, 0.020765475928783417, 0.00847285334020853, -0.33118101954460144, 0.2981858253479004, -0.056343112140893936, 0.035668522119522095, 0.09127573668956757, -0.139717698097229, 0.12672431766986847, 0.08056220412254333, 0.20446643233299255, -0.10016106069087982, -0.2625746726989746, 0.05573499947786331, 0.2411501407623291, 0.06518390774726868, 0.04988538473844528, 0.12237701565027237, -0.011518127284944057, -0.005319606512784958, 0.0822855606675148, -0.25778037309646606, -0.044654376804828644, -0.09769505262374878, 0.19887207448482513, 0.21389010548591614, 0.09206880629062653, 0.14956527948379517, 0.19206678867340088, -0.2094266712665558, -0.16290856897830963, -0.12818829715251923, 0.003796615172177553, -0.1683044284582138, 0.02689456008374691, -0.07314789295196533, 0.017461983487010002, 0.09154696017503738, 0.13828448951244354, 0.2753029465675354, -0.14682327210903168, 0.0026977681554853916, -0.03295659273862839, -0.05106262117624283, -0.20291782915592194, 0.01394760049879551, -0.02293759398162365, 0.1326903998851776, 0.048737384378910065, -0.018625106662511826, 0.14720559120178223, 0.06433138251304626, 0.017779642716050148, -0.1355064958333969, 0.1335957944393158, 0.08225816488265991, -0.1114247664809227, -0.010382946580648422, -0.047131698578596115, -0.10410475730895996, -0.08697183430194855, -0.13971902430057526, 0.03653305396437645, -0.020925253629684448, -0.04075048863887787, 0.11501438170671463, 0.059131212532520294, 0.008544564247131348, 0.17842668294906616, 0.06298553198575974, 0.07804538309574127, -0.2422397881746292, -0.12445442378520966, 0.0037050878163427114, 0.1320057511329651, 0.0037097991444170475, 0.024651363492012024, 0.20802699029445648, -0.2672158181667328, 0.16955740749835968, -0.026697954162955284, -0.2578894793987274, -0.2930939793586731, 0.3473840653896332, -0.0376105010509491, -0.3354378938674927, 0.3762083649635315, -0.2269534021615982, -0.013906811363995075, -0.19296732544898987, 0.2075740098953247, 0.053069569170475006, 0.08314715325832367, -0.0481809638440609, 0.024936573579907417, 0.11360207945108414, -0.12631146609783173, -0.07674720883369446, -0.006067356094717979, -0.031280528753995895, 0.25769880414009094, -0.236444890499115, -0.07012920081615448, -0.12427297234535217, 0.047642696648836136, 0.1456107646226883, 0.0681338980793953, 0.027959519997239113, 0.16143088042736053, -0.08207017183303833, -0.1574307233095169, -0.19080130755901337, -0.13933134078979492, 0.06273886561393738, -0.18591856956481934, 0.04368937015533447, 0.07396143674850464, 0.1219864934682846, -0.1741558164358139, -0.23216179013252258, 0.1832728236913681, -0.08799093216657639, 0.293948233127594, 0.01535455696284771, -0.014804039150476456, -0.12374582886695862, -0.018397271633148193, 0.19503769278526306, 0.1130434200167656, 0.05040624737739563, -0.03785235434770584, -0.07875162363052368, -0.004296856001019478, 0.10953672230243683, -0.026771357282996178, 0.22309879958629608, -0.10046766698360443, 0.20767083764076233, -0.1470019519329071, -0.10739146918058395, -0.23590408265590668, -0.059483129531145096, 0.13010701537132263, -0.006759679410606623, -0.06112303584814072, 0.08575403690338135, -0.08664125204086304, 0.25785601139068604, 0.2728929817676544, -0.2603404223918915, 0.15812624990940094, -0.06337057054042816, 0.19639818370342255, 0.07865569740533829, 0.16769000887870789, 0.1170254796743393, 0.3135463297367096, -0.35810524225234985, -0.0757267102599144, -0.24277614057064056, -0.05456889793276787, 0.0637960359454155, 0.2747504413127899, -0.20151689648628235, 0.06870020925998688, 0.2485446035861969, -0.0663660317659378, -0.05264919623732567, -0.0866612121462822, -0.1239531934261322, -0.11338455229997635, 0.09854467958211899, -0.009044084697961807, -0.10301407426595688, 0.08459091186523438, 0.12252864241600037, 0.050407879054546356, -0.20268948376178741, 0.2337392419576645, -0.27048587799072266, -0.09439640492200851, -0.07969851046800613, 0.0012339877430349588, 0.0949232429265976, -0.23539194464683533, -0.19325916469097137, -0.05209233984351158, 0.11663278937339783, -0.08269588649272919, -0.11354775726795197, 0.2619999945163727, -0.3455016314983368, -0.04267247021198273, 0.18082144856452942, -0.1295265108346939, 0.1691264659166336, 0.27311354875564575, -0.027234086766839027, 0.051425907760858536, -0.058755699545145035, 0.30511167645454407, 0.11704165488481522, 0.13655968010425568, -6.5593994804658e-05, 0.1287650316953659, 0.08171319961547852, 0.015853745862841606, -0.12982968986034393, -0.0401780791580677, 0.20598801970481873, 0.01068092230707407, -0.10096580535173416, 0.12825103104114532, -0.07619696110486984, 0.07877499610185623, -0.034287240356206894, 0.10094661265611649, 0.21170544624328613, 0.13960207998752594, 0.1720617711544037, -0.01948278211057186, -0.1324186623096466, -0.03143465146422386, -0.20091047883033752, 0.07563536614179611, -0.20160460472106934, 0.24935469031333923, 0.01750056818127632, -0.3116850256919861, 0.3259427845478058, -0.06780482828617096, 0.06867089122533798, 0.13417178392410278, -0.2205818146467209, -0.27699071168899536, -0.002221510512754321, -0.048525284975767136, 0.005433582700788975, -0.01237204484641552, -0.3026672601699829, -0.021537408232688904, 0.15917441248893738, 0.0882040411233902, 0.028331883251667023, 0.0934603363275528, -0.008389663882553577, -0.06969202309846878, 0.06498745083808899, -0.2790893018245697, -0.08729764074087143, -0.03785623610019684, 0.07688795775175095, -0.1970377117395401, -0.15330220758914948, 0.06714926660060883, -0.10628080368041992, -0.11964397132396698, -0.030212851241230965, -0.005597300827503204, -0.017978409305214882, 0.058059342205524445, -0.17462323606014252, -0.059317149221897125, 0.1446371078491211, 0.05659330636262894, -0.010475770570337772, 0.06256462633609772, 0.0921592116355896, -0.020430495962500572, -0.2693067789077759, -0.13274352252483368, -0.242885023355484, 0.014721756801009178, -0.06307599693536758, -0.050895269960165024, -0.08366034179925919, 0.2690688669681549, -0.0003702426329255104, 0.13519136607646942, -0.15451855957508087, -0.04342411458492279, -0.11919510364532471, 0.04614827781915665, -0.04886990785598755, -0.09071067720651627, 0.10515860468149185, -0.056531209498643875, -0.011673283763229847, -0.0731654018163681, -0.05416514351963997, -0.13676346838474274, 0.11809845268726349, -0.11504362523555756, 0.02787482552230358, 0.12432968616485596, -0.11240831017494202, 0.16649821400642395, -0.0319434218108654, 0.008556721732020378, -0.03834502771496773, -0.06417343020439148, 0.18497775495052338, -0.18901929259300232, 0.0694468766450882, -0.1987290233373642, 0.20677874982357025, 0.1168784350156784, 0.1386203169822693, -0.030092397704720497, -0.18276198208332062, -0.09506536275148392, 0.13009656965732574, -0.08180396258831024, -0.004307279363274574, 0.1644447147846222, 0.06354410946369171, -0.09505349397659302, 0.010112346149981022, -0.3037557601928711, 0.03689126297831535, -0.21348661184310913, -0.00417323736473918, -0.011091452091932297, 0.07950693368911743, -0.1435273140668869, -0.2769613265991211, -0.08374423533678055, 0.24268628656864166, 0.19644425809383392, 0.2499246895313263, 0.03973250091075897, -0.0629020482301712, 0.05987615883350372, -0.12766237556934357, -0.028785962611436844, 0.12492237240076065, 0.057526204735040665, 0.04583483934402466, 0.1540057510137558, 0.007302324287593365, -0.14309914410114288, 0.0333637036383152, 0.03485381603240967, -0.05491259694099426, 0.1470523327589035, 0.025513308122754097, 0.0710853785276413, 0.05520803481340408, 0.13463176786899567, -0.12865576148033142, 0.14587129652500153, -0.0005254045827314258, -0.024531718343496323, 0.06400860846042633, -0.04996683448553085, 0.1329631805419922, -0.1412511169910431, 0.008275202475488186, -0.025265619158744812, -0.0654362142086029, -0.06478730589151382, 0.10963992774486542, -0.07822727411985397, -0.07319697737693787, 0.048403795808553696, -0.19286347925662994, 0.26958271861076355, -0.1538996696472168, 0.009930785745382309, 0.06491881608963013, 0.0948987528681755, -0.06954671442508698, -0.04454798623919487, 0.06681721657514572, 0.1591389924287796, 0.12516993284225464, -0.11704584956169128, -0.21411709487438202, 0.04772304370999336, 0.07015849649906158, 0.14646443724632263, 0.05431133881211281, -0.02254331298172474, 0.1263359785079956, 0.020844383165240288, -0.06221964210271835, -0.0948663279414177, -0.019113682210445404, 0.1682278960943222, 0.07689166814088821, -0.14161765575408936, 0.05613553524017334, -0.08908174186944962, -0.019359685480594635, 0.0462353378534317, 0.009743621572852135, 0.0999351516366005, 0.1876516491174698, -0.0472525991499424, 0.03501967340707779, -0.08036062121391296, 0.16860659420490265, 0.05359187349677086, -0.06791224330663681, 0.04651987925171852, -0.034078843891620636, -0.04230270907282829, 0.10034443438053131, -0.009231124073266983, 0.010376488789916039, 0.10299573838710785, 0.11397885531187057, 0.36219897866249084, 0.011328558437526226, 0.27569854259490967, -0.1309046447277069, -0.13912548124790192, 0.08299374580383301, -0.014579113572835922, 0.026895584538578987, -0.034898679703474045, -0.0125854117795825, -0.12814262509346008, -0.09053158760070801, -0.16083145141601562, 0.17393997311592102, 0.045515213161706924, 0.0510391891002655, -0.0019111728761345148, 0.031500376760959625, -0.03472777083516121, -0.014708582311868668, -0.031095150858163834, 0.04386322200298309, 0.3296160101890564, -0.04225105792284012, 0.1876867264509201, 0.13216978311538696, -0.1657497137784958, 0.054999954998493195, -0.1891653835773468, 0.15571430325508118, 0.09413529187440872, 0.0655188262462616, -0.31894123554229736, 0.09498374909162521, -0.08592512458562851, 0.1866942048072815, 0.033619225025177, 0.01719716750085354, 0.2264900952577591, -0.1525779366493225, 0.10352911055088043, 0.09811133146286011, -0.04613948613405228, 0.01202547736465931, 0.07744178920984268, -0.008357815444469452, 0.05305107310414314, 0.1476864516735077, -0.05833876132965088, 0.03480704501271248, -0.4207106828689575, 0.0043688141740858555, -0.16001850366592407, -0.1574684977531433, 0.08130637556314468, 0.02813350223004818, -0.08235014230012894, -0.05672134831547737, -0.06383500248193741, 0.0498066209256649, 0.15909938514232635, -0.0972856879234314, 0.014470383524894714, -0.054422542452812195, 0.10908793658018112, -0.003220892744138837, -0.20767275989055634, -0.04005848988890648, -0.012441321276128292, -0.10039608925580978, -0.050725676119327545, 0.018913323059678078, 0.006540751084685326, 0.00043757210369221866, -0.03875033184885979, 0.05277688428759575, 0.11574098467826843, -0.22475075721740723, -0.08097229152917862, 0.05037607252597809, -0.04252994433045387, -0.2715279757976532, 0.007992282509803772, -0.06802588701248169, -0.01968614012002945, -0.13120737671852112, -0.17667484283447266, -0.039057474583387375, -0.008990293368697166, -0.15555937588214874, 0.052164554595947266, -0.0046766651794314384, -0.02363375388085842, 0.0810372456908226, -0.20008791983127594, 0.018132470548152924, 0.23403754830360413, -0.016703687608242035, 0.387137234210968, 0.20262084901332855, 0.013100332580506802, -0.08944449573755264, 0.09999946504831314, 0.018684349954128265, -0.027214884757995605, -0.057728637009859085, 0.0015208121621981263, -0.03129537031054497, -0.13387036323547363, -0.05848770588636398, 0.05771283060312271, 0.10859828442335129, -0.03864999860525131, -0.14867667853832245, -0.13155964016914368, 0.10720692574977875, -0.060682158917188644, -0.07578441500663757, -0.15182772278785706, -0.011504207737743855, 0.11202714592218399, -0.1029721274971962, -0.09855704754590988, -0.008338714949786663, 0.24330201745033264, -0.025155670940876007, -0.04290133714675903, -0.13264933228492737, -0.22585812211036682, -0.11191447824239731, 0.20104281604290009, -0.06371745467185974, -0.2054090052843094, 0.21897822618484497, 0.018331587314605713, -0.068669393658638, -0.11432203650474548, 0.23324154317378998, 0.35122063755989075, 0.029277004301548004, -0.02510763145983219, 0.09075088053941727, -0.15824471414089203, -0.023994842544198036, -0.24122308194637299, 0.04752085357904434, -0.06913187354803085, -0.2681254744529724, 0.07014060765504837, 0.07292386889457703, -0.20344893634319305, -0.015945734456181526, 0.06150482967495918, 0.1436203420162201, -0.04997821897268295, 0.10850472748279572, -0.06168843433260918, -0.007564508821815252, 0.03635278344154358, -0.19905447959899902, -0.4514487683773041, -0.0556466244161129, 0.22928552329540253, -0.17252756655216217, -0.0941503718495369, 0.20727106928825378, 0.12135585397481918, -0.03883436322212219, -0.03880307823419571, -0.1023978516459465, 0.04013606160879135, 0.014912595972418785, -0.003524399595335126, -0.059123050421476364, 0.1518508344888687, 0.026258407160639763, 0.2200913429260254, -0.1648329347372055, 0.07326195389032364, 0.04292326048016548, 0.1642904281616211, -0.09195158630609512, 0.022366458550095558, 0.04644245281815529, -0.19441868364810944, -0.08576630055904388, -0.0698496475815773, -0.1935400664806366, 0.04477833956480026, -0.0343533530831337, -0.052351146936416626, 0.07734759896993637, 0.08782093971967697, -0.18524587154388428, 0.16228508949279785, 0.0026760927867144346, -0.03377899155020714, 0.1411477029323578, -0.060165904462337494, -0.06932450085878372, -0.01689711958169937, -0.04040548950433731, 0.03781639039516449, 0.20234230160713196, -0.11361715942621231, 0.06401016563177109, -0.1332247108221054, 0.12861044704914093, 0.14411863684654236, -0.06949245929718018, -0.2074771225452423, 0.06275515258312225, -0.03472936153411865, 0.09290339797735214, -0.14472314715385437, -0.16640926897525787, 0.1284858137369156, -0.012737479992210865, -0.12173135578632355, -0.007975994609296322, -0.040308669209480286, -0.014129546470940113, -0.07680444419384003, -0.17103905975818634, -0.32811859250068665, -0.2215719372034073, 0.18469281494617462, 0.20011202991008759, 0.13712947070598602, -0.14334408938884735, 0.09043511748313904, -0.13612408936023712, -0.052568040788173676, 0.11135446280241013, 0.12001893669366837, -0.11372365802526474, 0.03512771055102348, 0.03648098558187485, -0.24369007349014282, -0.025885725393891335, 0.01702217385172844, -0.07974490523338318, -0.3378859758377075, -0.1813717931509018, 0.18678714334964752, -0.15381687879562378, 0.014196181669831276, -0.017113467678427696, -0.041906923055648804, 0.0677977055311203, 0.12240993231534958, -0.008610540069639683, -0.05275559052824974, -0.12718047201633453, 0.05534796044230461, -0.10906442999839783, 0.08314976096153259, 0.026219958439469337, 0.042791519314050674, -0.2977462112903595, -0.02871355041861534, -0.10070056468248367, -0.11060887575149536, 0.04902553930878639, 0.12136609107255936, -0.023145662620663643, 0.20940075814723969, 0.06623104959726334, 0.1645270735025406, -0.04102781414985657, 7.658829304091341e-08, 0.044111598283052444, -0.10463352501392365, 0.011166592128574848, 0.053031809628009796, 0.1788860261440277, -0.07723905891180038, 0.09620985388755798, 0.06919015198945999, 0.03444400802254677, -0.0698050856590271, -0.1684659868478775, -0.013086496852338314, 0.06888505071401596, -0.0029820241034030914, 0.044021185487508774, 0.05969863384962082, 0.28657764196395874, -0.025003205984830856, -0.021915016695857048, -0.11556075513362885, -0.43464726209640503, -0.12526562809944153, -0.08151430636644363, -0.03171933814883232, -0.010629196651279926, -0.19119694828987122, -0.07708501815795898, 0.07373226433992386, -0.029634280130267143, 0.2981299161911011, 0.14442837238311768, 0.07065669447183609, -0.1656860113143921, -0.07150072604417801, 0.16972847282886505, 0.09690038859844208, 0.025499049574136734, -0.08720941096544266, -0.0142758097499609, 0.039503663778305054, -0.07087645679712296, -0.11296720057725906, -0.0035030157305300236, 0.07019517570734024, -0.28291913866996765, 0.05443976819515228, -0.015463720075786114, 0.0644998699426651, -0.09471272677183151, 0.0880085751414299, -0.2813427448272705, 0.006954435724765062, 0.009307561442255974, 0.19348640739917755, -0.0036209889221936464, -0.10741633176803589, 0.17816980183124542, 0.021185722202062607, 0.07351093739271164, 0.07290909439325333, 0.10251110792160034, -0.14444082975387573, 0.0515967532992363, 0.10375931113958359, -0.11520391702651978, 0.1809958517551422, 0.021445391699671745, 0.38020989298820496, -0.13709676265716553, 0.20109829306602478, 0.19760636985301971, -0.029052339494228363, -0.028068657964468002, 0.10612106323242188, 0.19011352956295013, 0.010463506914675236, -0.01327541097998619, -0.20883728563785553, 0.03835758939385414, -0.06989599019289017, 0.15264484286308289, -0.008504522033035755, -0.11738470196723938, 0.17822358012199402, 0.022296352311968803, -0.042990367859601974, 0.048771657049655914, 0.05414322763681412, -0.27386629581451416, 0.01473549846559763, -0.10516811907291412, 0.015519551001489162, -0.014077559113502502, -0.01762850023806095, -0.04333433881402016, -0.07259663939476013, -0.020014680922031403, -0.1611148715019226, 0.12505938112735748, 0.021371521055698395, 0.015136141330003738, 0.07982545346021652, -0.020380238071084023, -0.0489458329975605, 0.09517984837293625, -0.09464472532272339, 0.030020754784345627, 0.04353366047143936, 0.059546105563640594, -0.005148761905729771, 0.055518586188554764, -0.2993677258491516, 0.00851546972990036, -0.12213128060102463, 0.03234092891216278, 0.11332909762859344, 0.17346221208572388, 0.12052728980779648, -0.0033550423104315996, -0.19061672687530518, -0.19376283884048462, -0.019627651199698448, -0.10010284930467606, -0.06297870725393295, -0.0010573093313723803, -0.12991082668304443, -0.1503685563802719, -0.040219251066446304, -0.02599967271089554, 0.17069745063781738, -0.21708568930625916, 0.05845336243510246, -0.014956961385905743, -0.04029424861073494, -0.033320095390081406, -0.20236735045909882, -0.14164365828037262, 0.1399482786655426, -0.07656871527433395, -0.08328887075185776, 0.21896030008792877, 0.0803714171051979, -0.24508944153785706, -0.11969245970249176, 0.0501590296626091, 0.02203805185854435, 0.3246675133705139, 0.05366476997733116, -0.11888051778078079, -0.20065267384052277, -0.007045541889965534, -0.12043222784996033, 0.014070708304643631, -0.0393093042075634, -0.08473479747772217, -0.00948654767125845, 0.027734296396374702, 0.02366204373538494, -0.013533920980989933, 0.1371835321187973, -0.19045855104923248, -0.2242794781923294, -0.07566282153129578, 0.2250082939863205, -0.2295093536376953, 0.04149152338504791, -0.12762455642223358, -0.07117319107055664, 0.11095435172319412, -0.0680505633354187, 0.09491102397441864, -0.06527816504240036, 0.05777040496468544, 0.14845022559165955, 0.14470550417900085, 0.08833829313516617, -0.04838771000504494, -0.032601598650217056, 0.16491061449050903, 0.26689469814300537, 0.02579621970653534, 0.15283767879009247, 0.03532423824071884, 0.1360354870557785, 0.10079758614301682, 0.055790383368730545, 0.06080656126141548, 0.028864191845059395, -0.21370543539524078, 0.1342886984348297, 0.14741358160972595, 0.20735101401805878, -0.02627301961183548, -0.06967471539974213, -0.0851178988814354, -0.019378535449504852, -0.1408400684595108, -0.0367092601954937, 0.17781010270118713, 0.05876627564430237, -0.14757627248764038, -0.08356767892837524, -0.050896115601062775, 0.12681862711906433, -0.08371850848197937, 0.0735396295785904, 0.08165069669485092, -0.060276009142398834, -0.35500434041023254, -0.22180268168449402, 0.03703336417675018, -0.08597827702760696, 0.023721935227513313, -0.14817167818546295, -0.06904525309801102, -0.07630831003189087, 0.07853731513023376, 0.11747568845748901, -0.0133756622672081, -0.02781594730913639, -0.04838968440890312, 0.22150535881519318, 0.07762718200683594, -0.028256496414542198, -0.20971952378749847, -0.04580242186784744, 0.18196965754032135, 0.1184488981962204, 0.016767269000411034, 0.13928619027137756, -0.005134159233421087, 0.17185477912425995, 0.1665647178888321, -0.1068318709731102, -0.009258790872991085, -0.08620823174715042, -0.1300019919872284, -0.1519346535205841, 0.050010934472084045, 0.026239145547151566, -0.22319060564041138, 0.2200639694929123, 0.19599522650241852, 0.33726227283477783, 0.11387033760547638, -0.0668230950832367, 0.1720367670059204, -0.20839479565620422, -0.18444198369979858, -0.27990102767944336, -0.2525852918624878, 0.16653577983379364, 0.05522722750902176, 0.02906818315386772, -0.034812796860933304, 0.3241117596626282, -0.028226399794220924, -0.20197147130966187, -0.49885815382003784, 0.19565215706825256, 0.07287179678678513, -0.035518236458301544, 0.21897830069065094, 0.2751324772834778, 0.20541879534721375, -0.21021214127540588, -0.12274866551160812, -0.040275633335113525, 0.08290113508701324, 0.12402402609586716, 0.22540660202503204, 0.005995545070618391, -0.1342432200908661, -0.4740465581417084, -0.2580629289150238, 0.0209726020693779, -0.3203032314777374, -0.5039407014846802, -0.2523448169231415, 0.15949328243732452, -0.23025497794151306, -0.16760796308517456, 0.1782371699810028, -0.20639412105083466, -0.18209874629974365, -0.34001365303993225, 0.013377184048295021, 0.07712860405445099, -0.09990580379962921, 0.06971906125545502, 0.043159715831279755, 0.05213494226336479, 0.06931813061237335, 0.1468060314655304, 0.024385938420891762, 0.0865664929151535, 0.12697498500347137, -0.03460206463932991, 0.07385844737291336, 0.21573929488658905, 0.011152257211506367, 0.08876433968544006, 0.034685347229242325, 0.04850585758686066, -0.07602385431528091, -0.3903535008430481, 0.04095643758773804, 0.1782747507095337, 0.05839747563004494, -0.10085077583789825, 0.12801936268806458, 0.08884219825267792, 0.11024771630764008, -0.05899423733353615, 0.034553010016679764, -0.19195161759853363, 0.007546198088675737, -0.0015633698785677552, 0.05849770829081535, -0.21669772267341614, -0.0376671627163887, -0.1418045461177826, 0.015240808948874474, 0.12414484471082687, -0.0731000006198883, 0.1225510835647583, -0.1333358734846115, 0.06167072430253029, 0.017515700310468674, -0.09247856587171555, 0.25256049633026123, -0.053803835064172745, -0.037447381764650345, -0.17704589664936066, -0.11817407608032227, 0.1257523000240326, 0.06375396996736526, -0.0040004197508096695, -0.05571470409631729, -0.1385132074356079, 0.054924752563238144, -0.009750095196068287, -0.0480162650346756, -0.13413162529468536, 0.03825191780924797, 0.05539689213037491, 0.13050104677677155, -0.008549236692488194, 0.01062177773565054, 0.06864892691373825, -0.12494215369224548, 0.08225922286510468, -0.1605897694826126, -0.44821226596832275, 0.8017621636390686, 0.3292400538921356, -0.393706351518631, 0.047451891005039215, -0.3993796706199646, -0.04748491942882538, 0.41296088695526123, -0.6249987483024597, 0.9327648878097534, 0.579718828201294, 0.19433808326721191, -0.19306418299674988, 0.6404582262039185, -0.7329868674278259, 0.2685190439224243, -0.17316481471061707, 0.11334280669689178, -0.20233634114265442, 0.02276308834552765, 0.20591488480567932, 0.14389899373054504, -0.03721898794174194, 0.2404928207397461, 0.1311436891555786, 0.11669474840164185, 0.23250815272331238, -0.17007240653038025, -0.012593086808919907, -0.1268416792154312, -0.18683022260665894, -0.011453332379460335, 0.11759546399116516, -0.06018041446805, 0.25824761390686035, 0.13960231840610504, 0.02331416681408882, -0.014639738015830517, -0.31034454703330994, -0.4176121950149536, 0.13985459506511688, -0.07157497853040695, -0.32969769835472107, 0.1323505938053131, 0.38264504075050354, 0.09661763906478882, 0.10094895958900452, 0.13646642863750458, -0.28069067001342773, 0.07884395122528076, -0.26129257678985596, 0.1132688894867897, 0.03654279559850693, -0.07651598006486893, -0.03318072482943535, 0.01143218856304884, -0.10825522243976593, -0.17329902946949005, 0.21717248857021332, 0.11320405453443527, -0.22101713716983795, -0.029760178178548813, -0.089556984603405, 0.34442752599716187, -0.22163602709770203, 0.1259927898645401, -0.058351170271635056, -0.08354176580905914, 0.3336297571659088, -0.1642913818359375, 0.2608199715614319, 0.3378746211528778, -0.07363037765026093, 0.08306098729372025, 0.401147723197937, -0.06250456720590591, -0.2991388142108917, -0.1319703459739685, -0.4217474162578583, 0.14346763491630554, -0.22569993138313293, 0.2375721037387848, -0.31769537925720215, -0.017165623605251312, 0.1360727697610855, -0.13281072676181793, 0.1353774070739746, 0.13818275928497314, -0.14802996814250946, -0.2349592000246048, 0.1535206437110901, -0.07260967791080475, -0.2536274790763855, -0.07965763658285141, -0.2771497368812561, -0.25627127289772034, 0.17739513516426086, -0.019078265875577927, -0.15395396947860718, -0.14220477640628815, -0.14500124752521515, 0.1907803863286972, -0.005012039560824633, -0.2444971203804016, -0.03454180806875229, -0.09827762842178345, -0.02621367573738098, 0.10664287954568863, 0.5973021984100342, 0.6151620149612427, 0.23663145303726196, -0.21087615191936493, 0.44515395164489746, 0.009359988383948803, 0.1101272851228714, 0.24538040161132812, -0.19609779119491577, 0.004899975843727589, -0.0341196283698082, -0.2377150058746338, 0.2336643785238266, 0.2178744077682495, -0.37466666102409363, 0.2017107754945755, 0.31089651584625244, 0.30165424942970276, 0.18371036648750305, 0.038896434009075165, 0.1896585375070572, -0.21843458712100983, 0.037991367280483246, 0.13841688632965088, -0.20422236621379852, 0.04913768544793129, -0.11646924912929535, 0.12792788445949554, 0.13786886632442474, -0.010485814884305, 0.103879913687706, 0.07349855452775955, 0.12120863795280457, -0.15506905317306519, -0.039756521582603455, -0.22798141837120056, 0.33996254205703735, -0.20040485262870789, 0.2616350054740906, 0.23676061630249023, -0.06248050928115845, -0.0055761379189789295, -0.04183643311262131, -0.14109769463539124, 0.11614653468132019, -0.08544865250587463, 0.10436294227838516, -0.1446525603532791, 0.017421551048755646, -0.3445233702659607, 0.08278010785579681, 0.24341383576393127, -0.18678145110607147, -0.0007542153471149504, 0.1387091875076294, -0.015376206487417221, 0.24074667692184448, -0.24001067876815796, -0.09316078573465347, 0.07029860466718674, -0.1241041049361229, 0.21389299631118774, -0.02185480296611786, -0.11973457783460617, -0.17548108100891113, 0.2842930853366852, -0.13813529908657074, 0.24077960848808289, -0.08710481971502304, -0.113935187458992, -0.14644022285938263, 0.15428639948368073, -0.0769813060760498, 0.14131326973438263, -0.10248133540153503, 0.14222265779972076, 0.08245799690485, -0.2947286069393158, 0.060512252151966095, 0.022362520918250084, -0.12558554112911224, 0.032599423080682755, 0.11977681517601013, 0.23551040887832642, -0.06144695356488228, 0.028320027515292168, -0.03212742879986763, 0.009430289268493652, 0.36042240262031555, 0.17010992765426636, 0.21537065505981445, 0.07514304667711258, -0.30202391743659973, -0.18858876824378967, 0.40367668867111206, -0.2789090871810913, -0.5550299882888794, 0.08925464004278183, -0.0874752327799797, -0.07391905784606934, -0.3153698444366455, 0.058724939823150635, -0.061838116496801376, 0.06709149479866028, 0.25164467096328735, -0.1465454250574112, -0.025328142568469048, 0.008172997273504734, -0.1627350002527237, -0.09057268500328064, 0.2051820009946823, -0.09713371098041534, -0.13907881081104279, -0.05459156259894371, -0.2524178922176361, -0.0328812338411808, 0.07655373960733414, -0.1114598736166954, -0.05481268838047981, 0.11811988055706024, 0.03337736800312996, -0.12290164828300476, -0.07398819923400879, 0.12663650512695312, -0.039185330271720886, -0.05026521906256676, -0.0934663936495781, -0.06944794207811356, 0.05373546853661537, -0.2665427625179291, -0.14242707192897797, 0.034406278282403946, 0.24796688556671143, -0.10021715611219406, -0.08473975211381912, -0.18453983962535858, -0.08412235230207443, 0.05917184054851532, -0.20494545996189117, 0.15301582217216492, 0.10377398878335953, 0.10755104571580887, 0.035601917654275894, -0.10555128753185272, 0.19285428524017334, 0.11684179306030273, -0.1015014499425888, 0.079525426030159, -0.114417664706707, 0.060801804065704346, -0.26394161581993103, -0.12758813798427582, 0.10032882541418076, -0.16813473403453827, -0.14380228519439697, -0.03322809189558029, 0.08737190067768097, 0.28130191564559937, 0.29594749212265015, -0.23016639053821564, -0.17076490819454193, 0.037874285131692886, -0.05977599322795868, 0.11978139728307724, -0.02367943711578846, 0.1798865646123886, 0.08191721886396408, -0.4307701885700226, 0.029791615903377533, 0.2223854959011078, -0.06877991557121277, -0.2412681132555008, 0.0828678160905838, 0.02729683369398117, 0.14894989132881165, 0.34141236543655396, 0.0945080816745758, 0.12227370589971542, 0.00972162839025259, 0.11584966629743576, -0.11283978074789047, -0.11516617238521576, -0.12968246638774872, 0.032760731875896454, 0.30609193444252014, -0.16712696850299835, -0.1991935521364212, -0.10081067681312561, 0.1699075698852539, 0.16423416137695312, -0.11927153915166855, 0.32331550121307373, 0.12387076020240784, 0.08366794139146805, -0.18852591514587402, -0.2820097804069519, 0.02573627606034279, -0.4552520513534546, -0.43747687339782715, -0.23101657629013062, -0.027141747996211052, 0.11636295169591904, 0.18775270879268646, -0.0939815565943718, -0.022456064820289612, 0.29570555686950684, 0.047964200377464294, -0.05852144584059715, -0.5082184076309204, -0.2801765501499176, -0.15290957689285278, 0.42195814847946167, 0.14406807720661163, -0.04309106990695, -0.2634819447994232, -0.2311912178993225, -0.11841198801994324, -0.2607502341270447, -0.26256656646728516, -0.07522100955247879, 0.12535212934017181, -0.5742605924606323, -0.35117819905281067, -0.07773415744304657, 0.05169982090592384, -0.12772130966186523, -0.23341752588748932, 0.02203747071325779, 0.17955639958381653, -0.034801729023456573, 0.1706586629152298, -0.15484102070331573, -0.026005631312727928, -0.03283432498574257, -0.23590025305747986, 0.07887180894613266, -0.1000099703669548, 0.10795731842517853, 0.054732274264097214, -0.0579015389084816, -0.004635343793779612, 0.10123541951179504, 0.1350342333316803, -0.15991052985191345, 0.0066419243812561035, -0.06536728888750076, 0.20542770624160767, 0.06201348826289177, 0.2814805805683136, 0.29605504870414734, -0.19283545017242432, -0.1449754238128662, 0.07165033370256424, 0.02655421756207943, 0.08465863019227982, 0.006598851643502712, -0.1743561327457428, -0.06636154651641846, 0.040056731551885605, 0.16912680864334106, -0.05420326441526413, 0.0045032561756670475, -0.15679976344108582, -0.0881369486451149, -0.0385773740708828, 0.06295368075370789, -0.18220189213752747, 0.06741747260093689, -0.04761890321969986, -0.014752675779163837, 0.0734691396355629, 0.0590863935649395, -0.07921867817640305, 0.09893741458654404, -0.11532002687454224, -0.13137663900852203, -0.24232307076454163, -0.11156997829675674, 0.31485873460769653, 0.13499057292938232, 0.11330436915159225, -0.048263344913721085, 0.17699402570724487, -0.0028112512081861496, -0.1273961067199707, -0.02036094106733799, -0.080747090280056, 0.22451597452163696, 0.0460280179977417, 0.01807209476828575, -0.16542942821979523, -0.26390311121940613, 0.07333141565322876, 0.010217196308076382, 0.06527931988239288, -0.029905056580901146, -0.0892932265996933, -0.3305789530277252, 0.13698357343673706, 0.1895761638879776, 0.35420727729797363, 0.10580729693174362, 0.03499127924442291, -0.43543606996536255, 0.25383317470550537, 0.3112711012363434, 0.4605979025363922, 0.0791647732257843, -0.11092299222946167, -0.3149821162223816, -0.21807320415973663, -0.15171025693416595, -0.038845375180244446, -0.1453254073858261, 0.02192298322916031, 0.30016544461250305, 0.10451183468103409, 0.20233269035816193, 0.10662118345499039, -0.015120520256459713, -0.1197807788848877, -0.2621701657772064, -0.17567598819732666, 0.0547097884118557, 0.2529916763305664, -0.04824638366699219, -0.10030205547809601, 0.0051277088932693005, 0.0918617993593216, 0.2795349657535553, 0.3563898801803589, -0.03595951572060585, 0.1827380508184433, 0.18108497560024261, 0.019074076786637306, 0.1522265076637268, 0.1541825532913208, -0.08164805173873901, -0.21409259736537933, -0.5017796158790588, 0.035507820546627045, 0.017101410776376724, -0.2838357985019684, 0.024029193446040154, -0.13965214788913727, 0.012686824426054955, 0.2328031361103058, 0.026555921882390976, -0.10230841487646103, -0.1129223182797432, -0.044387947767972946, -0.07002866268157959, 0.03903166949748993, 0.0520300418138504, 0.41876688599586487, -0.11704447120428085, 0.16548645496368408, 0.07607335597276688, 0.12431392073631287, -0.015203634276986122, 0.1915426254272461, -0.11854574829339981, 0.06101487576961517, 0.21694786846637726, -0.11806783080101013, -0.08536187559366226, 0.10726537555456161, -0.05456489697098732, -0.06395157426595688, -0.044351764023303986, -0.09925371408462524, 0.1748143881559372, 0.03731084242463112, -0.10762783885002136, -0.025204122066497803, -0.0513438805937767, 0.11580990254878998, -0.21144823729991913, -0.10411011427640915, 0.09150819480419159, 0.09214486926794052, -0.05889697000384331, -0.12348480522632599, 0.06596917659044266, -0.07841469347476959, -0.10155372321605682, -0.15847636759281158, -0.0658302754163742, 0.061824727803468704, -0.09912876784801483, 0.03983583301305771, -0.012897747568786144, 0.10078700631856918, 0.21405063569545746, -0.21231840550899506, -0.2306976467370987, 0.09767338633537292, -0.018096236512064934, -0.15385232865810394, -0.017348192632198334, -0.10070639103651047, -0.08936367183923721, -0.08949831128120422, 0.15238521993160248, 0.0603729672729969, -9.026694897329435e-05, -0.16238032281398773, -0.06728677451610565, 0.053190696984529495, -0.03234552592039108, -0.25250953435897827, -0.14513592422008514, 0.1028795838356018, -0.18675833940505981, -0.18605494499206543, 0.12302257120609283, 0.21691341698169708, -0.05081743001937866, -0.1055605560541153, -0.03070617839694023, -0.08855797350406647, -0.1267828345298767, -0.16710619628429413, -0.05060594528913498, -7.301446021301672e-05, -0.03649420663714409, -0.0037946365773677826, 0.16338373720645905, -0.05258225277066231, 0.016640212386846542, -0.28677889704704285, 0.05991862714290619, -0.1809084713459015, -0.17229855060577393, -0.17624565958976746, -0.2786684036254883, -0.002330938121303916, -0.03480200096964836, 0.15305447578430176, 0.14136846363544464, 0.06117117777466774, 0.11812079697847366, -0.10948174446821213, -0.26565513014793396, 0.04517233744263649, 0.021455006673932076, -0.04870627075433731, 0.06762806326150894, -0.1637270152568817, -0.20480847358703613, -0.22018758952617645, -0.06354080140590668, 0.08383765816688538, -0.027541564777493477, -0.01433557365089655, 0.005115310195833445, 0.011687894351780415, -0.1523996889591217, -0.1091257631778717, -0.11838219314813614, 0.010004466399550438, -0.06500386446714401, 0.05028093606233597, 0.12488768249750137, 0.1518349051475525, 0.13897383213043213, -0.06124267354607582, -0.10769270360469818, -0.1222582533955574, -0.2536329925060272, 0.047292858362197876, 0.004463459365069866, 0.047583356499671936, -0.2599793076515198, -0.16026125848293304, -0.19461491703987122, -0.19756022095680237, -0.09115444123744965, -0.09457516670227051, 0.2662487328052521, 0.3791623115539551, 0.3093554675579071, -0.010793137364089489, -0.12231490015983582, -0.015050850808620453, -0.33959680795669556, -0.39543038606643677, -0.47744178771972656, -0.07365785539150238, -0.32051321864128113, -0.3488752543926239, 0.13327276706695557, 0.26188895106315613, 0.12852106988430023, -0.03916634991765022, 0.010257892310619354, 0.12519583106040955, 0.03139135241508484, -0.12292561680078506, -0.07577589154243469, -0.06589722633361816, -0.1087399497628212, -0.003355532418936491, -0.12283114343881607, -0.3339388072490692, -0.30510199069976807, -0.1035996675491333, -0.021212438121438026, -0.2026018649339676, -0.11351493746042252, 0.022331736981868744, -0.03524283319711685, -0.0828869566321373, -0.05916772410273552, -0.19048704206943512, -0.15471775829792023, -0.2197231650352478, -0.14961381256580353, 0.18648293614387512, 0.11303462833166122, 0.1814967542886734, -0.08059056103229523, -0.03234988823533058, -0.08073078095912933, -0.09210364520549774, 0.048264939337968826, 0.003997792489826679, 0.2000172883272171, 0.4119405150413513, 0.2305639386177063, -0.035943031311035156, -0.10870690643787384, -0.17260466516017914, -0.148454487323761, -0.4726090133190155, -0.06270699948072433, -0.11865369230508804, -0.509691596031189, 0.10939382016658783, 0.20934565365314484, 0.20457464456558228, 0.20478878915309906, -0.08857288956642151, -0.32913607358932495, -0.4107442796230316, 0.22427397966384888, 0.24228188395500183, -0.09855024516582489, -0.025983227416872978, -0.31949400901794434, 0.037401989102363586, -0.10931908339262009, -0.2106589376926422, -0.25231724977493286, 0.10448465496301651, 0.10029976814985275, 0.026171188801527023, -0.007057270035147667, -0.0037735134828835726, -0.17625808715820312, -0.13847924768924713, -0.30575135350227356, -0.09317390620708466, -0.03106989897787571, 0.1881854236125946, 0.2524469792842865, 0.19604164361953735, 0.028688522055745125, -0.08235891163349152, 0.294951468706131, 0.1496625691652298, 0.2038305550813675, -0.1817602515220642, -0.19309023022651672, 0.06732596457004547, -0.3775322735309601, -0.30911484360694885, -0.23909834027290344, 0.0749657154083252, 0.14235657453536987, -0.1979268342256546, 0.25796380639076233, 0.013039391487836838, -0.1126239150762558, -0.02717028371989727, 0.04498409852385521, 0.042157188057899475, -0.014275898225605488, -0.08818971365690231, -0.23398996889591217, 0.13585980236530304, 0.1371566355228424, -0.07775183022022247, 0.3199215531349182, 0.1450318992137909, -0.11740217357873917, 0.09101700037717819, -0.1692943572998047, 0.00970107689499855, 0.23397210240364075, 0.13517054915428162, 0.13894295692443848, 0.14076337218284607, 0.395291268825531, 0.013117624446749687, 0.34783437848091125, 0.3192371428012848, -0.058499403297901154, -0.014312263578176498, -0.13235078752040863, 0.2509748637676239, -0.0298788920044899, 0.25941842794418335, 0.20251348614692688, 0.10878603160381317, -0.0873979702591896, -0.0863606259226799, 0.40414202213287354, 0.5461491346359253, 0.19685861468315125, 0.06238202750682831, -0.0703064352273941, 0.11842658370733261, -0.1584390103816986, -0.1925719678401947, -0.19046398997306824, 0.02592296339571476, 0.0052989087998867035, -0.1868078112602234, 0.1204867884516716, -0.17010240256786346, 0.1195499524474144, -0.21315227448940277, -0.06649071723222733, -0.09886351972818375, 0.07913196086883545, -0.03479786589741707, -0.07252136617898941, -0.12550675868988037, 0.009684542194008827, -0.0069808997213840485, 0.07475228607654572, 0.47610121965408325, -0.06394705176353455, -0.06854709982872009, -0.17540307343006134, 0.05619839206337929, 0.18289335072040558, 0.18044330179691315, 0.2615330219268799, 0.07755736261606216, 0.3139060437679291, -0.021418502554297447, 0.2580944895744324, 0.2718361020088196, -0.08009651303291321, 0.018668046221137047, -0.0853903591632843, 0.21921806037425995, 0.1629309207201004, -0.08005309849977493, 0.10906890779733658, 0.02208770252764225, -0.08333336561918259, 0.23010645806789398, -0.20036455988883972, -0.34700196981430054, 0.1594301015138626, 0.1683913916349411, 0.059503015130758286, -0.1668883115053177, -0.2765616178512573, -0.2452712208032608, -0.1269211322069168, -0.08193604648113251, 0.08567604422569275, 0.2612072229385376, 0.06955544650554657, 0.2743394076824188, 0.05513907968997955, 0.24669526517391205, 0.21106545627117157, 0.1666269749403, -0.0353681854903698, -0.00943064782768488, 0.028022289276123047, -0.11362840980291367, 0.10267110168933868, 0.04287688806653023, -0.08270624279975891, -0.19750280678272247, 0.031517721712589264, -0.06324845552444458, 0.09924166649580002, -0.28292933106422424, 0.20194414258003235, 0.0006406152388080955, 0.1623893827199936, -0.011296756565570831, -0.20020480453968048, 0.031409140676259995, -0.1132168397307396, -0.018902326002717018, 0.08929257094860077, 0.08249758183956146, 0.12345084547996521, -0.09652891010046005, -0.028347982093691826, 0.11331801116466522, 0.04584745690226555, 0.127150759100914, 0.20610296726226807, -0.05397414788603783, 0.19877418875694275, 0.42338284850120544, 0.164792001247406, -0.07911700010299683, -0.08389981836080551, 0.06972317397594452, -0.19952857494354248, -0.2509685158729553, -0.07650218904018402, 0.06000455096364021, -0.3129802346229553, 0.13058443367481232, 0.11319626122713089, -0.026602381840348244, 0.014954299665987492, 4.943251406075433e-05, -0.06166620925068855, -0.0414816215634346, 0.03732191026210785, 0.02819782681763172, 0.043634120374917984, 0.03428712487220764, 0.03789316862821579, 0.21013693511486053, 0.3109673261642456, 0.3038807213306427, -0.00703938165679574, 0.06717722862958908, -0.2608036696910858, 0.11680079251527786, 0.09306714683771133, 0.19749195873737335, -0.03531692549586296, 0.2545306086540222, 0.21420200169086456, 0.08803244680166245, 0.04825647920370102, 0.04437895491719246, -0.01412495318800211, -0.015438786707818508, -0.20513467490673065, 0.10365041345357895, 0.065398670732975, 0.07746460288763046, -0.062390174716711044, -0.1862386018037796, -0.10117623955011368, -0.21163155138492584, 0.12718117237091064, -0.1065351739525795, -0.18878589570522308, 0.049493372440338135, 0.11562853306531906, -0.10867834091186523, 0.10358507931232452, 0.20862124860286713, 0.016345063224434853, 0.11853893101215363, -0.15864545106887817, 0.10964185744524002, -0.2705453634262085, -0.0029335131403058767, -0.15877199172973633, 0.14152513444423676, 0.35178959369659424, 0.062361497431993484, -0.28972816467285156, -0.01805971749126911, -0.3300689160823822, -0.021677987650036812, 0.25104978680610657, -0.07485902309417725, -0.14712253212928772, -0.08979346603155136, -0.2934677302837372, -0.008658059872686863, -0.0302744023501873, 0.27309224009513855, 0.0017090241890400648, -0.008599243126809597, -0.07264910638332367, -0.1619148999452591, -0.3069497346878052, -0.1383344531059265, -0.19457188248634338, -0.15805375576019287, -0.07282985746860504, 0.21299628913402557, 0.10103067010641098, 0.09325538575649261, -0.11628531664609909, -0.06640090048313141, 0.16101957857608795, 0.1648137867450714, 0.18844972550868988, -0.12723581492900848, -0.11989808082580566, 0.15207788348197937, -0.2160387486219406, -0.04608091711997986, 0.013393289409577847, 0.10813035070896149, 0.22202695906162262, 0.10772738605737686, 0.2861180603504181, 0.2469581514596939, 0.030713967978954315, 0.02467990294098854, 0.020421698689460754, 0.0006527235964313149, 0.08029038459062576, -0.17916297912597656, -0.08448836952447891, -0.2384488582611084, 0.1392315775156021, 0.11335593461990356, -0.011689872480928898, -0.1195240318775177, -0.16265738010406494, 0.0446244478225708, 0.19021445512771606, 0.11239530891180038, -0.01486310362815857, 0.001725962501950562, -0.13625134527683258, 0.11699423938989639, -0.09976614266633987, -0.12112720310688019, -0.07523414492607117, 0.08690516650676727, 0.051360875368118286, 0.0018824556609615684, 0.0912046954035759, -0.07430963963270187, -0.07372578978538513, -0.08775825053453445, 0.029797760769724846, 0.2612577974796295, 0.13998447358608246, 0.14471037685871124, 0.1903749406337738, -0.14284346997737885, -0.17455817759037018, 0.020530996844172478, 0.11230675876140594, 0.049349263310432434, 0.23706305027008057, -0.061028432101011276, 0.0027313034515827894, -0.007984397932887077, -0.28328943252563477, -0.2773752808570862, -0.3079153299331665, 0.04534512385725975, -0.2583565413951874, 0.25517570972442627, 0.2311631143093109, 0.07599330693483353, 0.3069228529930115, 0.23330844938755035, 0.4678475856781006, -0.19171105325222015, -0.11548781394958496, 0.00026734298444353044, 0.029299795627593994, -0.06930866092443466, 0.11669184267520905, 0.08126688748598099, 0.013328276574611664, -0.2704128623008728, 0.1823342889547348, 0.23675736784934998, -0.12231022119522095, -0.26082631945610046, 0.10935526341199875, 0.19244720041751862, 0.08893696963787079, -0.06998378038406372, 0.11594361811876297, 0.08105192333459854, -0.08779945969581604, -0.06943177431821823, 0.0991644337773323, 0.08291059732437134, 0.17940862476825714, -0.040590912103652954, -0.12226833403110504, 0.1279536336660385, 0.2567495107650757, -0.015875188633799553, 0.101384237408638, -0.10507490485906601, 0.2154327929019928, 0.2514120042324066, -0.015252692624926567, 0.06218487396836281, 0.05019976943731308, 0.2819601595401764, 0.0010162225225940347, 0.0892140120267868, 0.06850500404834747, -0.05602658540010452, 0.02020925283432007, -0.14750777184963226, 0.10434494912624359, -0.1449773758649826, -0.16560906171798706, -0.33886492252349854, -0.12843871116638184, -0.04332670941948891, 0.21624699234962463, -0.0586707703769207, -0.0887419655919075, -0.15564262866973877, -0.09908376634120941, 0.11938618868589401, 0.16479088366031647, 0.31518417596817017, -0.13600417971611023, -0.002910708310082555, -0.17196282744407654, 0.10022518783807755, -0.10989074409008026, 0.01015497837215662, 0.15067535638809204, 0.07905484735965729, 0.21224941313266754, 0.04201681911945343, 0.23204796016216278, 0.1694209724664688, -0.07779823243618011, -0.16886335611343384, -0.07804263383150101, 0.25978225469589233, -0.17434684932231903, -0.0138347577303648, 0.05706567317247391, -0.14328663051128387, 0.12293627858161926, 0.15510351955890656, -0.46599942445755005, -0.3970932364463806, 0.376065731048584, 0.4419192671775818, 0.12512923777103424, 0.02642763778567314, 0.006236096378415823, -0.08328402042388916, 0.22892595827579498, 0.13803637027740479, 0.49254149198532104, -0.1426721215248108, 1.3683604001998901, -1.0166279077529907, -0.5993244647979736, -0.025599416345357895, 0.15857641398906708, 0.027935277670621872, 0.27008113265037537, 0.20643626153469086, -0.7012563347816467, 0.5843753218650818, 0.24419598281383514, -0.5776327252388, 0.19942010939121246, -0.3298984467983246, -0.13332892954349518, -0.40565645694732666, 0.2654235064983368, -0.09995836019515991, 0.2915876805782318, 0.3981228470802307, 0.02367265522480011, -0.11186224222183228, -0.4851934015750885, -0.18219371140003204, -0.12150835990905762, -0.057843033224344254, 0.07460618019104004, -0.18386968970298767, 0.27255669236183167, -0.26221907138824463, -0.16884177923202515, -0.12308008223772049, 0.1602063626050949, 0.008220702409744263, -0.04798408970236778, 0.002349176211282611, 0.21049828827381134, -0.060383863747119904, 0.044466838240623474, 0.15964943170547485, -0.23295919597148895, 0.23129525780677795, -0.09735410660505295, 0.03602128103375435, 0.024698499590158463, 0.3164532780647278, -0.08855419605970383, -0.006502523552626371, -0.07198483496904373, -0.3926312327384949, -0.19521625339984894, -0.2964930832386017, -0.1477355808019638, 0.17387178540229797, 0.16661575436592102, -0.21288061141967773, -0.016370609402656555, -0.2647002339363098, 0.025476396083831787, 0.19242730736732483, -0.09505339711904526, 0.20005561411380768, -0.1941482275724411, -0.11587701737880707, -0.05097762495279312, 0.04927271977066994, 0.39301106333732605, 0.48993825912475586, 0.25406861305236816, 0.01883002556860447, -0.26009854674339294, -0.34782934188842773, 0.08840446919202805, -0.34367603063583374, 0.1683530956506729, -0.1663256287574768, 0.20437030494213104, -0.4875006675720215, -0.061052821576595306, 0.12945032119750977, -0.3446740508079529, -0.08559156954288483, -0.12020095437765121, -0.026254331693053246, 0.23550669848918915, -0.38121476769447327, 0.34077054262161255, 0.23687809705734253, 0.021268710494041443, 0.23912456631660461, -0.2926984429359436, -0.22218003869056702, -0.2940235435962677, -0.24247559905052185, -0.32697540521621704, 0.01951652020215988, 0.041638731956481934, 0.14671485126018524, -0.35192281007766724, 0.0123419389128685, 0.09523745626211166, -0.044935278594493866, 0.23813939094543457, 0.3902119994163513, -0.3317766487598419, 0.40655264258384705, 0.07268287986516953, 0.1798306405544281, -0.4912959933280945, 0.14922985434532166, -0.0345393605530262, -0.22226375341415405, -0.08532276004552841, 0.06437185406684875, -0.2528546154499054, -0.3158149719238281, 0.0913991779088974, 0.161588653922081, -0.10584267228841782, 0.322339802980423, -0.07813896238803864, 0.1762409508228302, 0.3289361298084259, 0.0683138519525528, -0.030251633375883102, 0.15188144147396088, 0.03212672472000122, -0.2344033569097519, -0.09400583058595657, -0.11050456017255783, 0.297924280166626, -0.13603956997394562, -0.07095235586166382, 0.3889169991016388, 0.05028997361660004, 0.06518761068582535, 0.01838849112391472, 0.07053745537996292, -0.24996039271354675, 0.09855058789253235, 0.15020497143268585, 0.30306023359298706, -0.29315894842147827, -0.059243276715278625, -0.12231464684009552, 0.21361888945102692, 0.40902140736579895, 0.0859825387597084, -0.12157565355300903, -0.1441834270954132, 0.03550947085022926, 0.016536494717001915, -0.017159366980195045, -0.2678653597831726, 0.11747312545776367, 0.17285260558128357, 0.04863749071955681, 0.2251865565776825, 0.3872617185115814, -0.168330118060112, 0.1598483920097351, 0.11076213419437408, -0.07060494273900986, -0.02132856659591198, -0.504438579082489, 0.30821511149406433, -0.42736804485321045, -0.21156898140907288, 0.2709701955318451, -0.21459543704986572, 0.25861722230911255, -0.02764255926012993, 0.3536866307258606, -0.057692065834999084, -0.20631074905395508, -0.041535183787345886, -0.16643905639648438, -0.18621401488780975, -0.23357641696929932, -0.06480110436677933, 0.16472168266773224, -0.09841365367174149, 0.3083473742008209, 0.017096422612667084, -0.21982800960540771, -0.06171424314379692, -0.05940425395965576, 0.1538177877664566, -0.07749878615140915, -0.0555972121655941, -0.3276834189891815, 0.12780152261257172, 0.28644052147865295, -0.24639888107776642, -0.04343036562204361, -0.05431053787469864, -0.09131030738353729, 0.18050572276115417, -0.21130995452404022, -0.18109793961048126, 0.3733074367046356, -0.13345253467559814, -0.06264809519052505, 0.14958977699279785, -0.03156528249382973, 0.008111899718642235, 0.26233452558517456, 0.17932714521884918, 0.06905874609947205, 0.2508029043674469, -0.03197721764445305, 0.09292338788509369, -0.18009909987449646, 0.05156733840703964, -0.02223701775074005, -0.12195800244808197, -0.20687657594680786, -0.24416770040988922, -0.4024903178215027, 0.07726559042930603, 0.02393180876970291, -0.3045159578323364, -0.05481686815619469, -0.030677886679768562, -0.05480102822184563, 0.14301276206970215, 0.003159896470606327, -0.02262718230485916, 0.07798482477664948, -0.053217969834804535, 0.04501520097255707, 0.20990189909934998, 0.05090155452489853, -0.19515034556388855, -0.23579169809818268, -0.11441085487604141, -0.20064124464988708, 0.02945009060204029, 0.1314759999513626, 0.08240247517824173, 0.09894365817308426, 0.019859924912452698, -0.15907669067382812, -0.23428156971931458, -0.04093370959162712, 0.07965946197509766, -0.02295832522213459, 0.1278158277273178, -0.15754464268684387, 0.1087978258728981, -0.09425707161426544, -0.0021886711474508047, -0.01427648589015007, 0.008476976305246353, 0.1700323224067688, 0.10258089751005173, -0.26611238718032837, 0.00363709032535553, -0.02016403153538704, 0.08291607350111008, 0.20229890942573547, -0.21636956930160522, -0.4664947986602783, -0.19419291615486145, -0.12060587853193283, 0.14179746806621552, 0.004381534643471241, -0.2831117808818817, 0.36891603469848633, -0.2953748106956482, -0.11186203360557556, -0.06919226795434952, 0.14976362884044647, -0.04415221884846687, -0.19674119353294373, -0.1838928461074829, -0.035022422671318054, 0.02803865261375904, -0.31955966353416443, 0.5170965194702148, -0.01868230104446411, 0.21788738667964935, 0.16731534898281097, -0.29666867852211, -0.0430380217730999, 0.006846029777079821, -0.022127093747258186, -0.07309938222169876, 0.36309969425201416, 0.014234216883778572, 0.05090535059571266, -0.16134269535541534, -0.015980688855051994, -0.09063911437988281, 0.28486937284469604, -0.13890518248081207, -0.048888199031353, 0.11901085078716278, 0.11364814639091492, 0.18168224394321442, -0.40070241689682007, 0.4282371699810028, 0.16544446349143982, 0.12728379666805267, -0.18262656033039093, 0.007563095074146986, -0.014796501956880093, 0.2354017198085785, 0.6816498637199402, -0.19629748165607452, -0.2571221590042114, -0.9068794250488281, 0.1456373929977417, -0.07091234624385834, -0.042468082159757614, 0.10075333714485168, 0.18718041479587555, 0.09406309574842453, -0.021991830319166183, 0.2315281182527542, -0.2791275084018707, 0.3852890133857727, 0.21668580174446106, -0.06697039306163788, 0.22077538073062897, -0.10108207911252975, -0.20209810137748718, -0.09575100243091583, -0.018791604787111282, -0.33408689498901367, -0.21480098366737366, -0.12316194176673889, 0.12701760232448578, -0.0835220143198967, -0.16683071851730347, 0.07226797193288803, 0.3480931222438812, 0.17410121858119965, -0.05823584273457527, -0.12504854798316956, 0.018567590042948723, -0.13514749705791473, -0.021010788157582283, -0.17130960524082184, 0.11975627392530441, 0.16725888848304749, 0.22871871292591095, 0.13720941543579102, 0.061156269162893295, 0.20492422580718994, 0.036240603774785995, -0.18064159154891968, -0.1156066358089447, 0.12734811007976532, -0.05301332101225853, -0.12532077729701996, 0.10715354233980179, -0.12946712970733643, 0.14683659374713898, -0.10580090433359146, -0.18918006122112274, -0.15520255267620087, 0.06619537621736526, 0.14680224657058716, 0.1555209457874298, -0.16165991127490997, -0.05132747069001198, -0.410105437040329, -0.36513224244117737, 0.21335448324680328, -0.05155114457011223, -0.3133814036846161, 0.10682889819145203, 0.20574530959129333, -0.14741036295890808, -0.2085404098033905, 0.22155866026878357, -0.03047052025794983, -0.11122753471136093, -0.22938226163387299, -0.003000413766130805, 0.1314954310655594, -0.07368270307779312, -0.12737366557121277, -0.031172731891274452, 0.08057479560375214, 0.043924469500780106, 0.17454446852207184, -0.2723505198955536, -0.21432405710220337, 0.027634212747216225, -0.03209743648767471, 0.136097252368927, -0.09641429781913757, 0.16776561737060547, -0.0012961926404386759, 0.07530653476715088, 0.2439633011817932, 0.08448534458875656, 0.025510819628834724, -0.06988721340894699, -0.056759513914585114, -0.09360694885253906, -0.06731655448675156, 0.060332126915454865, -0.021343205124139786, -0.026727020740509033, -0.14940419793128967, -0.1229669451713562, -0.03669410198926926, -0.05269661545753479, -0.08085713535547256, 0.15803493559360504, 0.11125347763299942, 0.07739536464214325, 0.4605310261249542, 0.4421533942222595, 0.5386300086975098, 0.06522205471992493, -0.02752028964459896, -0.08250977843999863, 0.12549073994159698, 0.13657553493976593, 0.2658970355987549, -0.03154996782541275, 0.07258876413106918, 0.14561490714550018, -0.10084018856287003, -0.031661875545978546, 0.13317717611789703, -0.05164308100938797, -0.08540527522563934, 0.1533246487379074, -0.002438973868265748, -0.005498094018548727, 0.002360677346587181, -0.05633116140961647, -0.1312646120786667, -0.3841683268547058, 0.0723658949136734, -0.13917496800422668, -0.05341926962137222, 0.26524096727371216, 0.0911579579114914, 0.04506726190447807, 0.12294945120811462, 0.009685865603387356, 0.11446554213762283, -0.001119595835916698, -0.07557467371225357, 0.028418181464076042, 0.0079732034355402, -0.027247533202171326, -0.12272410839796066, 0.1258453130722046, 0.32264694571495056, 0.15521569550037384, -0.343895822763443, 0.050651758909225464, -0.0704304501414299, 0.22553201019763947, 0.15313121676445007, -0.04058382660150528, 0.1793420910835266, -0.19106902182102203, -0.15219968557357788, -0.33307382464408875, -0.005219853017479181, -0.01267384272068739, -0.019864743575453758, 0.255716472864151, 0.07547371834516525, -0.08955982327461243, -0.11985334008932114, 0.030411971732974052, 0.10645964741706848, 0.027649492025375366, -0.011744086630642414, -0.14128443598747253, -0.07629652321338654, 0.2782805562019348, -0.0013304807944223285, -0.008309012278914452, -0.19387145340442657, 0.23104792833328247, -0.11176034063100815, 0.39020684361457825, -0.22759085893630981, 0.04748158156871796, 0.14695104956626892, -0.19420140981674194, 0.13347618281841278, -0.014560072682797909, 0.1942286640405655, 0.14911848306655884, -0.1586933135986328, 0.006126707885414362, 0.14494165778160095, -0.15043407678604126, 0.2030920386314392, 0.4102862775325775, 0.19139514863491058, 0.06469734758138657, -0.2358303815126419, 0.24885497987270355, 0.18830354511737823, -0.0037184085231274366, 0.3381766378879547, -0.014011687599122524, 0.08719995617866516, 0.043347906321287155, 0.3302910327911377, -0.0775022879242897, -0.2725759446620941, 0.14912497997283936, 0.21753059327602386, -0.2147967368364334, -0.022949259728193283, -0.11034219712018967, -0.19636479020118713, -0.01088174618780613, -0.11004150658845901, -0.3377378582954407, -0.14548887312412262, 0.12502217292785645, 0.30081650614738464, -0.24063436686992645, -0.00937140267342329, 0.08120939880609512, 0.17006798088550568, 0.24575935304164886, -0.14371274411678314, 0.46623945236206055, -0.12635941803455353, 0.04496704414486885, -0.33614394068717957, -0.23070837557315826, -0.06085333228111267, -0.27305373549461365, 0.0018478947458788753, -0.2619408965110779, -0.04101314768195152, -0.07435545325279236, -0.1123519316315651, 0.01564282737672329, -0.1633470207452774, 0.07330650836229324, 0.042177312076091766, 0.3874250650405884, 0.24487198889255524, -0.10320741683244705, 0.043855685740709305, -1.455560326576233, -0.12579306960105896, 0.005116973537951708, 0.3477112650871277, 0.27789443731307983, 0.1746574193239212, -0.07962879538536072, -0.1882433146238327, -0.30779793858528137, 0.5547434091567993, 0.307112455368042, 0.2415550798177719, -0.5464000105857849, -0.09589999914169312, -0.02263370342552662, -0.7694265842437744, -0.01814272813498974, 0.10996236652135849, -0.36018824577331543, -0.1427958607673645, 0.004517570603638887, 0.24746495485305786,