{"version": "0.5.1", "metadata": {"date": {"year": 2023, "month": 6, "day": 14, "hour": 10, "minute": 34, "second": 20}, "loudness": -14.760507583618164, "gain": 0.7839499759891315, "name": "Metal-End King - Modern Metal", "modeled_by": "zephyreus", "gear_type": "pedal", "gear_make": "Byiang", "gear_model": "Metal-End King", "tone_type": "overdrive"}, "architecture": "WaveNet", "config": {"layers": [{"input_size": 1, "condition_size": 1, "head_size": 8, "channels": 16, "kernel_size": 3, "dilations": [1, 2, 4, 8, 16, 32, 64, 128, 256, 512], "activation": "Tanh", "gated": false, "head_bias": false}, {"input_size": 16, "condition_size": 1, "head_size": 1, "channels": 8, "kernel_size": 3, "dilations": [1, 2, 4, 8, 16, 32, 64, 128, 256, 512], "activation": "Tanh", "gated": false, "head_bias": true}], "head": null, "head_scale": 0.02}, "weights": [5.4302850912790745e-05, 0.36813393235206604, -0.7239857912063599, -0.7343119978904724, -0.21576710045337677, 0.06972283124923706, 0.00047112320316955447, 0.8844966292381287, -0.0008118788828141987, 6.854930688859895e-05, -0.13864459097385406, 0.00017803862283471972, -0.7617159485816956, -0.45565763115882874, 0.0011119656264781952, 0.00040773377986624837, 0.07805269956588745, 0.13898883759975433, -0.005239524878561497, -0.06128254532814026, 0.023599296808242798, 0.03115912526845932, -0.029975958168506622, 0.13830338418483734, 0.065436951816082, 0.013189069926738739, 0.15673303604125977, -0.04677031934261322, -0.09687769412994385, -0.008751251734793186, 0.031379226595163345, 0.1402115374803543, -0.09772027283906937, -0.12735174596309662, -0.03493012487888336, -0.09396912157535553, -0.026429273188114166, 0.12235794961452484, 0.036112621426582336, -0.019722936674952507, -0.03467069938778877, -0.12193602323532104, 0.07612583786249161, -0.11327405273914337, -0.09909355640411377, -0.12524470686912537, 0.07847707718610764, 0.10059630870819092, 0.014448288828134537, -0.030297162011265755, 0.09732627123594284, 0.24227675795555115, 0.0592893548309803, 0.0504976287484169, 0.1858721822500229, -0.08272061496973038, 0.057682886719703674, -0.02503972128033638, -0.09350677579641342, -0.04150880128145218, 0.15921728312969208, 0.2158205807209015, -0.024358969181776047, -0.09147930890321732, 0.03423180803656578, -0.07107429951429367, -0.14094626903533936, 0.08436478674411774, 0.03870394080877304, 0.25658169388771057, -0.1602143943309784, 0.002020596293732524, -0.06635446846485138, 0.06808070838451385, 0.17817547917366028, 0.002291252138093114, -0.0254798736423254, -0.07605128735303879, -0.11118240654468536, -0.04032517224550247, -0.17583198845386505, 0.25409457087516785, 0.03434894606471062, -0.12934504449367523, -0.0695185586810112, 0.02636917680501938, -0.07691776752471924, 0.057206910103559494, 0.07002474367618561, -0.10776658356189728, -0.10633518546819687, 0.1207461953163147, 0.059431493282318115, 0.17448543012142181, -0.20394720137119293, -0.055550601333379745, -0.0570383220911026, -0.04062104970216751, -0.07387940585613251, -0.14792582392692566, 0.08787062764167786, 0.15114472806453705, -0.18219561874866486, -0.08442103862762451, -0.08612731099128723, -0.1228666678071022, -0.16876690089702606, -0.0845329537987709, -0.1394197642803192, 0.11939483135938644, 0.06886476278305054, 0.20277518033981323, -0.08266878128051758, 0.10924456268548965, 0.08120432496070862, -0.12128186970949173, 0.05216958746314049, -0.17964696884155273, 0.01335736084729433, -0.06227749213576317, 0.245805561542511, 0.003839964047074318, -0.16269497573375702, 0.2606267035007477, -0.12935864925384521, -0.16556359827518463, 0.1579376608133316, -0.06782922148704529, 0.03557131439447403, -0.2953404486179352, -0.023486413061618805, -0.06223843991756439, -0.05851304158568382, -0.001714234473183751, 0.19514842331409454, -0.20815399289131165, 0.06280411034822464, 0.04374760761857033, 0.18464720249176025, 0.06144164875149727, 0.18188811838626862, -0.12737517058849335, 0.14899161458015442, -0.08380812406539917, 0.06362944841384888, -0.02019476518034935, 0.006374021992087364, 0.03043944016098976, -0.07835592329502106, -0.20321549475193024, 0.051753073930740356, -0.12322066724300385, -0.11411353200674057, 0.2717250883579254, 0.0775105208158493, -0.2234618067741394, 0.25423482060432434, -0.05642497539520264, -0.0404900461435318, -0.14606595039367676, -0.029982713982462883, -0.06538369506597519, -0.1287984400987625, -0.1549333781003952, -0.12871243059635162, 0.13689610362052917, -0.02857835777103901, 0.16825295984745026, -0.2653319537639618, 0.02634301967918873, 0.2389647662639618, -0.19617870450019836, 0.1508103311061859, 0.14871709048748016, -0.2740229070186615, 0.05927983671426773, -0.12055154889822006, 0.06111261621117592, 0.035284820944070816, -0.15096251666545868, -0.1106547862291336, -0.06804296374320984, -0.010100705549120903, 0.17845049500465393, 0.08518765866756439, 0.07712151855230331, -0.06693721562623978, -0.03443659469485283, -0.18812555074691772, 0.24689579010009766, 0.13302412629127502, 0.19177113473415375, -0.24556462466716766, -0.05100363865494728, -0.033973146229982376, -0.10073632746934891, -0.04642979055643082, 0.16216808557510376, -0.21913792192935944, 0.030818235129117966, 0.11328428238630295, -0.04564737528562546, -0.07756786793470383, 0.007087504491209984, -0.1971656233072281, 0.08919307589530945, -0.07118190079927444, 0.110725037753582, 0.02391972951591015, -0.061587437987327576, -0.08860639482736588, -0.07663162797689438, -0.09844520688056946, -0.0012782245175912976, 0.0552242137491703, 0.14258109033107758, -0.14301565289497375, -0.022148948162794113, 0.23817996680736542, -0.14971323311328888, 0.030048120766878128, 0.2504236400127411, 0.013514519669115543, -0.05260646715760231, -0.24511878192424774, 0.08850003778934479, -0.068959541618824, 0.04639241844415665, 0.038725316524505615, -0.0739688128232956, -0.11964112520217896, 0.15395547449588776, -0.00234635965898633, 0.0966314822435379, 0.05188131704926491, -0.10855891555547714, -0.007417304441332817, -0.03299041837453842, -0.022510290145874023, 0.14927585422992706, 0.011469090357422829, 0.13566425442695618, 0.08903537690639496, 0.11604774743318558, 0.1276138424873352, -0.018695129081606865, 0.07291412353515625, -0.07038045674562454, 0.11701942980289459, -0.060898322612047195, -0.027117900550365448, 0.12726439535617828, 0.09893346577882767, -0.023753715679049492, -0.004644891247153282, 0.10725238174200058, -0.02660842053592205, 0.12954358756542206, -0.04332193732261658, -0.0743490606546402, 0.030666504055261612, -0.07666216790676117, 0.05056704580783844, -0.009421216323971748, 0.21779093146324158, -0.07285088300704956, -0.15850771963596344, 0.21107202768325806, 0.10503806173801422, -0.0676344707608223, 0.0991128608584404, -0.05087922513484955, -0.0352405421435833, -0.12761379778385162, 0.0635862722992897, -0.049883417785167694, 0.33551356196403503, -0.0665600597858429, 0.10331978648900986, -0.1264307200908661, -0.05509280785918236, -0.12453018128871918, -0.007915779016911983, 0.11565973609685898, 0.10465499013662338, -0.058183129876852036, -0.05787935480475426, -0.056586846709251404, 0.1347408890724182, 0.07303646951913834, -0.14349129796028137, 0.09698671102523804, 0.018227050080895424, -0.12177608162164688, 0.12818150222301483, -0.11394073814153671, -0.014241007156670094, 0.0557740293443203, 0.04357760772109032, -0.15360936522483826, 0.061458226293325424, 0.1141929179430008, -0.10025444626808167, -0.050122205168008804, 0.02448679506778717, -0.19273889064788818, -0.027992980554699898, 0.05007273331284523, 0.13157351315021515, -0.17183920741081238, -0.11366398632526398, -0.10683225840330124, 0.20407487452030182, -0.04474255070090294, -0.024478942155838013, 0.25378647446632385, -0.05691364035010338, -0.07092822343111038, 0.21602562069892883, 0.0015012933872640133, 0.08470199257135391, -0.1308092623949051, -0.15990665555000305, -0.1685350090265274, 0.03946986049413681, 0.12249409407377243, 0.1619054526090622, -0.13991044461727142, 0.11743113398551941, -0.039539482444524765, -0.019530227407813072, -0.16634050011634827, 0.17871883511543274, -0.09435108304023743, -0.07804553955793381, -0.007376232650130987, 0.26565438508987427, 0.14193333685398102, -0.02706926129758358, 0.06446143239736557, -0.027415527030825615, -0.12963218986988068, 0.2718951106071472, 0.09077616780996323, -0.15942855179309845, 0.28789544105529785, 0.06456387788057327, -0.015147153288125992, 0.025166446343064308, -0.017035016790032387, -0.19419822096824646, -0.08323793113231659, -0.03232862800359726, 0.04111089929938316, -0.04653012752532959, 0.10594199597835541, 0.09827683120965958, 0.11338630318641663, -0.1502716839313507, -0.12082584202289581, -0.1411660611629486, -0.19056269526481628, -0.2693099081516266, 0.07175560295581818, 0.04361564666032791, -0.0024660893250256777, 0.08276984095573425, -0.0807221382856369, 0.04885568097233772, 0.026748837903141975, -0.06561402976512909, 0.023138025775551796, -0.2276485711336136, -0.019671281799674034, 0.016682248562574387, -0.03858228400349617, 0.12661001086235046, 0.10122469812631607, 0.05633682757616043, 0.13881807029247284, 0.24776269495487213, -0.019689073786139488, 0.03034241870045662, -0.007904392667114735, 0.014467029832303524, 0.14905542135238647, -0.059172291308641434, -0.05039966106414795, -0.10163642466068268, -0.08544951677322388, -0.029718106612563133, -0.08269631117582321, -0.2312767505645752, -0.12317948043346405, -0.1610400229692459, -0.05151031166315079, 0.04304438829421997, -0.022813400253653526, -0.2136916071176529, -0.08894386887550354, 0.03122621588408947, -0.0536344088613987, -0.06807249784469604, 0.20648644864559174, 0.17790406942367554, -0.2317214459180832, 0.05527869611978531, -0.01756446808576584, 0.0721554085612297, 0.0012341819237917662, -0.20497477054595947, 0.10479025542736053, 0.05593287944793701, -0.10681883990764618, 0.025718145072460175, 0.027497852221131325, 0.07806290686130524, -0.14329490065574646, -0.05537901818752289, -0.011760594323277473, 0.016697891056537628, -0.009224693290889263, 0.1292097270488739, -0.05935722589492798, 0.0591447614133358, -0.13078615069389343, 0.05412151664495468, -0.06428614258766174, 0.018314210698008537, -0.10531297326087952, -0.1641567349433899, -0.05201415717601776, 0.24997472763061523, -0.03364676609635353, -0.24363090097904205, -0.06809330731630325, -0.048743072897195816, -0.2328091710805893, 0.1945481151342392, -0.2051343321800232, -0.2533497214317322, -0.011155973188579082, -0.1012112945318222, -0.02054227888584137, -0.028910549357533455, 0.1923050433397293, -0.0023963626008480787, 0.040303681045770645, -0.07632166892290115, -0.21940624713897705, 0.10349960625171661, 0.08197952061891556, 0.20881468057632446, -0.05805934593081474, -0.1059103012084961, 0.04938783869147301, 0.1418818235397339, 0.06071077659726143, -0.18345855176448822, 0.09491407126188278, -0.1429309993982315, -0.1188417300581932, 0.16249294579029083, -0.11202963441610336, 0.09606501460075378, -0.05368647351861, 0.12445801496505737, 0.01387226115912199, 0.15368926525115967, -0.03581937402486801, 0.13192452490329742, 0.005410775076597929, 0.1964525282382965, 0.10439587384462357, 0.21054263412952423, -0.15976011753082275, -0.09019002318382263, -0.08106877654790878, -0.07413148880004883, 0.017885731533169746, 0.03346477448940277, 0.05412174016237259, -0.06241053715348244, 0.21741223335266113, -0.025062235072255135, 0.041876886039972305, 0.22158493101596832, 0.07251735031604767, -0.05961698666214943, 0.09081336110830307, -0.028525227680802345, -0.03799214959144592, 0.17648470401763916, -0.17163534462451935, 0.08517556637525558, 0.031633228063583374, -0.1383996158838272, -0.10050541162490845, 0.09406891465187073, 0.14993464946746826, -0.03159058466553688, 0.09348694980144501, 0.04130813851952553, -0.03192102909088135, 0.121644526720047, -0.10357813537120819, -0.06418953835964203, 0.0631454661488533, -0.05539402365684509, -0.049627434462308884, -0.030253417789936066, 0.11195429414510727, 0.06338020414113998, -0.05293305963277817, 0.11357994377613068, 0.07767490297555923, -0.012879987247288227, 0.03769999369978905, 0.19117820262908936, -0.020934952422976494, -0.012435638345777988, -0.1211940199136734, -0.041842930018901825, -0.10865995287895203, -0.015839990228414536, -0.11337374150753021, 0.12778949737548828, -0.12429958581924438, 0.018230848014354706, 0.004668897949159145, 0.10763239860534668, 0.11177300661802292, -0.1341865062713623, -0.22509299218654633, -0.10449492931365967, -0.02143559791147709, -0.13828085362911224, -0.0823969691991806, -0.07237733155488968, -0.07154003530740738, -0.07567726820707321, 0.07120354473590851, 0.09516506642103195, 0.04287048429250717, -0.12904097139835358, 0.05293114483356476, -0.11822579056024551, 0.06830332428216934, -0.23611481487751007, 0.20090654492378235, -0.1968812346458435, 0.05675746500492096, 0.08395390212535858, -0.15268126130104065, 0.21844708919525146, -0.07496073096990585, -0.09958665817975998, 0.15088282525539398, 0.02902182564139366, 0.07128501683473587, -0.3127365708351135, -0.03153645619750023, -0.24510760605335236, 0.0041015539318323135, -0.27249133586883545, 0.19619880616664886, -0.21950861811637878, 0.039545927196741104, 0.0623989962041378, 0.017178675159811974, -0.08254163712263107, 0.17668035626411438, -0.1729387640953064, -0.0006071151583455503, -0.08228323608636856, 0.2875659465789795, -0.11625034362077713, -0.20589536428451538, 0.273316890001297, 0.3396344482898712, -0.09959090501070023, 0.067104272544384, -0.19157284498214722, -0.025851823389530182, 0.16776753962039948, -0.13936273753643036, -0.02490520291030407, 0.22572839260101318, 0.08091049641370773, 0.022571152076125145, 0.03267225623130798, -0.05484749376773834, -0.1337691843509674, 0.10277268290519714, 0.11765901744365692, 0.15177293121814728, -0.06507615745067596, 0.031443990767002106, 0.034921202808618546, 0.05960824713110924, -0.02312912978231907, -0.15072238445281982, -0.1641094833612442, 0.2386026233434677, -0.15010513365268707, -0.12642288208007812, 0.17860306799411774, 0.02831430919468403, -0.005693866405636072, -0.10870622098445892, -0.1242545023560524, -0.27798786759376526, 0.06983887404203415, 0.029278229922056198, 0.11235792934894562, 0.02135534957051277, 0.012247351929545403, -0.0168058630079031, 0.1664850115776062, 0.06534811854362488, -0.04326435923576355, -0.001969548873603344, -0.0448373407125473, -0.19242419302463531, 0.0642465353012085, -0.17309516668319702, 0.026120061054825783, 0.010271293111145496, -0.22607651352882385, -0.07277772575616837, 0.19152964651584625, -0.05080627277493477, -0.011236092075705528, 0.1203092709183693, -0.036027081310749054, -0.11454727500677109, 0.021555345505475998, -0.12226129323244095, -0.20719514787197113, -0.19330660998821259, -0.02007487788796425, 0.03598061949014664, 0.056015171110630035, -0.05832861736416817, -0.1870887279510498, 0.30139413475990295, -0.00824153982102871, 0.21835628151893616, -0.279801607131958, 0.03974822908639908, 0.17673061788082123, -0.22595925629138947, 0.18004830181598663, -0.017012888565659523, -0.2948255240917206, -0.13445450365543365, -0.06751026958227158, 0.2878088057041168, -0.06308252364397049, 0.07259687781333923, -0.13205431401729584, -0.1081719696521759, 0.005095074884593487, 0.05436345934867859, 0.06593065708875656, 0.174177348613739, -0.06453469395637512, 0.06248271092772484, -0.1110377386212349, 0.3025834560394287, -0.08338800072669983, 0.05958281457424164, -0.19792112708091736, 0.02388053759932518, 0.09485899657011032, 0.010052279569208622, 0.05449596792459488, 0.0945366844534874, -0.0622611828148365, 0.033366914838552475, 0.222103551030159, -0.2614186704158783, 0.049867402762174606, 0.08087044209241867, -0.08309317380189896, -0.06931625306606293, -0.2385484278202057, -0.3364483416080475, -0.12610895931720734, -0.09234688431024551, 0.02227335050702095, -0.01928417757153511, 0.18003815412521362, -0.005431233439594507, -0.07176931947469711, -0.23365770280361176, 0.24155071377754211, -0.18592438101768494, -0.060862623155117035, 0.16320893168449402, -0.1342855989933014, -0.031572796404361725, 0.017828982323408127, 0.10573437809944153, -0.008662395179271698, -0.15605610609054565, -0.043505582958459854, 0.06183382868766785, 0.035256125032901764, 0.16896510124206543, 0.07474584132432938, -0.21161843836307526, -0.16069862246513367, -0.1611098349094391, 0.20790638029575348, 0.014669382013380527, 0.0642518550157547, -0.13073723018169403, 0.039503470063209534, 0.04640975221991539, 0.2623385190963745, -0.12027690559625626, -0.06451812386512756, 0.04184376075863838, -0.15920422971248627, -0.0585627406835556, 0.27549508213996887, -0.18625009059906006, 0.001962275244295597, 0.07191236317157745, -0.09949544817209244, 0.03418214991688728, 0.1047629863023758, -0.04235639050602913, -0.1691652238368988, -0.014255726709961891, 0.03191080689430237, -0.10350358486175537, 0.0669085830450058, 0.010751429945230484, -0.16906924545764923, 0.02108418010175228, 0.005869073327630758, 0.021072201430797577, 0.06014430895447731, 0.01309867575764656, 0.15780501067638397, -0.08313155919313431, -0.12686650454998016, 0.0072649563662707806, -0.13121211528778076, 0.10888998955488205, 0.06577363610267639, 0.13229228556156158, 0.11269478499889374, 0.11298436671495438, 0.06982522457838058, 0.22360993921756744, -0.12113764137029648, -0.09157030284404755, -0.10721056163311005, -0.02994031459093094, -0.21302367746829987, 0.25426360964775085, 0.05048719421029091, -0.06534618884325027, -0.14775918424129486, 0.17056670784950256, -0.12894965708255768, -0.1689937561750412, -0.0005332846776582301, -0.07891581207513809, -0.035183411091566086, 0.13114260137081146, 0.07681572437286377, -0.2081179916858673, 0.1951933652162552, -0.10208491235971451, 0.03507625684142113, -0.13661661744117737, -0.14599032700061798, 0.07113299518823624, 0.03847961127758026, -0.01573404110968113, -0.007660049479454756, -0.022065691649913788, -0.03516020253300667, -0.146510511636734, 0.011004199273884296, 0.042554084211587906, -0.0020643481984734535, -0.05417313054203987, 0.0511501207947731, 0.06446405500173569, 0.011691585183143616, 0.007215056102722883, 0.0485982671380043, -0.02765646204352379, 0.01786043867468834, 0.011062483303248882, 0.35257112979888916, -0.31024986505508423, 0.617408275604248, -0.5779610872268677, 0.025015143677592278, 0.742722749710083, 0.8484559059143066, -0.5244443416595459, 0.06243494898080826, -0.012219155207276344, -0.46034079790115356, -0.2907204031944275, 0.17773373425006866, -0.5429163575172424, 0.0345761701464653, 0.4398339092731476, 0.11082760989665985, 0.2127912938594818, 0.020389124751091003, 0.15251325070858002, 0.22605520486831665, -0.007276459131389856, 0.18317817151546478, 0.00835528876632452, -0.06534703820943832, -0.13185900449752808, -0.0697011649608612, -0.05253835767507553, 0.022923585027456284, -0.01376662589609623, 0.0542549267411232, 0.2330603450536728, 0.0095753725618124, -0.1372632086277008, -0.31487053632736206, 0.09279830753803253, 0.10934330523014069, -0.17687557637691498, -0.11846915632486343, 0.08991532772779465, -0.04041207581758499, 0.1395423412322998, -0.05168673023581505, 0.37934422492980957, 0.036779094487428665, -0.027192553505301476, 0.22627507150173187, 0.1812407672405243, 0.07388176023960114, 0.08868379890918732, -0.05830634757876396, 0.23721730709075928, -0.025830043479800224, -0.09147822856903076, 0.01173056848347187, -0.22938750684261322, -0.10296347737312317, -0.21201124787330627, 0.08044743537902832, -0.13876822590827942, 0.017691461369395256, 0.285317987203598, -0.06407241523265839, 0.023566659539937973, 0.05141838639974594, -0.16059978306293488, -0.00903306808322668, -0.19540289044380188, -0.039894893765449524, 0.2311481088399887, 0.050755128264427185, 0.019239667803049088, -0.18916621804237366, 0.04211422801017761, 0.007241563405841589, -0.13014639914035797, 0.11636823415756226, 0.18062643706798553, -0.18373772501945496, 0.013757905922830105, -0.07950304448604584, -0.2662737965583801, -0.14607352018356323, 0.027015846222639084, 0.09868694096803665, 0.22700728476047516, 0.19683092832565308, -0.06340141594409943, 0.1708029955625534, 0.3000805377960205, -0.02586793527007103, 0.3205885589122772, 0.051161155104637146, -0.014637172222137451, 0.1528322845697403, 0.09033118188381195, 0.025456540286540985, 0.002739151008427143, 0.1270800232887268, 0.00709792785346508, 0.13050585985183716, 0.1538885086774826, 0.2654145658016205, 0.14748002588748932, 0.2376658320426941, -0.02741285227239132, -0.12695741653442383, -0.007676196284592152, 0.05609627813100815, -0.20146647095680237, 0.19712629914283752, 0.10269316285848618, 0.04998303949832916, 0.1265813708305359, 0.1324554830789566, 0.22739604115486145, -0.15467815101146698, -0.2895927131175995, 0.014756306074559689, 0.07363013923168182, -0.018478326499462128, -0.2737123370170593, -0.12991881370544434, 0.34538978338241577, 0.1001550555229187, -0.10695897787809372, 0.1922372728586197, -0.12269017100334167, 0.13941825926303864, 0.019056590273976326, 0.371553897857666, -0.30690351128578186, -0.32975032925605774, 0.15114980936050415, 0.3539937436580658, 0.2273912876844406, 0.2526687681674957, -0.1715097278356552, 0.24052296578884125, -0.19008702039718628, 0.19654059410095215, -0.26727819442749023, 0.022679276764392853, 0.18304353952407837, 0.017194906249642372, 0.065523661673069, -0.24693289399147034, -0.16450685262680054, 0.08478162437677383, -0.08088106662034988, -0.12624295055866241, -0.040700431913137436, -0.23655855655670166, -0.20775064826011658, 0.08920387923717499, 0.18910621106624603, 0.04911922663450241, -0.07657323777675629, 0.07947031408548355, 0.0037723479326814413, -0.04714062064886093, -0.05647050961852074, 0.13087284564971924, -0.24526247382164001, -0.153067946434021, -0.0769503191113472, 0.059009939432144165, -0.23390528559684753, 0.05404144525527954, 0.2287679761648178, 0.046107642352581024, 0.029874427244067192, 0.15878376364707947, 0.176100954413414, -0.17258141934871674, -0.05532991513609886, 0.05666917935013771, 0.16924412548542023, -0.2350991815328598, 0.15223731100559235, -0.07454901933670044, -0.1265820860862732, 0.04425282031297684, -0.047139331698417664, 0.0024253863375633955, -0.1755424290895462, -0.13800624012947083, -0.02115040458738804, -0.10488627105951309, 0.137497678399086, 0.011052432470023632, 0.12440464645624161, -0.11639557778835297, -0.2069380134344101, 0.1939844787120819, -0.05758391693234444, 0.06978555768728256, 0.05343451723456383, -0.008051043376326561, -0.043639250099658966, 0.034547172486782074, -0.011175948195159435, -0.05374680459499359, -0.32209035754203796, -0.16350668668746948, 0.08721709996461868, -0.2868606150150299, -0.23213359713554382, 0.061850838363170624, 0.07022006809711456, 0.13766176998615265, 0.025048574432730675, 0.016247106716036797, 0.032394833862781525, 0.09414241462945938, 0.20957247912883759, 0.20843605697155, -0.06327899545431137, -0.042221296578645706, -0.0504441112279892, 0.19984470307826996, -0.18810361623764038, -0.14101698994636536, 0.19015809893608093, 0.16124935448169708, -0.043702732771635056, -0.025190237909555435, 0.09190287441015244, -0.14646337926387787, 0.3355231285095215, 0.3057647943496704, 0.057287007570266724, -0.006551622878760099, -0.16712267696857452, -0.01335615199059248, -0.22199271619319916, -0.12575487792491913, -0.05553959682583809, -0.3638143539428711, 0.22956393659114838, -0.04170648008584976, 0.062374047935009, -0.018623163923621178, -0.11753197759389877, 0.12026497721672058, 0.10267520695924759, 0.18401741981506348, 0.10744910687208176, -0.23655585944652557, 0.07806351780891418, -0.09058597683906555, -0.11397672444581985, 0.05448746308684349, 0.15038266777992249, -0.28335824608802795, -0.06585927307605743, 0.01600882224738598, 0.06177100911736488, 0.1553960144519806, -0.055864714086055756, -0.07398057729005814, 0.11436185240745544, 0.037759508937597275, 0.22770245373249054, -0.08920051902532578, -0.11527802795171738, 0.04151611030101776, -0.0004543333488982171, 0.016162032261490822, 0.15000763535499573, 0.11426924914121628, 0.00586385652422905, 0.04427426680922508, -0.023250166326761246, 0.17096014320850372, -0.16149744391441345, -0.0639548972249031, -0.018527351319789886, 0.06407488137483597, -0.017549734562635422, 0.02961137518286705, -0.101142019033432, 0.02488410472869873, 0.015403260476887226, -0.005823316518217325, 0.08567019551992416, 0.016268618404865265, 0.0007420327747240663, 0.18719159066677094, 0.0876779705286026, -0.025368215516209602, 0.24322746694087982, -0.0023562093265354633, 0.08626672625541687, -0.13444340229034424, -0.1377524435520172, -0.05583327263593674, -0.18380267918109894, -0.05596034601330757, -0.0697171613574028, -0.2317487746477127, -0.2166876494884491, -0.13065193593502045, 0.08481710404157639, -0.09617458283901215, 0.06678853929042816, 0.1466810256242752, -0.03233354911208153, -0.06588561832904816, 0.01785474829375744, -0.054346468299627304, -0.1406317502260208, 0.05753904953598976, 0.13119475543498993, -0.1450098752975464, -0.1360478550195694, 0.05214233696460724, 0.03685574606060982, -0.06053687632083893, 0.02585519477725029, -0.027647951617836952, -0.2742537260055542, -0.17328104376792908, 0.03936439007520676, -0.24615634977817535, -0.10969838500022888, -0.07440966367721558, -0.2320212572813034, -0.0020069675520062447, -0.1972278207540512, -0.16488370299339294, 0.011839237064123154, 0.029414990916848183, 0.03516487777233124, -0.09536131471395493, -0.0958595722913742, -0.010970637202262878, 0.08792749047279358, -0.0022832325194031, 0.18262706696987152, -0.06495088338851929, -0.09874344617128372, 0.002388071035966277, -0.05735860392451286, 0.13695405423641205, -0.09701357781887054, 0.05356733873486519, -0.015922222286462784, 0.19073739647865295, -0.31694871187210083, 0.1501820981502533, -0.2006189078092575, -0.13430489599704742, -0.03477255627512932, 0.5184533596038818, -0.2582321763038635, 0.08794283866882324, 0.02635227143764496, -0.013592302799224854, 0.013758635148406029, 0.0537743903696537, -0.08996199071407318, -0.0989668145775795, 0.07089376449584961, 0.09084439277648926, -0.1441473364830017, 0.1405547708272934, 0.03768179193139076, 0.017789870500564575, -0.4057423174381256, 0.13351471722126007, 0.10238450765609741, -0.03074781410396099, -0.07925105094909668, 0.20552505552768707, -0.20988348126411438, 0.02062269113957882, 0.019457517191767693, -0.1752488613128662, -0.083942711353302, -0.169244185090065, -0.09177133440971375, 0.28296399116516113, 0.09626840800046921, -0.07843228429555893, -0.1311810463666916, -0.005343073513358831, 0.16955026984214783, 0.1506279557943344, -0.1247878149151802, -0.13892164826393127, -0.016932152211666107, 0.13402578234672546, 0.006649992428719997, -0.07782760262489319, -0.057584211230278015, 0.11847441643476486, -0.004294118843972683, 0.11457899957895279, 0.06621946394443512, 0.11061292886734009, -0.0697590783238411, 0.0928206667304039, -0.1014305055141449, -0.05709157884120941, 0.0714958980679512, -0.005356450565159321, -0.03387521207332611, -0.10660936683416367, -0.133687362074852, 0.13722829520702362, -0.004790081176906824, 0.1243925541639328, -0.2027857005596161, -0.2261645793914795, -0.19518323242664337, 0.2599714994430542, 0.03676575422286987, -0.09825753420591354, 0.1395304948091507, -0.018858667463064194, -0.011907672509551048, 0.013492090627551079, -0.0526062473654747, -0.03794119879603386, 0.11537588387727737, -0.16583479940891266, 0.05125318095088005, 0.22726766765117645, -0.011065525934100151, 0.23392419517040253, 0.09432949125766754, -0.1789466142654419, -0.10198058933019638, 0.09977234899997711, -0.23277921974658966, 0.19882921874523163, 0.09012510627508163, 0.14808917045593262, -0.05727827548980713, -0.20101216435432434, 0.154237762093544, 0.13431693613529205, -0.14973686635494232, 0.05933781713247299, 0.08552582561969757, -0.021132512018084526, -0.12083740532398224, 0.12408459186553955, 0.11863674223423004, -0.1044057086110115, 0.2489260733127594, 0.01593368500471115, -0.25876927375793457, -0.0036850161850452423, 0.16607747972011566, 0.03783351555466652, -0.13905805349349976, -0.05449363961815834, 0.16636478900909424, -0.16152800619602203, 0.05940145254135132, 0.17663496732711792, -0.11144992709159851, -0.07317133247852325, 0.22893548011779785, -0.07772526144981384, 0.14986559748649597, 0.1096031665802002, 0.12871192395687103, -0.18912054598331451, 0.13876044750213623, -0.2644231915473938, -0.18497216701507568, -0.012756243348121643, -0.1249803975224495, -0.006664048880338669, 0.027480699121952057, -0.050226982682943344, 0.03583287447690964, -0.19459520280361176, -0.057846441864967346, -0.07396365702152252, 0.08480136096477509, 0.03917897865176201, -0.056933894753456116, -0.15708620846271515, 0.002407192252576351, 0.011172056198120117, -0.14882837235927582, 0.04534073546528816, 0.16249018907546997, -0.0077294944785535336, -0.1230253353714943, -0.11989116668701172, -0.04039393737912178, 0.0868084728717804, -0.2408299446105957, 0.11452075839042664, -0.2262267768383026, 0.003079043235629797, 0.11445420980453491, 0.17211861908435822, -0.02243013121187687, 0.003298211609944701, 0.0006867466145195067, 0.09966782480478287, -0.04292410984635353, -0.03848552703857422, -0.05075361952185631, 0.05119882896542549, -0.08410769701004028, 0.14193589985370636, -0.14942790567874908, 0.1483539640903473, 0.17034661769866943, -0.18954628705978394, -0.17573358118534088, 0.14780788123607635, -0.014403751119971275, 0.011482570320367813, 0.04825369268655777, -0.08178514987230301, -0.0599474236369133, -0.002294408855959773, 0.15740713477134705, 0.06754124164581299, -0.116356261074543, -0.07930021733045578, 0.023796027526259422, 0.14082331955432892, -0.12752693891525269, 0.02742043323814869, 0.10368677228689194, -0.058550555258989334, 0.03832079470157623, -0.0688556432723999, 0.047602005302906036, 0.19953565299510956, -0.01146453246474266, -0.05392549932003021, 0.09358270466327667, -0.09126835316419601, 0.13944117724895477, -0.1298435479402542, 0.17630411684513092, 0.23892541229724884, -0.13129034638404846, -0.2108188420534134, 0.09299464523792267, -0.22414878010749817, 0.27935826778411865, 0.15507717430591583, 0.2555718421936035, -0.1538596898317337, 0.11405974626541138, -0.17501303553581238, 0.06613995134830475, 0.026604533195495605, 0.13921354711055756, -0.07637131959199905, 0.09415169805288315, -0.003920348361134529, 0.1338898241519928, 0.18674394488334656, 0.19279471039772034, -0.048921097069978714, -0.011667797341942787, -0.017671234905719757, 0.12535347044467926, -0.08966298401355743, 0.17271669209003448, -0.13547633588314056, 0.018707845360040665, -0.060158394277095795, 0.15584008395671844, 0.059711553156375885, 0.2228064388036728, 0.12910179793834686, 0.12949930131435394, 0.16280730068683624, -0.06305025517940521, 0.03640300780534744, -0.11299659311771393, 0.11652757227420807, 0.18663522601127625, -0.0332811065018177, -0.023571323603391647, 0.07780762016773224, -0.14955897629261017, -0.11937934160232544, 0.1054789125919342, 0.0929219201207161, 0.03141649439930916, 0.36227163672447205, -0.25642484426498413, 0.124160997569561, -0.07638996094465256, 0.18496274948120117, -0.023345617577433586, 0.06476845592260361, -0.12665368616580963, -0.028965115547180176, 0.0542827807366848, 0.09858542680740356, -0.0717538595199585, 0.13344880938529968, -0.10000132024288177, 0.13714095950126648, -0.15212798118591309, 0.2137022316455841, 0.08734355121850967, 0.1677408516407013, 0.028148094192147255, 0.11924675107002258, -0.12414877116680145, 0.027094891294836998, -0.19194313883781433, -0.1403459906578064, 0.06708922982215881, 0.010896882973611355, -0.16090494394302368, 0.0012269329745322466, 0.045898932963609695, -0.0791250541806221, 0.06207190826535225, 0.048820026218891144, 0.12566518783569336, -0.07176964730024338, -0.050143737345933914, -0.1957426518201828, -0.13515253365039825, 0.053415533155202866, -0.08396361768245697, -0.1398543119430542, -0.0764797031879425, -0.033015746623277664, -0.24952243268489838, -0.21380990743637085, 0.15197305381298065, -0.06240511313080788, -0.08900143951177597, 0.019656116142868996, -0.19881375133991241, -0.038352806121110916, 0.0849260687828064, 0.003735828911885619, -0.04156719520688057, -0.019473403692245483, -0.14233890175819397, 0.18263722956180573, 0.16980436444282532, 0.18709248304367065, 0.014596969820559025, 0.059597667306661606, -0.11117511987686157, 0.002240498550236225, -0.03149383142590523, 0.04925084114074707, 0.07428933680057526, -0.15517881512641907, -0.17649441957473755, -0.08937980979681015, -0.20487086474895477, -0.047134820371866226, -0.17896594107151031, 0.03540778160095215, 0.02835097722709179, 0.13250508904457092, -0.08873336762189865, -0.013480250723659992, -0.021374592557549477, -0.04071979224681854, 0.02493344247341156, -0.21251647174358368, -0.2555478811264038, -0.18124373257160187, -0.1062345802783966, 0.21557822823524475, -0.03700019791722298, 0.27708321809768677, 0.24169133603572845, -0.0236954502761364, 0.07161823660135269, 0.1812565177679062, -0.20462332665920258, 0.09835116565227509, -0.14303530752658844, 0.20036683976650238, -0.1741265058517456, 0.033300984650850296, -0.42920613288879395, 0.27118581533432007, -0.18887528777122498, 0.0871623158454895, -0.05071587860584259, -0.03191854804754257, -0.33380451798439026, 0.137600839138031, 0.014803648926317692, 0.27844148874282837, -0.2127402424812317, 0.04533183202147484, -0.27089056372642517, -0.039370231330394745, 0.026730112731456757, 0.22417540848255157, 0.16445353627204895, 0.1294754445552826, 0.09065035730600357, 0.3621249794960022, -0.03857158124446869, -0.09931375086307526, -0.18335379660129547, -0.009318589232861996, -0.10269276052713394, -0.09356530010700226, -0.06540250778198242, 0.02768462896347046, -0.11915136128664017, 0.16094346344470978, 0.10291951149702072, 0.30778056383132935, -0.005519561469554901, -0.06559952348470688, 0.2583717107772827, -0.03647495433688164, -0.027998419478535652, -0.03787470981478691, -0.07035885751247406, 0.06779038906097412, -0.12047520279884338, 0.15416406095027924, -0.052300404757261276, -0.09230435639619827, -0.16250385344028473, 0.03371868282556534, 0.11167952418327332, 0.10281980782747269, -0.27986466884613037, 0.1226821094751358, -0.19066068530082703, 0.1378183662891388, 0.22924984991550446, 0.08649379760026932, -0.012545873410999775, 0.0026295760180801153, -0.17273984849452972, -0.038019344210624695, -0.007476432248950005, -0.029770899564027786, -0.12867383658885956, 0.058438416570425034, -0.07691958546638489, 0.03768611326813698, -0.06647734344005585, -0.030596358701586723, -0.10121135413646698, -0.25044599175453186, -0.17215794324874878, 0.03537499159574509, -0.06085788458585739, -0.054302796721458435, -0.12255771458148956, 0.024690592661499977, -0.031500887125730515, 0.07651203870773315, -0.14799456298351288, -0.05538849160075188, 0.04395468905568123, -0.14847074449062347, -0.2974936068058014, 0.1316874474287033, -0.11244230717420578, 0.13518159091472626, 0.11411800235509872, 0.05933462455868721, -0.046863291412591934, 0.03666749969124794, -0.005535835865885019, -0.022236034274101257, 0.09057024866342545, -0.09793183952569962, -0.07380010187625885, 0.04632394388318062, 0.17011982202529907, -0.17137712240219116, 0.25635555386543274, 0.1624527871608734, -0.16288968920707703, 0.024719901382923126, 0.21101513504981995, 0.007515841629356146, 0.013078977353870869, -0.002548927441239357, -0.09478885680437088, -0.22269020974636078, -0.01395096443593502, 0.250516414642334, -0.020946478471159935, -0.21432983875274658, 0.3226999044418335, -0.04374517500400543, -0.13887062668800354, 0.13465048372745514, 0.09416297823190689, 0.011985789984464645, 0.16541850566864014, -0.09203413873910904, 0.03745812177658081, 0.1783590465784073, 0.06627032160758972, -0.08481919765472412, -0.06320612132549286, -0.19009241461753845, 0.06745027750730515, 0.09160085022449493, 0.05638639256358147, -0.03358351066708565, -0.031151916831731796, -0.004089034628123045, -0.011268041096627712, -0.11756818741559982, 0.05190318077802658, 0.08165860921144485, 0.04564628377556801, -0.007453732192516327, -0.01870848424732685, 0.04806651175022125, -0.05834481492638588, -0.18723458051681519, -0.0005728226387873292, 0.14908388257026672, -0.048105984926223755, -0.06567780673503876, -0.17144735157489777, 0.0631408616900444, 0.177692249417305, 0.2287197858095169, 0.019360242411494255, 0.10552708059549332, -0.1162913367152214, 0.025391889736056328, -0.17061014473438263, 0.11738045513629913, -0.0508638396859169, -0.10116348415613174, -0.026440028101205826, -0.0509367473423481, -0.04783065244555473, 0.14955240488052368, 0.10698416829109192, -0.038869671523571014, -0.15250732004642487, 0.01857021078467369, 0.14625032246112823, 0.047624655067920685, -0.10017187893390656, 0.08474960923194885, 0.07496495544910431, -0.037043895572423935, -0.12809105217456818, 0.03714895248413086, 0.006813164800405502, -0.061668843030929565, -0.018836278468370438, 0.011301983147859573, 0.14207497239112854, 0.039074771106243134, 0.0010192820336669683, 0.10059948265552521, 0.2023833841085434, -0.05148560181260109, 0.029370812699198723, 0.1525103747844696, -0.015721380710601807, 0.12795010209083557, 0.12717658281326294, -0.053398601710796356, -0.016153693199157715, -0.13706399500370026, 0.25640469789505005, -0.051175858825445175, -0.0019164180848747492, 0.030130308121442795, -0.10501380264759064, -0.19077464938163757, 0.1340019255876541, -0.10224172472953796, 0.07542083412408829, 0.0194589514285326, -0.00787871889770031, -0.006144070997834206, -0.10376732796430588, 0.06137213110923767, 0.15324628353118896, -0.05219046771526337, 0.06764589250087738, -0.2289246767759323, -0.07403754442930222, 0.09703714400529861, 0.08185088634490967, 0.10681157559156418, -0.030025199055671692, -0.017613135278224945, -0.09219679236412048, 0.06281483173370361, -0.1259521245956421, -0.07598212361335754, 0.0931176170706749, 0.10908016562461853, 0.07934757322072983, -0.09135179221630096, -0.19123676419258118, 0.13550156354904175, -0.09947578608989716, 0.14320021867752075, 0.1492149829864502, 0.19870524108409882, -0.21860598027706146, 0.01989774778485298, 0.02557222917675972, -0.07495839893817902, -0.05259962007403374, -0.00435880059376359, -0.043732624500989914, -0.0542658269405365, -0.2335081547498703, 0.11790955811738968, -0.1586797833442688, -0.16791778802871704, -0.19373588263988495, -0.08694233745336533, 0.007959611713886261, 0.20029735565185547, 0.030118392780423164, 0.08292687684297562, -0.2246697098016739, 0.0720725730061531, 0.015401042997837067, -0.019377131015062332, 0.09682836383581161, 0.13895024359226227, -0.13212858140468597, -0.05484921112656593, 0.14882437884807587, 0.07758840918540955, 0.043206240981817245, -0.03477398678660393, -0.0440167672932148, -0.1489959955215454, 0.1608569175004959, 0.08811765909194946, -0.1862974911928177, 0.1150425374507904, -0.0988444909453392, -0.1702413409948349, -0.168223574757576, -0.07036520540714264, -0.09654945135116577, -0.36723434925079346, 0.17793042957782745, -0.23932702839374542, 0.029449917376041412, -0.0013817150611430407, -0.19383937120437622, -0.027290433645248413, 0.03997262194752693, -0.06209105998277664, 0.01012385543435812, -0.08882526308298111, -0.016652178019285202, 0.48996543884277344, -0.19804024696350098, 0.14839830994606018, 0.15506252646446228, -0.11127132922410965, -0.007155318278819323, 0.47787386178970337, -0.40593650937080383, -0.034465424716472626, -0.03575355187058449, -0.008368127048015594, -0.06302689015865326, 0.11005586385726929, -0.07661598920822144, -0.09637576341629028, -0.0934772714972496, -0.06049219146370888, 0.148491770029068, -0.03409404307603836, 0.14450252056121826, 0.08264832198619843, -0.31673091650009155, 0.4774787127971649, 0.028166381642222404, 0.16979284584522247, -0.2410038858652115, 0.03531530126929283, -0.20103728771209717, -0.02729123644530773, -0.053963370621204376, -0.4024913012981415, 0.08754996210336685, -0.24817083775997162, 0.09190205484628677, -0.11545464396476746, 0.1258871853351593, -0.0863136500120163, 0.0882667750120163, -0.0033734068274497986, 0.10219573974609375, 0.00979461520910263, 0.20335105061531067, 0.08946536481380463, 0.0978141576051712, -0.0575350746512413, 0.12620308995246887, 0.12579245865345, -0.1956677883863449, -0.016415268182754517, 0.0022314810194075108, -0.04234236851334572, -0.0900065004825592, -0.1196751594543457, 0.21620528399944305, 0.1894979178905487, -0.04436231404542923, -0.25903621315956116, -0.024964848533272743, -0.18332071602344513, 0.06731181591749191, -0.02068810537457466, -0.06602585315704346, -0.19866056740283966, -0.14234575629234314, 0.12650512158870697, 0.2680494785308838, 0.04259129613637924, 0.11219140142202377, -0.2872708737850189, -0.1298796683549881, 0.027337906882166862, -0.0345916785299778, -0.013963710516691208, -0.07086797803640366, -0.06606782972812653, 0.025509215891361237, 0.16749726235866547, -0.12764306366443634, 0.03178127855062485, -0.07925372570753098, -0.10397130995988846, 0.003948356956243515, 0.14907947182655334, 0.2614768445491791, 0.0207870714366436, 0.014663848094642162, 0.01567886583507061, 0.1175147294998169, -0.1316143274307251, 0.07172061502933502, 0.07675262540578842, 0.039902474731206894, -0.0980205163359642, -0.020854052156209946, 0.0949220210313797, 0.07178431749343872, 0.0728108286857605, 0.04412851482629776, 0.024647848680615425, -0.12023565918207169, -0.35556113719940186, 0.20409098267555237, 0.2195805460214615, -0.4206366539001465, 0.057726919651031494, -0.7037633657455444, -0.2162361741065979, -0.34468626976013184, 0.5053020119667053, -0.7302841544151306, -0.47578632831573486, -0.9127500653266907, 0.20874451100826263, -0.6184117197990417, 0.3417057394981384, -0.5866550207138062, -0.29431062936782837, -0.14941710233688354, 0.005806082859635353, 0.28082171082496643, 0.12013866007328033, -0.16681422293186188, -0.32862356305122375, -0.22966739535331726, 0.01617056503891945, -0.2155359983444214, 0.08607414364814758, -0.19701199233531952, 0.240043044090271, -0.09957137703895569, -0.04361887648701668, -0.11689905822277069, 0.13096795976161957, 0.1538790464401245, -0.02966984361410141, -0.10239066928625107, -0.16297951340675354, 0.09534643590450287, -0.023919299244880676, -0.00010838128946488723, -0.06228940561413765, -0.026543036103248596, 0.021393755450844765, 0.04144999384880066, 0.006431800778955221, 0.006583889480680227, 0.2197440266609192, 0.07319808751344681, -0.03561216592788696, -0.02643493562936783, -0.001670908066444099, 0.16315485537052155, 0.002210017526522279, 0.13462184369564056, -0.030015451833605766, 0.03992771729826927, -0.05727413669228554, -0.06860725581645966, -0.2035071700811386, -0.2590700685977936, 0.08593729138374329, -0.1231030747294426, 0.17060419917106628, 0.041836272925138474, 0.14062444865703583, 0.09857799857854843, -0.159728541970253, -0.12229884415864944, -0.21711154282093048, -0.05304419994354248, -0.062188517302274704, -0.03449918329715729, -0.11563850939273834, 0.1156054362654686, 0.11054641753435135, 0.24546410143375397, 0.20639392733573914, -0.06521142274141312, 0.10531914234161377, 0.05441584065556526, 0.32245922088623047, 0.15433435142040253, -0.12210328131914139, -0.3632625341415405, 0.1792495846748352, 0.10650277137756348, 0.10657628625631332, 0.1892414093017578, 0.08549916744232178, -0.025582052767276764, -0.06698049604892731, 0.22020745277404785, -0.10752979665994644, -0.009407268837094307, -0.10564108192920685, -0.05250461399555206, -0.21668723225593567, 0.08785814791917801, -0.23589308559894562, 0.023482078686356544, 0.15583692491054535, -0.25981321930885315, 0.044145070016384125, -0.06520505994558334, 0.18018215894699097, 0.18263861536979675, -0.04275380074977875, -0.15298396348953247, -0.22212834656238556, 0.013333156704902649, 0.09160563349723816, -0.06836694478988647, 0.0680953860282898, -0.06743235886096954, 0.10294710844755173, -0.27424195408821106, 0.04661211743950844, 0.287527471780777, -0.18361181020736694, -0.1533314734697342, 0.13526876270771027, -0.0834299698472023, -0.11753645539283752, 0.1380103975534439, 0.029516560956835747, 0.047328684478998184, -0.13823117315769196, 0.32758769392967224, 0.08914002776145935, -0.022781046107411385, 0.15009969472885132, -0.048761267215013504, 0.3365723788738251, -0.2582128942012787, -0.05327943339943886, 0.1636614203453064, -0.11606772243976593, 0.03214792162179947, -0.37716689705848694, 0.10189927369356155, -0.3340502977371216, -0.11610893160104752, 0.14705224335193634, -0.1928594559431076, -0.07080404460430145, -0.03395162522792816, -0.32065078616142273, 0.178353950381279, -0.3718927800655365, -0.20513871312141418, -0.02901405468583107, -0.2505338788032532, 0.250593900680542, 0.09157512336969376, 0.4152431786060333, -0.22737103700637817, 0.16366542875766754, 0.26268520951271057, -0.24370604753494263, 0.31620630621910095, -0.09935363382101059, 0.07512783259153366, -0.062344036996364594, 0.013578306883573532, 0.10730931907892227, -0.04830041527748108, 0.18612290918827057, 0.008975069969892502, 0.039911724627017975, 0.08535412698984146, 0.13671673834323883, 0.2798348069190979, 0.05695023015141487, 0.048347193747758865, 0.2937949299812317, -0.08382364362478256, -0.17026031017303467, -0.10347776859998703, -0.09132567048072815, 0.2703046500682831, -0.0017993394285440445, -0.22916379570960999, 0.00879483763128519, 5.272987618809566e-05, 0.2610807716846466, 0.10594156384468079, -0.16719010472297668, 0.07412024587392807, 0.08794127404689789, 0.0481361486017704, -0.019395213574171066, 0.10761367529630661, 0.06687861680984497, 0.11302293837070465, -0.21145960688591003, -0.04986889660358429, -0.18366330862045288, -0.2061033993959427, 0.13113504648208618, 0.10966037213802338, -0.145163893699646, 0.06637363880872726, 0.24765846133232117, -0.12210343033075333, 0.04309181496500969, -0.06139710173010826, 0.013529381714761257, -0.17653599381446838, -0.16512738168239594, -0.16715934872627258, -0.26293790340423584, 0.2830389142036438, -0.015522207133471966, -0.05641695111989975, -0.25346553325653076, 0.07058963924646378, -0.20867356657981873, 0.0833853930234909, -0.15779522061347961, -0.24945694208145142, 0.3084109425544739, -0.18497315049171448, 0.047612614929676056, 0.03299514576792717, 0.05812257155776024, -0.030005110427737236, -0.22866076231002808, 0.35212579369544983, -0.33835268020629883, -0.01889355666935444, -0.0155187351629138, -0.057713717222213745, 0.23258283734321594, 0.05499314144253731, 0.12076886743307114, -0.08480719476938248, 0.31628602743148804, 0.0069180442951619625, 0.13828060030937195, -0.018733248114585876, -0.06770540028810501, 0.18950523436069489, -0.1418653130531311, 0.17660224437713623, -0.29612624645233154, -0.1189148873090744, 0.12103965133428574, -0.17399100959300995, 0.13764150440692902, 0.08438446372747421, -0.003146188799291849, -0.10287006944417953, 0.17258407175540924, 0.061202362179756165, 0.10813479125499725, 0.29536548256874084, -0.008133040741086006, -0.17797110974788666, -0.17635498940944672, 0.2965458035469055, -0.20114612579345703, -0.03991479054093361, -0.17817553877830505, -0.022435858845710754, 0.14669069647789001, -0.10516712069511414, 0.28985193371772766, 0.08463215082883835, -0.11889034509658813, 0.23592054843902588, -0.27373823523521423, -0.20339606702327728, -0.09347978979349136, -0.001628775498829782, 0.004293353762477636, -0.0689937025308609, -0.11469994485378265, 0.0010345765622332692, 0.08180701732635498, 0.1001073345541954, 0.09699701517820358, 0.027921149507164955, -0.0010827352525666356, -0.14541871845722198, -0.003281000070273876, -0.20287390053272247, -0.07134527713060379, -0.10850002616643906, 0.12385094165802002, -0.11690451204776764, -0.12917588651180267, 0.05970114842057228, -0.09001773595809937, 0.019688667729496956, -0.12620975077152252, -0.1719331294298172, -0.06399107724428177, -0.048496875911951065, -0.20989945530891418, -0.07965824007987976, 0.0669717788696289, 0.022082019597291946, -0.20071713626384735, 0.20539242029190063, 0.16731779277324677, -0.022817645221948624, -0.08280371874570847, -0.06061306968331337, 0.06547390669584274, 0.06968773901462555, 0.192036435008049, -0.16238117218017578, -0.05441749468445778, 0.07701589912176132, 0.18004827201366425, 0.022877056151628494, 0.0608588382601738, -0.04875975847244263, -0.12293654680252075, -0.09137467294931412, -0.030512500554323196, -0.047597791999578476, -0.015594362281262875, 0.07266510277986526, 0.02132510207593441, -0.037724465131759644, 0.0353015698492527, -0.07791461795568466, 0.048515673726797104, 0.05333907902240753, 0.13875553011894226, 0.05236509069800377, 0.03187510371208191, 0.22451214492321014, -0.12181094288825989, 0.15828260779380798, 0.10859711468219757, 0.024275699630379677, 0.13337109982967377, 0.1267477422952652, 0.0030720089562237263, 0.09044227749109268, 0.10571271926164627, 0.1066221073269844, 0.2679316997528076, 0.0315776951611042, 0.004903268069028854, 0.09742346405982971, 0.09297279268503189, -0.041776061058044434, 0.06366672366857529, 0.02637741155922413, 0.016865434125065804, -0.26654279232025146, 0.04556697607040405, -0.14792650938034058, 0.26214292645454407, -0.08641710877418518, -0.13930046558380127, -0.1737898886203766, 0.08223411440849304, -0.00046971123083494604, -0.10776391625404358, -0.041925426572561264, 0.013574876822531223, -0.12271258234977722, 0.17642730474472046, 0.16003532707691193, 0.18869751691818237, 0.019182337448000908, -0.0041121323592960835, -0.008283732458949089, 0.05050654709339142, 0.2109096497297287, 0.1010918840765953, 0.037060629576444626, 0.06512585282325745, -0.042823828756809235, 0.0025958882179111242, 0.11883730441331863, 0.056803148239851, 0.16903528571128845, -0.16186051070690155, -0.2161232978105545, -0.0032067482825368643, -0.1701105237007141, -0.2902228832244873, -0.06910724937915802, 0.13611838221549988, -0.14026574790477753, -0.02439972385764122, -0.0571477934718132, 0.14815233647823334, -0.2519291043281555, -0.02429293654859066, 0.18411242961883545, -0.07440826296806335, -0.1049887090921402, 0.0757877454161644, 0.08515968918800354, 0.007779461331665516, -0.1442449688911438, 0.06497453153133392, 0.17218908667564392, 0.20042666792869568, 0.08584810793399811, 0.15022879838943481, -0.06099552661180496, 0.01635679416358471, 0.013555856421589851, 0.14260230958461761, 0.12472808361053467, 0.12130826711654663, -0.09776861220598221, -0.21342363953590393, 0.04667702689766884, 0.043717894703149796, -0.011251837015151978, -0.03845220059156418, 0.0030532737728208303, 0.08400676399469376, 0.01513702142983675, 0.13241209089756012, -0.1262146234512329, -0.0036062614526599646, 0.1688557118177414, 0.0454215407371521, -0.19526031613349915, 0.0033858814276754856, -0.23501957952976227, 0.130905881524086, 0.19411040842533112, -0.07937278598546982, 0.050205882638692856, 0.5686227679252625, 0.0993058979511261, -0.005041278898715973, 0.14043493568897247, 0.3407406806945801, 0.2940075397491455, -0.16142237186431885, 0.37075385451316833, 0.1696641445159912, -0.2883116900920868, 0.1279967874288559, -0.11615046858787537, -0.4830634891986847, -0.2281528264284134, -0.1451241821050644, 0.3156872093677521, 0.43107348680496216, 0.09002236276865005, -0.3437198996543884, -0.22238971292972565, -0.07092303782701492, 0.24294470250606537, 0.19497694075107574, 0.13543154299259186, 0.08371993154287338, -0.2397896647453308, -0.16324594616889954, -0.17256104946136475, 0.22590665519237518, 0.1884545534849167, -0.07358986139297485, 0.18688739836215973, 0.012852787971496582, 0.10944531857967377, 0.1101626381278038, 0.03951775282621384, 0.008072090335190296, 0.23770637810230255, 0.023903759196400642, 0.09367599338293076, 0.21470840275287628, 0.11931603401899338, 0.2563706040382385, 0.019595619291067123, 0.04758008196949959, 0.03905859217047691, 0.32052651047706604, -0.21352632343769073, -0.11035676300525665, 0.0546572208404541, -0.3101862967014313, -0.1325952261686325, 0.014005552977323532, 0.0433572418987751, -0.061203744262456894, -0.010038740932941437, 0.1516246497631073, -0.06398196518421173, -0.3206663131713867, 0.09736442565917969, 0.11250165849924088, 0.07151854038238525, 0.1084921658039093, -0.009873375296592712, -0.33251458406448364, -0.18585896492004395, 0.042036011815071106, -0.07011030614376068, -0.047563984990119934, 0.02338828146457672, 0.12910081446170807, -0.24032047390937805, 0.06321573257446289, -0.12653280794620514, 0.014955298975110054, 0.002774587832391262, -0.029074793681502342, -0.11487411707639694, 0.08294006437063217, 0.12446290999650955, 0.08267224580049515, -0.18354015052318573, -0.015790853649377823, -0.15681391954421997, -0.22624872624874115, 0.06977777928113937, -0.22068378329277039, 0.03917679190635681, 0.1403535008430481, -0.1573232263326645, 0.19196724891662598, 0.2440335750579834, -0.18082816898822784, -0.04853406921029091, 0.04152587428689003, -0.19421184062957764, -0.2035038024187088, 0.12379417568445206, -0.4239743649959564, 0.007121021393686533, 0.054326534271240234, -0.031062355265021324, -0.03980226442217827, 0.0008275231230072677, -0.1562553495168686, 0.03604660555720329, -0.0012636088067665696, 0.07519298046827316, 0.10686657577753067, -0.1533413529396057, -0.09566358476877213, 0.09304888546466827, -0.14288529753684998, 0.09799795597791672, 0.00879228301346302, -0.1908315271139145, -0.1335228681564331, 0.09828487783670425, 0.17583569884300232, -0.039665695279836655, -0.12179289013147354, -0.03613261505961418, 0.059818461537361145, -0.013360550627112389, 0.12368262559175491, 0.06671983748674393, 0.00017888467118609697, -0.024620603770017624, -0.04852372035384178, -0.06702467799186707, 0.08939701318740845, -0.27011358737945557, -0.15063774585723877, 0.11305490881204605, -0.018386360257864, -0.0013905511004850268, 0.13203418254852295, -0.040921762585639954, -0.0529499314725399, 0.20153242349624634, -0.10142230242490768, -0.005484428256750107, -0.0991978570818901, -0.08411388844251633, -0.026011696085333824, 0.05886411294341087, 0.13499994575977325, 0.1270345151424408, 0.012274106033146381, -0.24648983776569366, -0.18602855503559113, -0.12842842936515808, -0.018940813839435577, -0.007984384894371033, -0.06574315577745438, -0.18807503581047058, -0.15041545033454895, -0.03147577866911888, 0.17989663779735565, -0.006139618344604969, 0.035648975521326065, -0.05459446460008621, -0.04154551774263382, 0.17144811153411865, 0.16914185881614685, -0.12842832505702972, -0.1108582392334938, 0.04505128040909767, 0.25613754987716675, -0.028268951922655106, 0.19740629196166992, -0.10608870536088943, -0.1364411860704422, -0.004249853547662497, -0.08377481997013092, 0.013233800418674946, -0.10236714780330658, -0.07388682663440704, -0.09349388629198074, 0.017046166583895683, 0.19415657222270966, -0.04765032231807709, 0.007270675152540207, 0.11803275346755981, -0.12348796427249908, -0.004876372404396534, 0.04840324819087982, 0.10840956121683121, 0.02121531032025814, 0.09745229780673981, 0.07098250836133957, 0.022387849166989326, -0.13237623870372772, 0.10599105805158615, -0.054110631346702576, 0.3079918324947357, 0.022840658202767372, 0.0987497866153717, -0.042784083634614944, -0.008198346011340618, -0.09478425234556198, 0.04007422924041748, -0.07982245832681656, 0.18646667897701263, -0.01793130673468113, -0.004759430885314941, 0.2104025036096573, 0.1895061880350113, -0.06395460665225983, -0.15233299136161804, -0.04194333404302597, -0.22316935658454895, 0.11249888688325882, -0.010517187416553497, 0.11429022252559662, -0.01147957518696785, -0.07404396682977676, -0.08802974969148636, 0.20977498590946198, -0.005703841336071491, 0.22526901960372925, -0.07838959991931915, -0.01642676629126072, 0.08525393158197403, -0.035558365285396576, -0.13838277757167816, 0.05661993846297264, -0.17329883575439453, 0.16663509607315063, 0.10357626527547836, -0.1046970784664154, 0.11265537142753601, 0.14044728875160217, -0.02964002639055252, 0.09121621400117874, 0.1315152943134308, -0.08868644386529922, 0.14109399914741516, -0.006633186712861061, -0.13798539340496063, -0.05603926628828049, 0.1306256800889969, -0.026730312034487724, 0.08538477122783661, 0.07870443910360336, 0.20730790495872498, -0.06506673991680145, -0.0062614427879452705, 0.105256587266922, 0.03642555698752403, -0.33096396923065186, -0.10342572629451752, 0.08150924742221832, -0.0095150051638484, -0.10933393985033035, -0.08724037557840347, -0.017722858116030693, -0.07352793961763382, -0.009146939031779766, -0.06647848337888718, -0.1498234122991562, 0.067179374396801, 0.2517264485359192, -0.048416540026664734, -0.0997719019651413, 0.02645510993897915, 0.12841565907001495, 0.19730564951896667, 0.0801510289311409, -0.015850352123379707, -0.249969944357872, 0.03171608969569206, 0.11253902316093445, -0.1485629677772522, -0.041568122804164886, 0.012653123587369919, -0.15230825543403625, 0.16541875898838043, -0.051584187895059586, -0.11780863255262375, 0.21173334121704102, 0.11433789134025574, -0.2055055946111679, 0.35408687591552734, -0.06301292032003403, -0.09021462500095367, -0.04244212061166763, 0.029463332146406174, 0.05901718884706497, 0.20112186670303345, 0.11122987419366837, -0.13952234387397766, -0.007088224403560162, 0.15467964112758636, 0.02927381731569767, -0.09823432564735413, 0.20155605673789978, -0.20674258470535278, -0.06308498233556747, -0.013115167617797852, 0.03190751001238823, -0.02646215260028839, -0.1365024298429489, 0.002777073998004198, -0.27301129698753357, 0.12326236069202423, -0.3986996114253998, 0.0715366005897522, -0.3015817403793335, 0.0027903267182409763, -0.11238181591033936, -0.11913545429706573, -0.11369220912456512, 0.03359238803386688, -0.31408002972602844, -0.027720442041754723, -0.003998005297034979, 0.040479302406311035, -0.17865176498889923, -0.12672638893127441, 0.2814270257949829, 0.07274624705314636, 0.0762173980474472, 0.2571880519390106, -0.09271954745054245, -0.12249942123889923, -0.10176446288824081, -0.1757303923368454, -0.13619586825370789, -0.008240255527198315, -0.40515416860580444, -0.09697561711072922, -0.20917688310146332, -0.4477209448814392, -0.09248802065849304, 0.052362941205501556, -0.07427007704973221, 0.11724946647882462, 0.21609163284301758, 0.6092308759689331, -0.008823517709970474, -0.06653032451868057, 0.19582268595695496, 0.015178501605987549, -0.03863495588302612, 0.170798197388649, 0.21367907524108887, -0.163037970662117, 0.0953792855143547, 0.05649647116661072, 0.19162781536579132, -0.11137101799249649, 0.15856091678142548, -0.01939832791686058, -0.036480359733104706, 0.09935389459133148, 0.1736477166414261, -0.11879895627498627, -0.023558512330055237, 0.1172911673784256, 0.12802593410015106, -0.09545211493968964, 0.01995481736958027, -0.179423525929451, 0.0677226185798645, 0.024414483457803726, 0.26093029975891113, 0.028918208554387093, -0.0628342479467392, 0.10012320429086685, 0.10152451694011688, 0.08361664414405823, 0.06764792650938034, 0.07720451802015305, -0.0559479296207428, 0.04586024209856987, -0.10336674749851227, 0.17044316232204437, -0.00892317108809948, -0.06619139760732651, -0.11645577102899551, -0.05990378186106682, -0.16497451066970825, -0.09575953334569931, 0.07093256711959839, -0.16790325939655304, 0.010465269908308983, -0.14887267351150513, -0.09782201796770096, 0.08100635558366776, 0.14880865812301636, -0.2595069706439972, 0.12108711153268814, 0.11610809713602066, 0.17061813175678253, -0.0713045597076416, 0.012449061498045921, -0.06343573331832886, -0.2932948172092438, -0.11874162405729294, -0.11760079860687256, 0.25291362404823303, 0.1691628396511078, 0.279475599527359, -0.18183311820030212, -0.21025961637496948, -0.3712630569934845, 0.13993127644062042, -0.10178961604833603, 0.004000640008598566, -0.16603438556194305, -0.07421669363975525, -0.30100536346435547, -0.04722096025943756, 0.031965821981430054, -0.020772423595190048, 0.04549478739500046, 0.10829193890094757, -0.07351033389568329, 0.17168574035167694, 0.14819292724132538, -0.348172128200531, -0.01926214061677456, 0.2261085957288742, -0.2386341691017151, -0.13351169228553772, 0.020227566361427307, -0.2612295150756836, -0.10545863956212997, -0.1509941965341568, -0.04130293428897858, -0.00098193169105798, 0.1454886943101883, 0.0012143671046942472, -0.03621579334139824, -0.217928946018219, -0.1629357784986496, -0.3416202962398529, -0.013323837891221046, -0.05202211067080498, -0.1355489194393158, -0.008368897251784801, 0.07691161334514618, 0.1454520970582962, 0.09772351384162903, 0.05967623367905617, 0.15031060576438904, 0.010970592498779297, -0.07029533386230469, -0.005511361174285412, -0.06859177350997925, 0.1540188193321228, 0.09393199533224106, -0.011889224871993065, 0.03309641405940056, -0.223674938082695, 0.14218097925186157, -0.18191760778427124, 0.0913185253739357, -0.01825144700706005, 0.032051313668489456, 0.01555322203785181, 0.030155330896377563, 0.12641239166259766, -0.06062978133559227, 0.18515951931476593, -0.09006040543317795, -0.009798985905945301, -0.05834962800145149, 0.02410702593624592, 0.004878686275333166, 0.12623995542526245, 0.03185617923736572, 0.07938777655363083, -0.00524580804631114, 0.14589618146419525, 0.12108403444290161, 0.2479279488325119, 0.024261213839054108, 0.01478502806276083, 0.021340107545256615, 0.04365330561995506, -0.4024478495121002, -0.24590159952640533, 0.06619662791490555, -0.16325342655181885, -0.14109374582767487, -0.1169416606426239, -0.2501157820224762, 0.12130746245384216, -0.1328415721654892, 0.11794929951429367, -0.03352738171815872, -0.11981301754713058, 0.04342735558748245, -0.09105096012353897, 0.2359149158000946, -0.11159266531467438, 0.015767859295010567, 0.07012173533439636, 0.23546873033046722, -0.05985002964735031, 0.031646616756916046, -0.03385264053940773, 0.1814785897731781, 0.02963000163435936, 0.0903576910495758, 0.1554911881685257, 0.019524971023201942, -0.02804727479815483, -0.08019842952489853, -0.02803715132176876, -0.07949533313512802, 0.1131533607840538, -0.06869909167289734, -0.12153206020593643, -0.07697577774524689, 0.04048706963658333, 0.02014853060245514, 0.015175310894846916, -0.06029496714472771, -0.11026220768690109, 0.13120275735855103, -0.09466849267482758, 0.053690679371356964, 0.18168598413467407, 0.013985213823616505, 0.13777989149093628, -0.0324275828897953, 0.03093194216489792, -0.018421674147248268, -0.0856391042470932, -0.08187057077884674, -0.17202810943126678, 0.06442724168300629, -0.1315862536430359, -0.2521435022354126, 0.062312107533216476, -0.022322986274957657, -0.1040182113647461, -0.19718661904335022, 0.017545858398079872, 0.024450132623314857, -0.16081944108009338, 0.06859127432107925, -0.06354663521051407, -0.031899333000183105, 0.057996273040771484, 0.13953325152397156, -0.029818560928106308, 0.031335022300481796, -0.13302792608737946, 0.2312176525592804, 0.025116272270679474, 0.0022034987341612577, 0.03154005855321884, -0.07239337265491486, -0.06729728728532791, 0.10669341683387756, -0.034157462418079376, 0.02972538024187088, -0.20868618786334991, -0.07831328362226486, -0.09212261438369751, -0.07158537954092026, -0.11370297521352768, -0.1683783084154129, 0.1812082678079605, -0.06342090666294098, -0.13314828276634216, 0.05154048651456833, -0.022352207452058792, 0.20078684389591217, 0.20584894716739655, 0.24308353662490845, 0.14731934666633606, 0.20917341113090515, -0.2544204890727997, 0.5024541020393372, 0.14239506423473358, -0.00691417558118701, 0.2166689783334732, 0.09441372007131577, -0.1305963695049286, 0.1670733243227005, 0.04420332983136177, -0.10350056737661362, -0.024242078885436058, 0.05542935058474541, 0.11534633487462997, -0.12793827056884766, -0.08148720860481262, -0.04221180081367493, 0.10293233394622803, -0.03780042380094528, 0.01787019520998001, 0.048968732357025146, 0.19534555077552795, 0.10861767083406448, -0.0043530091643333435, -0.13647320866584778, -0.10397728532552719, -0.10958245396614075, 0.10160958766937256, 0.03156116604804993, -0.2557864487171173, -0.13273300230503082, -0.08662164956331253, 0.22934432327747345, 0.14382068812847137, -0.19858381152153015, 0.4081309139728546, -0.20854412019252777, -0.016796715557575226, 0.058322906494140625, -0.23040874302387238, 0.13543355464935303, -0.004269635770469904, -0.05972261726856232, 0.09998035430908203, -0.37907877564430237, -0.3976815640926361, 0.09519118815660477, 0.009574968367815018, 0.0874067023396492, -0.0034460544120520353, 0.003573758527636528, 0.21063849329948425, 0.03695119544863701, -0.0454709455370903, 0.26545748114585876, -0.011443132534623146, 0.04801194369792938, -0.0020435135811567307, -0.26929011940956116, 0.10928450524806976, 0.0816345140337944, 0.06524470448493958, -0.2603219747543335, -0.49459579586982727, 0.6121727824211121, 0.8671655654907227, -0.5625887513160706, 0.20516814291477203, -0.15032605826854706, -0.028107482939958572, 0.5339858531951904, -0.7246995568275452, 0.8544493317604065, 0.5142560005187988, -0.060799773782491684, -0.3518388569355011, 0.07962601631879807, -0.6452717781066895, -0.013908583670854568, -0.041012562811374664, -0.06700707226991653, -0.4029092788696289, 0.15964484214782715, 0.3965780735015869, -0.0019077567849308252, 0.23558060824871063, 0.31321197748184204, -0.15937113761901855, 0.11103279888629913, 0.13222377002239227, -0.2507239282131195, 0.0022714664228260517, -0.0925980880856514, -0.3284703195095062, 0.19590534269809723, -0.024449340999126434, 0.0830998569726944, 0.409978449344635, -0.028004923835396767, 0.011519275605678558, 0.11290593445301056, -0.27340802550315857, -0.4473179876804352, 0.18152794241905212, 0.010179221630096436, -0.22995693981647491, 0.15699243545532227, 0.26218241453170776, 0.10444043576717377, -0.06768696010112762, 0.03748286888003349, -0.17848223447799683, 0.06394805014133453, -0.1958385407924652, 0.10701745003461838, -0.16818279027938843, -0.015192674472928047, -0.17993587255477905, -0.14794866740703583, 0.015596859157085419, -0.09026922285556793, 0.201707124710083, 0.22794517874717712, -0.16509537398815155, -0.011575724929571152, 0.12164155393838882, 0.2560722827911377, -0.12923693656921387, 0.053163621574640274, -0.064099982380867, -0.06234697625041008, 0.15458731353282928, -0.21118716895580292, 0.2804293632507324, 0.16071611642837524, -0.11283329129219055, 0.11908944696187973, 0.06374979019165039, 0.11934425681829453, 0.2169293910264969, 0.11986347287893295, -0.07990247756242752, 0.308529257774353, 0.02234564907848835, 0.3401251435279846, 0.06276535242795944, 0.3670532703399658, -0.24205049872398376, 0.31758230924606323, -0.045155372470617294, -0.030254943296313286, 0.10775016248226166, -0.08251070976257324, 0.11143552511930466, 0.105198435485363, 0.0288822203874588, 0.26315608620643616, 0.09482777118682861, -0.09955743700265884, -0.15215720236301422, 0.08787048608064651, -0.010064099915325642, -0.46623414754867554, -0.124705009162426, 0.26146629452705383, -0.1424677073955536, -0.18049383163452148, -0.21072056889533997, 0.04524589702486992, 0.21418017148971558, -0.034558504819869995, 0.10367926210165024, 0.17014439404010773, -0.037144213914871216, 0.11508876830339432, 0.13759568333625793, -0.10934492200613022, 0.0718565508723259, 0.22499112784862518, -0.18277597427368164, 0.11154218763113022, 0.02411844953894615, -0.2848512530326843, 0.2348795086145401, 0.08305630832910538, -0.48064926266670227, 0.14149922132492065, 0.17980746924877167, 0.15730693936347961, 0.15404514968395233, 0.22176030278205872, 0.20322194695472717, -0.1568875014781952, -0.0525202713906765, 0.11019467562437057, -0.032774731516838074, -0.012083308771252632, 0.009283563122153282, 0.11935082077980042, -0.05716891959309578, 0.06503895670175552, 0.13877221941947937, 0.030254140496253967, 0.01101530808955431, 0.04092446342110634, 0.024139195680618286, -0.26691925525665283, 0.21652469038963318, -0.1498137265443802, 0.16934603452682495, 0.061640627682209015, 0.05341535434126854, -0.27696651220321655, 0.04271458834409714, -0.05749764293432236, 0.09853611141443253, -0.13643844425678253, 0.2881454527378082, -0.3876672089099884, -0.11011587083339691, -0.03935811668634415, 0.07239317148923874, 0.27574223279953003, -0.0023653139360249043, -0.07533793896436691, 0.15044698119163513, 0.01568830944597721, 0.025775674730539322, -0.036443084478378296, -0.27293285727500916, -0.18273676931858063, 0.11701115220785141, 0.052529025822877884, -0.10666976869106293, 0.001964183757081628, -0.03462935611605644, 0.26967811584472656, -0.17215269804000854, 0.2242773473262787, -0.23300698399543762, -0.20728842914104462, -0.1835152506828308, 0.1668090522289276, -0.1016744077205658, 0.04986191913485527, 0.02112080156803131, 0.2332671582698822, 0.07189890742301941, -0.17900200188159943, -0.16043052077293396, 0.001932421000674367, -0.16972912847995758, 0.0291450135409832, 0.245141863822937, -0.0042811064049601555, -0.03494340181350708, -0.06550920009613037, -0.051932383328676224, -0.2661900222301483, 0.2184315323829651, 0.16564014554023743, 0.11062305420637131, -0.10247769951820374, -0.3068304657936096, 0.02740474045276642, 0.23182091116905212, -0.2899659276008606, -0.28925320506095886, -9.947121725417674e-05, -0.12433858215808868, -0.5382019877433777, -0.1972227394580841, -0.26561519503593445, -0.14952975511550903, 0.10986170917749405, 0.1834072470664978, -0.36028939485549927, -0.16246555745601654, 0.28605300188064575, -0.0002339241182198748, -0.23571448028087616, 0.1729910671710968, -0.2792152464389801, -0.15136116743087769, -0.10980744659900665, -0.30509284138679504, -0.2931540012359619, 0.008375776000320911, -0.19094842672348022, -0.03551439568400383, 0.06953856348991394, -0.025668494403362274, 0.025768596678972244, -0.0801813006401062, 0.13583849370479584, -0.014366939663887024, 0.11940786987543106, -0.2804836630821228, -0.14386461675167084, 0.029810339212417603, -0.18124443292617798, -0.013962076976895332, 0.022800911217927933, 0.2129516452550888, 0.08738314360380173, -0.02154453843832016, -0.2284494787454605, -0.3624948263168335, 0.24229730665683746, -0.5007190108299255, -0.013553540222346783, 0.40781453251838684, 0.17678645253181458, 0.4261017143726349, -0.08661230653524399, 0.024348381906747818, 0.10880866646766663, -0.26450473070144653, -0.20603913068771362, -0.08952286094427109, -0.11093170195817947, -0.2533537745475769, -0.06094590201973915, 0.12697733938694, -0.1919504553079605, -0.102473683655262, 0.12447988986968994, 0.14086878299713135, 0.09862473607063293, 0.34797561168670654, -0.23837903141975403, -0.13902831077575684, -0.2816363573074341, 0.19763226807117462, -0.07592690736055374, 0.0859874039888382, 0.061102934181690216, 0.019652243703603745, -0.01431198138743639, 0.13972249627113342, 0.1545952409505844, -0.046408843249082565, -0.1905251294374466, -0.05702945962548256, -0.0004038666083943099, -0.08261388540267944, 0.04794612526893616, 0.10269081592559814, 0.0438232347369194, -0.06603144854307175, 0.4053288698196411, 0.10186681151390076, -0.11686217784881592, -0.33916300535202026, -0.17960171401500702, 0.06907422840595245, -0.16889427602291107, -0.3083497881889343, -0.09076441079378128, 0.007680172100663185, -0.14308100938796997, 0.23825614154338837, -0.14135386049747467, -0.2334626168012619, -0.0687311664223671, -0.09142301976680756, 0.07976983487606049, -0.06469731032848358, 0.002117134863510728, -0.09923436492681503, 0.22727687656879425, -0.24830099940299988, 0.333686500787735, 0.2580322325229645, 0.16225716471672058, -0.15338930487632751, -0.042352352291345596, -0.20953647792339325, 0.06053364649415016, -0.12412338703870773, 0.13878051936626434, -0.3164878785610199, 0.031964533030986786, 0.2726486325263977, -0.12911561131477356, -0.20403103530406952, 0.0987447053194046, 0.00011128050391562283, -0.16565097868442535, 0.16157081723213196, -0.02971804141998291, -0.08963459730148315, -0.1714637130498886, -0.21881361305713654, -0.11494550853967667, 0.18417181074619293, 0.03751126304268837, -0.12526147067546844, 0.05274023115634918, 0.08658042550086975, 0.12744510173797607, -0.026557747274637222, -0.0330628827214241, -0.02503945678472519, 0.0662444606423378, -0.0719047337770462, 0.11517802625894547, -0.14582480490207672, 0.15177595615386963, -0.06612639874219894, -0.04850461333990097, 0.13478702306747437, 0.2392260581254959, -0.04538045451045036, -0.23825597763061523, 0.1224910244345665, -0.05562042072415352, 0.24952931702136993, -0.02774389646947384, -0.1669771671295166, -0.10324960947036743, 0.03321278840303421, 0.13198202848434448, 0.12674745917320251, -0.15638847649097443, -0.15522092580795288, 0.03260562941431999, 0.09537322074174881, -0.02629176899790764, 0.11475509405136108, -0.11162696778774261, 0.18895365297794342, -0.1662597805261612, -0.1676630973815918, 0.05166490748524666, -0.027925215661525726, -0.11873633414506912, -0.030536817386746407, 0.08536651730537415, -0.30149880051612854, 0.1374443620443344, 0.1092308983206749, 0.15324044227600098, 0.20022867619991302, -0.0008818997303023934, -0.08230028301477432, -0.3689419627189636, -0.05720651522278786, 0.12065347284078598, 0.22327563166618347, -0.0027484912425279617, -0.2569773197174072, -0.08418723195791245, -0.011708404868841171, 0.1642865091562271, -0.11737706512212753, 0.15406237542629242, 0.1725514531135559, 0.2325877845287323, -0.0658537745475769, -0.03362544625997543, -0.0003835562092717737, -0.07883547246456146, -0.14404167234897614, -0.05497048795223236, 0.1478830724954605, -0.07556631416082382, 0.14635735750198364, -0.06125212088227272, 0.0048917545937001705, -0.1543286293745041, 0.0015061955200508237, 0.11648675799369812, 0.13820365071296692, -0.094136543571949, -0.008633808232843876, -0.02452794462442398, 0.12226856499910355, 0.24406620860099792, -0.22218754887580872, -0.008874079212546349, 0.06984633952379227, -0.21223881840705872, -0.009869507513940334, 0.03711067885160446, -0.218347430229187, -0.040758781135082245, 0.046448715031147, 0.13921406865119934, -0.14773987233638763, -0.14594830572605133, -0.17399941384792328, -0.009570533409714699, 0.13636918365955353, 0.1470622420310974, 0.3330576717853546, -0.17662885785102844, -0.1539364457130432, -0.026503179222345352, 0.3931046724319458, -0.03618664667010307, -0.13276872038841248, -0.19394934177398682, 0.028993574902415276, -0.13029465079307556, -0.40768375992774963, -0.13147328794002533, -0.06338941305875778, 0.10143904387950897, -0.1250443309545517, -0.12298768758773804, 0.177236869931221, 0.00646673608571291, -0.061288442462682724, 0.05510493740439415, -0.15093249082565308, -0.02966936118900776, 0.46603041887283325, 0.256809264421463, 0.08793491125106812, -0.29772046208381653, -0.18854980170726776, 0.022130727767944336, 0.24311605095863342, 0.11572951823472977, 0.12470560520887375, -0.3118627965450287, 0.10911308974027634, 0.25784456729888916, -0.04971647262573242, 0.1423214226961136, 0.16801030933856964, -0.3275241255760193, 0.18737564980983734, 0.19797669351100922, -0.36832988262176514, -0.15732093155384064, 0.13743533194065094, -0.2059570699930191, -0.07123302668333054, 0.23889444768428802, -0.3481176197528839, 0.05082574486732483, 0.13666778802871704, -0.040887005627155304, 0.19885163009166718, -0.21888405084609985, 0.0693419799208641, -0.00521318893879652, 0.0497366227209568, -0.038061536848545074, 0.14337269961833954, -0.062053654342889786, 0.032333552837371826, 0.05381348356604576, -0.2846229672431946, -0.037911489605903625, -0.1046057939529419, 0.01937057264149189, 0.23574040830135345, -0.14248482882976532, -0.4006606936454773, -0.03164883330464363, -0.03546241298317909, -0.03704458847641945, 0.02445320039987564, -0.002728006336838007, 0.3200615644454956, -0.17129747569561005, -0.053037989884614944, -0.11930326372385025, 0.13534869253635406, 0.05664746090769768, 0.07061605900526047, -0.04350559785962105, 0.046126749366521835, 0.230006605386734, -0.031222175806760788, -0.07922183722257614, 0.27238497138023376, -0.08887332677841187, -0.03943709656596184, 0.09328125417232513, -0.1531476527452469, 0.24948206543922424, 0.03361251950263977, 0.036298222839832306, 0.14958900213241577, 0.12673288583755493, -0.10144674777984619, -0.12267483025789261, -0.12573502957820892, -0.06516893953084946, 0.08888401836156845, 0.1584458202123642, 0.02157488651573658, 0.08597919344902039, 0.2398829311132431, 0.3952507972717285, -0.16050131618976593, 0.1283932328224182, -0.1215340718626976, 0.17026428878307343, -0.17177067697048187, 0.14097604155540466, 0.06868771463632584, -0.27267003059387207, 0.19444625079631805, -0.1345171183347702, 0.13349050283432007, -0.07066477090120316, 0.07270539551973343, -0.29661282896995544, -0.03619241341948509, -0.16299396753311157, 0.3360542356967926, -0.12991377711296082, 0.11765571683645248, -0.02641219273209572, -0.009890657849609852, -0.16380301117897034, 0.020173100754618645, -0.046332407742738724, -0.05437846854329109, -0.062325619161129, 0.15444739162921906, -0.12136417627334595, 0.06204152852296829, -0.24216437339782715, -0.07934741675853729, 0.1273355334997177, -0.1984086036682129, 0.12052237242460251, 0.24577583372592926, 0.1223030835390091, -0.06157184764742851, 0.09535062313079834, 0.1402973085641861, 0.41418519616127014, 0.24380266666412354, -0.3122720718383789, -0.12802369892597198, -0.18168865144252777, 0.0313723050057888, -0.01780998334288597, 0.049156464636325836, -0.09611288458108902, 0.0033313946332782507, -0.1335422843694687, -0.07473917305469513, -0.06620731949806213, 0.025562169030308723, -0.18002106249332428, -0.08609083294868469, 0.08877625316381454, -0.13955186307430267, -0.2729624807834625, -0.19179576635360718, 0.018367329612374306, 0.2613085210323334, 0.22746413946151733, -0.11741941422224045, -0.12117010354995728, -0.1477888822555542, 0.0823037177324295, 0.055357176810503006, 0.177616685628891, 0.04730547219514847, 0.058414001017808914, -0.11221326142549515, 0.07915449142456055, 0.15270934998989105, -0.03991688787937164, -0.14804165065288544, 0.26228561997413635, -0.10627255588769913, 0.027218567207455635, -0.18704554438591003, -0.12936384975910187, 0.01797107793390751, -0.07988221943378448, -0.02818755805492401, -0.09325925260782242, 0.2000533640384674, -0.08812928944826126, -0.24060185253620148, 0.9574966430664062, -0.2298281341791153, -0.2521288990974426, -0.7847458124160767, -0.10537146776914597, 0.32583779096603394, -0.38784581422805786, -0.5554304122924805, 0.21814021468162537, 0.17938780784606934, -0.25323745608329773, -0.02916651964187622, -0.2834043502807617, 0.1365276426076889, 0.23056653141975403, -0.2853340208530426, 0.030389193445444107, -0.07915205508470535, -0.019632581621408463, -0.2046659141778946, 0.24748671054840088, -0.09622998535633087, 0.3888944387435913, 0.007652548141777515, 0.16840116679668427, -0.13290400803089142, 0.03809594735503197, -0.5174880027770996, 0.1046702042222023, 0.04550844430923462, 0.3475811779499054, -0.515353262424469, -0.2512752413749695, 0.23023566603660583, -0.24030108749866486, -0.07430936396121979, 0.29429891705513, -0.10958902537822723, -0.31202611327171326, 0.1801481693983078, -0.2754420340061188, -0.10579533129930496, -0.3952789306640625, -0.4556879997253418, 0.13636812567710876, 0.07603716850280762, -0.0278936680406332, -0.08446969091892242, -0.06358592212200165, 0.1474975347518921, 0.06343211978673935, 0.15523044764995575, -0.13741907477378845, 0.15309149026870728, -0.07401492446660995, -0.25976887345314026, 0.07147007435560226, 0.018149713054299355, -0.2010648399591446, 0.11787883937358856, -0.19090718030929565, -0.027870574966073036, 0.13005892932415009, -0.14407412707805634, 0.16050739586353302, -0.022875556722283363, 0.08149227499961853, -0.09011096507310867, 0.09251092374324799, -0.1207619309425354, 0.02863886021077633, -0.006999894976615906, 0.10556694120168686, -0.022589683532714844, -0.1278039664030075, 0.03011706843972206, 0.12665922939777374, -0.031337376683950424, 0.038463618606328964, -0.31792792677879333, -0.21143250167369843, 0.15586808323860168, 0.09494707733392715, -0.05356113612651825, 0.1762334555387497, -0.05801572650671005, -0.15737327933311462, 0.006291067227721214, 0.057390131056308746, -0.11796431243419647, 0.0632176548242569, 0.1282341629266739, -0.050243478268384933, -0.08182390034198761, 0.02988736890256405, 0.042560964822769165, -0.1880549192428589, 0.13903413712978363, 0.29687607288360596, 0.17016416788101196, 0.024321764707565308, -0.1454893797636032, 0.10962869971990585, -0.029805906116962433, 0.03169945627450943, -0.013560205698013306, 0.0030140718445181847, 0.054910533130168915, 0.08190379291772842, 0.049080610275268555, -0.003537159413099289, 0.04117801785469055, 0.13729308545589447, -0.16964861750602722, -0.11905556917190552, 0.06985627859830856, -0.0029032353777438402, 0.09781903773546219, 0.1561344563961029, 0.05697903037071228, 0.0014838164206594229, -0.11144702881574631, 0.08229231834411621, -0.13862253725528717, 0.10076450556516647, -0.08687907457351685, -0.39121633768081665, 0.06435912847518921, 0.19369730353355408, -0.09064456075429916, -0.12098751962184906, 0.08241327106952667, -0.0002255726867588237, -0.13441595435142517, 0.05526810884475708, -0.1645352989435196, 0.01888323575258255, 0.033651113510131836, 0.1523900032043457, 0.005869436543434858, -0.1766965240240097, 0.044074974954128265, -0.20654456317424774, 0.23714423179626465, 0.4796760380268097, -0.11810118705034256, 0.11944699287414551, -0.10485437512397766, -0.0776807963848114, 0.2645409107208252, -0.18134339153766632, -0.15293912589550018, 0.06870462745428085, 0.28262606263160706, -0.12241841852664948, -0.26922693848609924, -0.2142976075410843, -0.20251086354255676, -0.004494385328143835, 0.11619698256254196, 0.0590333566069603, 0.1575113981962204, 0.0615231953561306, -0.13220897316932678, -0.17880986630916595, -0.06854340434074402, 0.05660770833492279, 0.16183443367481232, -0.02877412550151348, 0.09831766784191132, 0.009101747535169125, -0.04831602796912193, 0.03476778417825699, 0.10410607606172562, 0.22356125712394714, -0.13710477948188782, -0.4055722951889038, -0.02423976920545101, 0.04925084114074707, -0.128165602684021, 0.14186570048332214, 0.02765837498009205, 0.059164389967918396, 0.09667804837226868, 0.04431157931685448, -0.015009071677923203, -0.11303284019231796, 0.10111381858587265, 0.11516611278057098, -0.06749939173460007, 0.0541132353246212, -0.06086454540491104, -0.36415448784828186, 0.004070754628628492, 0.017887447029352188, -0.009951299987733364, -0.0030995833221822977, -0.13361410796642303, -0.1545838564634323, -0.0941697210073471, 0.06551744043827057, -0.17977407574653625, -0.17983153462409973, -0.06517090648412704, -0.1129159927368164, -0.04794768616557121, -0.022477226331830025, -0.10884412378072739, -0.059990257024765015, -0.2010534256696701, 0.14086396992206573, -0.010699608363211155, 0.012106571346521378, 0.06930354237556458, 0.1591881513595581, 0.12905681133270264, -0.06562716513872147, -0.21219970285892487, 0.08315354585647583, -0.16726085543632507, 0.038672786206007004, 0.05085548758506775, 0.1796068698167801, -0.24137750267982483, 0.17982640862464905, 0.12677966058254242, -0.04332214966416359, 0.02900431863963604, 0.09781163930892944, 0.0273102056235075, 0.002376154763624072, 0.18808260560035706, -0.1527085155248642, 0.17471003532409668, -0.10231616348028183, -0.3118569850921631, -0.195083886384964, 0.14198632538318634, 0.013114109635353088, 0.1185210570693016, -0.17247910797595978, 0.07408035546541214, -0.20085692405700684, 0.08250981569290161, 0.0883735716342926, 0.08684108406305313, 0.1774115413427353, -0.001958549953997135, -0.009100599214434624, -0.04236834496259689, 0.060106564313173294, -0.013278724625706673, 0.09744734317064285, 0.12595920264720917, -0.09960591793060303, 0.1921364814043045, 0.007130292244255543, -0.19493365287780762, -0.09291784465312958, 0.1751861423254013, -0.11957123875617981, 0.16785554587841034, 0.030027277767658234, -0.004565032664686441, -0.23049591481685638, -0.04363356903195381, -0.09019661694765091, -0.14682888984680176, 0.08782675117254257, 0.0021884378511458635, 0.08218955993652344, 0.05212215334177017, 0.13698634505271912, -0.0954439640045166, 0.0017298429738730192, 0.1445307433605194, 0.01150562148541212, -0.026349641382694244, 0.04842657223343849, 0.029264602810144424, -0.07659736275672913, 0.1948423534631729, -0.008287876844406128, -0.14229249954223633, -0.04428158327937126, 0.14458231627941132, -0.09393089264631271, 0.004614090546965599, 0.021637504920363426, -0.04310709610581398, -0.04585385322570801, 0.12447259575128555, 0.09282688051462173, 0.14036820828914642, 0.004502739291638136, 0.17236383259296417, 0.23337295651435852, -0.10473787039518356, 0.0643419474363327, 0.17962783575057983, 0.18975108861923218, 0.038873907178640366, 0.11234474927186966, 0.18030278384685516, 0.0615147165954113, -0.026941223070025444, -0.0572674460709095, 0.022572705522179604, 0.24893952906131744, 0.0013230241602286696, -0.041189707815647125, -0.4209216833114624, -0.2101140171289444, -0.09614701569080353, 0.0499076209962368, 0.10065317153930664, 0.013180231675505638, 0.10307014733552933, -0.07100246846675873, -0.005547026637941599, 0.3792015016078949, -0.06314501911401749, -0.10010126978158951, -0.12907470762729645, -0.11497440934181213, -0.09650573879480362, -0.10099896043539047, -0.1840505748987198, -0.153906911611557, 0.10445085167884827, -0.09075257182121277, -0.20085424184799194, 0.10889266431331635, -0.07841972261667252, -0.10315809398889542, -0.16680499911308289, -0.04848267510533333, 0.09205180406570435, -0.1479966640472412, 0.0280549768358469, -0.17876167595386505, 0.1765260249376297, -0.034794729202985764, 0.10085316747426987, 0.0988612174987793, -0.12547704577445984, -0.04290345311164856, 0.0596759133040905, -0.03780310973525047, -0.14709429442882538, 0.02517271786928177, 0.23827770352363586, -0.165129616856575, 0.05710413306951523, -0.057449452579021454, -0.2822165787220001, 0.0316312275826931, -0.04161680117249489, -0.06075862795114517, 0.029155492782592773, -0.05022484436631203, 0.2435213178396225, 0.08138018846511841, 0.025876911357045174, -0.07962056249380112, 0.08633451163768768, -0.05995922535657883, -0.09561529010534286, -0.11625298112630844, 0.06791746616363525, -0.01765642873942852, -0.1785680502653122, -0.21628494560718536, 0.139342799782753, -0.1301974505186081, -0.0756741613149643, 0.2415725290775299, -0.096213199198246, -0.024510443210601807, 0.13213090598583221, 0.012812438420951366, -0.005642773117870092, 0.1685636043548584, 0.014397474005818367, -0.1247132420539856, 0.13496054708957672, 0.3343585431575775, -0.26553788781166077, 0.13652856647968292, -0.06828369945287704, -0.12975892424583435, -0.11857268214225769, -0.1390339434146881, 0.084022156894207, 0.04085366800427437, 0.06002909690141678, -0.04835220053792, 0.233906090259552, -0.049453675746917725, -0.2386539876461029, 0.020862048491835594, 0.0022122582886368036, 0.1719747632741928, 0.14469093084335327, -0.02928411401808262, -0.10344798117876053, 0.231388658285141, -0.04691315069794655, 0.11378923803567886, -0.2381783425807953, -0.02658727392554283, -0.20843560993671417, 0.0671253427863121, 0.06647428870201111, -0.041687335819005966, 0.1056225448846817, -0.03210451081395149, 0.025502920150756836, -0.2660646438598633, -0.09952790290117264, -0.05335626378655434, -0.1756078153848648, 0.05756498500704765, -0.10533114522695541, -0.1332077533006668, 0.0778445303440094, -0.07319246232509613, -0.14218837022781372, -0.2065122425556183, 0.06939078867435455, -0.06097876653075218, 0.01630145125091076, -0.10887478291988373, 0.010565905831754208, 0.12333828210830688, -0.17295219004154205, 0.1137780249118805, 0.06853531301021576, 0.0041738236322999, -0.18606221675872803, 0.06111364811658859, 0.29101231694221497, 0.05971220135688782, -0.12870126962661743, 0.14529317617416382, 0.12198309600353241, -0.06827085465192795, 0.1275271773338318, 0.45422908663749695, 0.4341830909252167, 0.2098214477300644, -0.533222496509552, -0.17513589560985565, 0.11868990212678909, 0.02691010572016239, -0.350675493478775, 0.3591731786727905, 0.1749390810728073, -0.5177364945411682, 0.2882315218448639, -0.38726043701171875, -0.9999913573265076, 0.20633427798748016, -0.3157723546028137, -0.1226847842335701, -0.25106778740882874, 0.2927386462688446, -0.18900486826896667, -0.0029932858888059855, 0.32453927397727966, -0.10917724668979645, -0.06943659484386444, -0.24719193577766418, 0.10073471814393997, -0.07765619456768036, -0.15563856065273285, 0.11673086881637573, -0.07699751853942871, 0.34592899680137634, -0.3412645161151886, -0.14822381734848022, -0.26461783051490784, 0.10061011463403702, -0.210688978433609, 0.04620955511927605, -0.14225982129573822, 0.2816067039966583, -0.09049756079912186, -0.28235021233558655, 0.042960673570632935, -0.184273362159729, 0.15693318843841553, 0.041096124798059464, 0.061133939772844315, 0.19881324470043182, 0.1444779336452484, -0.06389039754867554, 0.26094210147857666, -0.3566707968711853, -0.43969908356666565, 0.0882522389292717, -0.39762404561042786, -0.09251526743173599, -0.023491377010941505, 0.10647925734519958, -0.16873356699943542, -0.06276236474514008, 0.03254221752285957, -0.03466034680604935, 0.41352930665016174, -0.11480748653411865, 0.36853542923927307, -0.1300627589225769, 0.10079798847436905, -0.16245435178279877, 0.13369575142860413, 0.2226574867963791, 0.28395235538482666, 0.19793547689914703, 0.0595000721514225, -0.12028168141841888, -0.14877928793430328, 0.04408819600939751, -0.16834817826747894, 0.17594100534915924, 0.14539507031440735, 0.1460602730512619, -0.27294865250587463, 0.17657612264156342, -0.179208904504776, 0.03293780982494354, 0.11641623824834824, 0.027188632637262344, -0.13399505615234375, 0.0721440538764, -0.19004875421524048, 0.2662475109100342, 0.3179885149002075, 0.06268943846225739, 0.09372161328792572, -0.12401474267244339, -0.18182465434074402, -0.18012502789497375, -0.27155739068984985, -0.09447118639945984, 0.07397837936878204, 0.24638234078884125, 0.2949475646018982, -0.2537071704864502, 0.24544890224933624, 0.061549097299575806, 0.1343967616558075, 0.20252901315689087, 0.25492677092552185, -0.20351839065551758, 0.36018356680870056, 0.027786877006292343, -0.11243650317192078, -0.28061461448669434, 0.12017396837472916, -0.043671656399965286, -0.3386298716068268, -0.01831379532814026, -0.02370567061007023, -0.12225659191608429, -0.333204984664917, 0.3121464252471924, 0.16523779928684235, -0.2115926742553711, 0.12251991033554077, -0.07994294911623001, 0.011859209276735783, 0.16281792521476746, -0.07122696191072464, 0.11738928407430649, -0.1597718894481659, -0.3651147782802582, 0.5372937917709351, -0.42489200830459595, -0.18156160414218903, 0.3612076938152313, -0.35063594579696655, -0.2149023562669754, -0.14761196076869965, -0.03563171997666359, -0.17698092758655548, 0.11778585612773895, -0.029993364587426186, -0.29205623269081116, 0.2679414749145508, 0.19410422444343567, -0.11941572278738022, -0.27758145332336426, 0.058962371200323105, -0.10654273629188538, -0.15828421711921692, 0.15263749659061432, -0.04592510685324669, -0.0745820477604866, -0.18088601529598236, -0.1863286793231964, -0.07832003384828568, 0.04099801182746887, -0.17652659118175507, 0.19356784224510193, 0.3280879259109497, -0.016787704080343246, 0.08708838373422623, 0.0926678255200386, 0.18494102358818054, 0.22596918046474457, 0.15486939251422882, -0.2735106348991394, 0.22198307514190674, -0.23343613743782043, 0.20234321057796478, -0.1347021460533142, -0.016335835680365562, -0.005347867496311665, -0.19960065186023712, 0.3128115236759186, -0.4179178774356842, 0.17984960973262787, 0.045460302382707596, -0.01577630639076233, 0.2961086630821228, -0.40989068150520325, -0.2878670394420624, -0.10364945232868195, -0.0013612548355013132, 0.06223495304584503, -0.21778106689453125, 0.35229480266571045, -0.093986876308918, -0.22449514269828796, 0.21094262599945068, -0.23792274296283722, 0.2389794886112213, 0.08087751269340515, 0.04959699511528015, 0.04690532013773918, 0.21317847073078156, -0.3413480222225189, -0.3132278025150299, -0.018317507579922676, -0.4378018379211426, 0.057989947497844696, -0.038814298808574677, -0.12786629796028137, -0.013359447941184044, 0.26899638772010803, 0.3094807267189026, -0.218946173787117, 0.46003830432891846, -0.2976457476615906, 0.2383694350719452, 0.2592128813266754, 0.12582238018512726, 0.5787504315376282, 0.3980013132095337, -0.3587436378002167, 0.31458666920661926, -0.13180427253246307, 0.3587668836116791, 0.09880807995796204, 0.32277658581733704, -0.36975520849227905, -0.2875686287879944, -0.04459124803543091, 0.07025691866874695, 0.05894194543361664, -0.35263729095458984, -0.08109989017248154, 0.14427226781845093, 0.05401903763413429, 0.3067532181739807, 0.05578670650720596, 0.20470257103443146, -0.1163160502910614, 0.0331319160759449, 0.027734842151403427, 0.227031871676445, 0.1392795741558075, -0.21409565210342407, -0.2198931723833084, -0.30737659335136414, -0.08913279324769974, 0.046001188457012177, 0.18241992592811584, -0.348781943321228, 0.27153292298316956, 0.10994930565357208, -0.17605066299438477, -0.2660104036331177, 0.31118521094322205, 0.1276797652244568, -0.24782195687294006, 0.18606214225292206, -0.2716732919216156, 0.008169555105268955, 0.2777741849422455, -0.036419983953237534, -0.11469445377588272, 0.13292793929576874, -0.0741303488612175, 0.3294951915740967, -0.37115779519081116, -0.16676346957683563, -0.15757079422473907, -0.14284992218017578, 0.13632775843143463, -0.25373637676239014, -0.16903308033943176, -0.037323176860809326, -0.086081862449646, 0.11258207261562347, 0.0009521869360469282, 0.16019023954868317, -0.037224169820547104, 0.2170378863811493, -0.10220041126012802, 0.06799324601888657, -0.07592808455228806, 0.0069525158032774925, 0.00832846388220787, 0.001473713549785316, 0.05353361740708351, -0.005120438523590565, -0.18847915530204773, 0.09489694982767105, 0.0220317579805851, -0.06576881557703018, 0.06724929809570312, -0.11050894111394882, -0.07123441994190216, 0.006888227537274361, -0.047542039304971695, -0.2570062577724457, 0.050817906856536865, -0.5282248854637146, 0.0852723941206932, 0.1384398639202118, 0.10813013464212418, 0.33335909247398376, -0.14854851365089417, 0.2883347272872925, -0.042722344398498535, -0.010631697252392769, -0.16262643039226532, 0.002750065177679062, 0.1727794110774994, -0.12788598239421844, -0.11725977808237076, 0.2576815187931061, -0.2543238401412964, 0.0792323425412178, 0.14907702803611755, -0.023938573896884918, 0.4338154196739197, 0.4146401584148407, 0.24620361626148224, -0.00366207049228251, -0.08500388264656067, -0.09265358000993729, -0.4323961138725281, 0.02271335944533348, 0.4892362654209137, 0.38075578212738037, -0.17783498764038086, 0.13208924233913422, 0.3308541774749756, -0.20625095069408417, 0.3262555003166199, -0.5159130096435547, -0.9030845761299133, 0.36610090732574463, 0.06918539106845856, -0.29268088936805725, 0.016052786260843277, -0.0647965520620346, 0.16007350385189056, 0.06358341872692108, 0.31178125739097595, -0.08802804350852966, -0.04252013936638832, -0.12821640074253082, 0.04878425598144531, 0.06871502846479416, -0.02287953346967697, -0.09739434719085693, -0.18304938077926636, -0.0009199549094773829, -0.12935522198677063, -0.14430786669254303, 0.12709330022335052, 0.032642584294080734, 0.19122877717018127, -0.056067053228616714, -0.08258580416440964, 0.18362927436828613, -0.0628681406378746, -0.10208765417337418, -0.1637602001428604, 0.2435389757156372, 0.0383230596780777, -0.09859462082386017, -0.2077968269586563, -0.1315179318189621, -0.1715477555990219, 0.1082497164607048, 0.13480381667613983, 0.07578396797180176, 0.08462865650653839, 0.08914002031087875, -0.015163359232246876, -0.12641257047653198, 0.06071171164512634, -0.26472896337509155, -0.06657501310110092, -0.12007716298103333, 0.10537674278020859, -0.21810707449913025, 0.19900566339492798, -0.06192092224955559, -0.07209349423646927, 0.11329243332147598, 0.23826970160007477, -0.006030662916600704, -0.19247354567050934, -0.1379537433385849, -0.0627775639295578, -0.027145015075802803, -0.06871983408927917, -0.015406643971800804, 0.059965699911117554, -0.009341726079583168, 0.09716666489839554, 0.15775425732135773, -0.13210076093673706, -0.22742021083831787, 0.06070956587791443, 0.025830918923020363, 0.07484158873558044, -0.052383940666913986, -0.1731160432100296, -0.12109125405550003, -0.08834320306777954, -0.11100126057863235, 0.15121087431907654, 0.14258834719657898, -0.008626772090792656, 0.02309553138911724, -0.09466823190450668, -0.22443607449531555, 0.04941055551171303, -0.015427685342729092, 0.20087464153766632, -0.17103661596775055, -0.1332225203514099, 0.06820915639400482, 0.03553012013435364, 0.05657968297600746, 0.16444773972034454, 0.0270066075026989, 0.030983727425336838, -0.09821800142526627, 0.10035084933042526, 0.13940764963626862, -0.03790150582790375, 0.33510541915893555, 0.006869431119412184, 0.2244490385055542, 0.05005639046430588, 0.03327220305800438, -0.05295361950993538, -0.021413680166006088, 0.14036427438259125, -0.014570912346243858, -0.13643822073936462, 0.07232920080423355, 0.043753135949373245, -0.0793134868144989, 0.09009911119937897, -0.014849984087049961, -0.036273445934057236, 0.01563849300146103, 0.06840487569570541, -0.0484013669192791, 0.11622250825166702, 0.14533479511737823, -0.13512787222862244, 0.06321018934249878, -0.10264163464307785, 0.05850590392947197, 0.08816924691200256, -0.18060392141342163, 0.0416756197810173, 0.20562998950481415, 0.0653918907046318, -0.19943377375602722, 0.12561488151550293, -0.012422312051057816, 0.19624178111553192, 0.1029667928814888, 0.17256370186805725, -0.0859169214963913, 0.012111940421164036, -0.13662490248680115, 0.18984468281269073, -0.021054619923233986, 0.055410921573638916, 0.09795281291007996, -0.004289096221327782, 0.006654076743870974, -0.19005745649337769, 0.0642690435051918, 0.008368915878236294, 0.13768154382705688, -0.05875237658619881, 0.0915403962135315, 0.07783715426921844, -0.23553791642189026, 0.05441032350063324, -0.1501861959695816, 0.1986446976661682, 0.1595497727394104, -0.04843303561210632, 0.08928551524877548, 0.3042057752609253, 0.18187257647514343, -0.08871952444314957, 0.13031037151813507, 0.12950074672698975, -0.016743851825594902, -0.003645372809842229, 0.14907297492027283, 0.03267105296254158, 0.011314771138131618, 0.16987058520317078, -0.05098854750394821, 0.08422790467739105, -0.11123035103082657, 0.24415180087089539, 0.18749292194843292, -0.11981698125600815, -0.04842923581600189, 0.2800079584121704, -0.10358098894357681, -0.03895004838705063, -0.08229660242795944, 0.43819960951805115, -0.07350992411375046, 0.031800102442502975, 0.08893676102161407, 0.10585397481918335, 0.015555492602288723, -0.12758371233940125, 0.056141432374715805, -0.07483325153589249, 0.2481461614370346, -0.05352332815527916, -0.0995163694024086, 0.0815545842051506, -0.260582834482193, -0.04399235174059868, -0.03687576204538345, 0.15773707628250122, -0.022536655887961388, 0.037229299545288086, -0.1126876026391983, 0.10426399856805801, -0.2158794105052948, 0.1343005746603012, -0.013258496299386024, 0.19736430048942566, 0.23724529147148132, -0.21081915497779846, 0.18130932748317719, -0.19155070185661316, 0.0243137888610363, -0.012363171204924583, 0.027054322883486748, 0.0977206900715828, -0.148371621966362, 0.1294371485710144, -0.08147077262401581, -0.09056548029184341, -0.10756151378154755, -0.097084641456604, -0.2159067839384079, 0.007495814468711615, -0.029942123219370842, -0.15558113157749176, 0.061916206032037735, 0.23960527777671814, -0.29762035608291626, 0.024398377165198326, -0.03557415306568146, -0.16095475852489471, -0.053969547152519226, -0.0721370056271553, -0.006406483240425587, 0.008553468622267246, 0.013125546276569366, 0.06943318992853165, -0.23445969820022583, -0.10447405278682709, -0.07461348921060562, 0.11512035876512527, -0.375095009803772, 0.24154235422611237, 0.10476744920015335, 0.08861483633518219, 0.3032563328742981, -0.2833715081214905, -0.10768021643161774, 0.03889581933617592, -0.05705336853861809, 0.021919729188084602, 0.17443569004535675, -0.11896458268165588, 0.03653309866786003, 0.19378653168678284, 0.14134113490581512, -0.23141933977603912, -0.2751855254173279, 0.06655633449554443, 0.058034371584653854, -0.20045042037963867, -0.23586910963058472, -0.13770344853401184, -0.17155998945236206, -0.21161726117134094, -0.14726024866104126, -0.1299028843641281, 0.1282493770122528, 0.22837314009666443, 0.15162163972854614, -0.24722112715244293, 0.25110071897506714, 0.10936844348907471, 0.0147560378536582, -0.08767342567443848, 0.011763114482164383, -0.028113938868045807, -0.11154551804065704, -0.35971376299858093, 