{"version":"0.5.4","metadata":{"date":{"year":2025,"month":4,"day":22,"hour":9,"minute":57,"second":20},"loudness":-41.071807861328125,"gain":0.16359970663479245,"name":"LadyBugSpringReverb","modeled_by":"ryanpatrickdaly","gear_type":"pedal","gear_make":"tz-make","gear_model":"tz-model","tone_type":"overdrive","input_level_dbu":null,"output_level_dbu":null,"training":{"settings":{"ignore_checks":false},"data":{"latency":{"manual":null,"calibration":{"algorithm_version":1,"delays":[39],"safety_factor":1,"recommended":38,"warnings":{"matches_lookahead":false,"disagreement_too_high":false}}},"checks":{"version":3,"passed":true}},"validation_esr":0.6151306389881641}},"architecture":"WaveNet","config":{"layers":[{"input_size":1,"condition_size":1,"head_size":8,"channels":16,"kernel_size":3,"dilations":[1,2,4,8,16,32,64,128,256,512],"activation":"Tanh","gated":false,"head_bias":false},{"input_size":16,"condition_size":1,"head_size":1,"channels":8,"kernel_size":3,"dilations":[1,2,4,8,16,32,64,128,256,512],"activation":"Tanh","gated":false,"head_bias":true}],"head":null,"head_scale":0.02},"weights":[-0.00013094942551106215,0.472750186920166,-0.6832132339477539,-0.6484678387641907,-0.17253029346466064,0.18699558079242706,-0.0009388700709678233,0.501671314239502,-0.014972565695643425,0.2385769486427307,-0.20297814905643463,-0.07572636753320694,-0.8046115040779114,-0.5243388414382935,-0.24039463698863983,0.000821027671918273,-0.017355330288410187,0.011218155734241009,-0.03431040048599243,-0.09316223114728928,0.03166169300675392,0.047186676412820816,-0.004967883694916964,0.1325564831495285,0.044428251683712006,0.04407750070095062,0.15277914702892303,-0.06657273322343826,-0.0721515566110611,-0.012275380082428455,0.008937399834394455,0.10704286396503448,-0.13427571952342987,-0.11594944447278976,-0.10332338511943817,-0.11650487035512924,-0.07325481623411179,0.09762999415397644,0.03782292827963829,0.0039992379024624825,0.05586440488696098,-0.07894987612962723,0.09229753911495209,-0.1700136363506317,-0.1280290186405182,-0.14477263391017914,0.10421285033226013,0.11783641576766968,-0.007411464117467403,0.028990693390369415,0.10288354009389877,0.21317094564437866,0.08740200102329254,0.03745374456048012,0.17074869573116302,-0.05384543538093567,0.05063556507229805,-0.045025452971458435,-0.0761035606265068,-0.053484730422496796,0.13676927983760834,0.08003421127796173,-0.11984772980213165,-0.00005286239684210159,0.06752757728099823,-0.014531980268657207,0.011678745970129967,-0.02159888669848442,0.03087073564529419,0.19594132900238037,-0.06260373443365097,0.011882839724421501,-0.0063706934452056885,0.1694895327091217,0.18821194767951965,0.06560559570789337,0.08017056435346603,-0.058921415358781815,-0.039172153919935226,-0.129633828997612,-0.2103612720966339,0.19566449522972107,0.12314645946025848,-0.07649986445903778,-0.07227984815835953,-0.07555626332759857,-0.09142167121171951,-0.00913264136761427,0.12921462953090668,-0.04049769788980484,0.015639426186680794,0.01946885511279106,0.04729999601840973,0.10827089846134186,-0.1000547930598259,-0.01826222613453865,0.003418148262426257,0.0894051343202591,-0.057466842234134674,-0.12842294573783875,0.19080378115177155,0.1556900292634964,-0.12070000171661377,0.014290816150605679,-0.07305459678173065,-0.06100676581263542,-0.05706248804926872,-0.045305851846933365,-0.07062412053346634,-0.031324535608291626,-0.10893865674734116,0.1426744908094406,-0.04036322981119156,0.13272888958454132,0.02504703588783741,-0.10330471396446228,0.006516745314002037,-0.061808597296476364,0.00802144780755043,-0.01043732836842537,0.13032908737659454,-0.0073203095234930515,-0.11063117533922195,0.13887886703014374,-0.1410403996706009,-0.1311180740594864,0.026218604296445847,-0.07018038630485535,-0.0026619762647897005,-0.1986989974975586,-0.007763911969959736,0.02703389711678028,-0.056372109800577164,0.00520532950758934,0.14551953971385956,-0.0834285318851471,-0.02169167995452881,0.00669418228790164,0.034216076135635376,0.11278311163187027,0.17632238566875458,0.02084750309586525,0.1396515965461731,-0.0561862476170063,-0.05311352759599686,-0.08429331332445145,0.08640331774950027,0.04507529363036156,-0.09046805649995804,-0.15081967413425446,-0.06528067588806152,-0.1383560597896576,-0.0675201565027237,0.14826388657093048,0.06548488885164261,-0.17885982990264893,0.15302743017673492,-0.16374072432518005,0.02722487412393093,-0.08464377373456955,-0.07081285119056702,-0.00943329744040966,-0.0954051986336708,-0.20715895295143127,-0.07294481992721558,0.13454638421535492,0.011975081637501717,0.10619088262319565,-0.2663361728191376,0.06938796490430832,0.17599304020404816,-0.19316443800926208,0.2068701535463333,0.11045483499765396,-0.2669579088687897,0.015425258316099644,-0.07768060266971588,0.07188393175601959,0.18504954874515533,-0.09879693388938904,-0.07038303464651108,-0.11211080104112625,0.04615623503923416,0.17230316996574402,0.15767061710357666,0.06965861469507217,-0.08923923969268799,-0.11579936742782593,-0.16514714062213898,0.2138928771018982,0.18936707079410553,0.15821902453899384,-0.238484188914299,0.09900230169296265,-0.06684935837984085,-0.18552976846694946,-0.0032652136869728565,0.09800225496292114,-0.21888704597949982,0.08113948255777359,0.056160252541303635,-0.03858409821987152,-0.028115510940551758,-0.05098728463053703,-0.2084496170282364,0.021746084094047546,-0.09395330399274826,0.22601592540740967,0.08876845240592957,0.06324052065610886,-0.05688214674592018,0.0510309673845768,0.16001223027706146,-0.039240602403879166,-0.07410818338394165,-0.12857943773269653,-0.09849520027637482,-0.15008650720119476,-0.02709944173693657,-0.10437604784965515,-0.08059564977884293,-0.004623187240213156,0.06697440147399902,0.06195756420493126,0.02777315489947796,0.04545348510146141,-0.10237707197666168,-0.13260167837142944,0.027944110333919525,0.053583547472953796,0.14927347004413605,0.10781542211771011,-0.07105641067028046,0.03732525557279587,0.08507069200277328,-0.013877888210117817,0.20213523507118225,-0.10713218152523041,-0.12184073776006699,-0.1091834157705307,0.06994250416755676,0.026841893792152405,-0.16548839211463928,0.005052092485129833,-0.006577594205737114,-0.28132927417755127,0.11138273030519485,-0.1953612118959427,-0.14135493338108063,-0.01399189606308937,-0.14958570897579193,-0.12417823821306229,0.13166731595993042,-0.006621960084885359,0.024071866646409035,-0.08880645781755447,-0.08414135873317719,0.10630461573600769,-0.13663828372955322,-0.02556551620364189,0.10340598970651627,0.027266180142760277,0.013049669563770294,-0.08131425082683563,0.11703204363584518,-0.11370987445116043,-0.22863131761550903,0.10443247109651566,0.055843785405159,-0.14503182470798492,-0.009530571289360523,-0.015354606322944164,0.06446663290262222,-0.04473132640123367,-0.09707733243703842,-0.26894864439964294,0.23335133492946625,-0.027360767126083374,0.17305822670459747,-0.01684122532606125,-0.08903981000185013,-0.21512967348098755,-0.09444551914930344,0.18620562553405762,0.20608147978782654,0.06555550545454025,-0.10248170047998428,-0.15562108159065247,0.04035470634698868,-0.08492506295442581,-0.24467907845973969,0.09188049286603928,-0.02502649836242199,-0.18863657116889954,0.024127379059791565,-0.15662018954753876,-0.08776193112134933,-0.048946939408779144,-0.007794157601892948,-0.23429231345653534,-0.010357921943068504,0.07948879897594452,0.06440121680498123,-0.04238131642341614,0.06710632145404816,-0.045491959899663925,-0.03416696935892105,0.09582766145467758,0.08039874583482742,-0.12010090053081512,-0.15074454247951508,-0.04460678622126579,0.1512315720319748,-0.08690420538187027,0.03384116291999817,0.19590213894844055,-0.09578198939561844,-0.026284217834472656,0.14205831289291382,0.037837397307157516,0.038690466433763504,-0.08098406344652176,-0.1383131891489029,0.014078105799853802,0.11535175144672394,0.1583230197429657,0.10920695960521698,-0.07582248747348785,0.05207659676671028,-0.08030876517295837,-0.0812908485531807,-0.0854158028960228,0.17058470845222473,-0.01222426537424326,-0.12199240922927856,0.03411771357059479,0.20437799394130707,0.12153362482786179,0.11298824101686478,0.18096496164798737,-0.06787639856338501,-0.07122935354709625,0.21993441879749298,0.047847680747509,-0.10748057067394257,0.2260826826095581,0.03909435495734215,0.058944959193468094,-0.003835428273305297,0.0384930782020092,-0.0021993517875671387,0.0741649866104126,0.03585468605160713,0.08110172301530838,-0.00590420002117753,0.17112675309181213,0.12872931361198425,0.08753059804439545,-0.20180171728134155,-0.14982673525810242,-0.10625655949115753,-0.246392622590065,-0.2952823042869568,0.10332198441028595,-0.018908964470028877,-0.04019761458039284,0.11438293009996414,-0.0423118956387043,0.09304824471473694,-0.027990637347102165,-0.1335880160331726,-0.026642726734280586,-0.04867856204509735,0.03199368715286255,0.041364144533872604,-0.07191994041204453,-0.00730277132242918,0.006170172709971666,0.08501661568880081,0.22105012834072113,0.30260682106018066,-0.020092174410820007,-0.02405441366136074,-0.059281375259160995,0.04996764287352562,0.03307206928730011,-0.07217372208833694,0.07261507213115692,-0.159743070602417,-0.10692788660526276,-0.0005276082083582878,-0.13990351557731628,-0.2604474425315857,-0.09325365722179413,-0.21367719769477844,-0.07881497591733932,0.09365496784448624,0.06084705889225006,0.0439436174929142,0.07234156876802444,0.06618352234363556,-0.03281199187040329,-0.04933524131774902,0.21666698157787323,0.10154812037944794,-0.18859446048736572,0.06120269000530243,0.06263186037540436,0.031784892082214355,0.0024468174669891596,-0.12684409320354462,0.06268322467803955,0.04791936278343201,-0.039646558463573456,-0.02438437193632126,0.017467297613620758,0.018039565533399582,-0.11607044190168381,-0.0159421619027853,0.09528800845146179,0.10980888456106186,-0.010169969871640205,0.05629785731434822,-0.012193722650408745,-0.024377239868044853,-0.150751993060112,0.050298839807510376,-0.025320904329419136,-0.022159820422530174,-0.027564773336052895,-0.17195706069469452,-0.002814952516928315,0.2068917602300644,-0.07514505088329315,-0.1287349909543991,0.020220613107085228,-0.05184556171298027,-0.1518935114145279,0.15112313628196716,-0.21101468801498413,-0.18498733639717102,-0.05685952678322792,-0.10810919851064682,0.05150962993502617,-0.05246027559041977,0.1681947112083435,-0.02605433762073517,-0.02237487956881523,0.08870518207550049,-0.038733601570129395,0.043744951486587524,0.0532885417342186,0.14421768486499786,0.05133458599448204,-0.06840633600950241,0.11746721714735031,0.028910387307405472,0.09315168857574463,-0.11924643069505692,-0.01940840482711792,-0.11780086904764175,-0.058138132095336914,0.04659472405910492,-0.13963592052459717,0.051819220185279846,0.05276387929916382,0.018875304609537125,-0.11639517545700073,-0.05601498484611511,-0.07095390558242798,0.06570622324943542,0.12333762645721436,0.08148108422756195,-0.04158356040716171,0.09793965518474579,-0.16291174292564392,-0.11651746928691864,0.04695703089237213,-0.05431482195854187,0.06599368900060654,-0.0771089419722557,-0.05724934861063957,-0.12510450184345245,0.09757719933986664,0.008265262469649315,0.10986989736557007,0.10901922732591629,0.1044035404920578,0.00020287107327021658,-0.02209492214024067,-0.008016038686037064,0.013867085799574852,0.09109971672296524,-0.1024978905916214,0.10859157890081406,-0.04785749316215515,-0.10037428140640259,-0.026775002479553223,0.06315679103136063,0.05526455491781235,-0.14651109278202057,0.15266908705234528,0.14179079234600067,0.10268034785985947,0.06745024025440216,-0.00663016177713871,0.06228417530655861,0.0035968406591564417,0.032511692494153976,0.06432120501995087,-0.09064293652772903,0.030933355912566185,-0.06337303668260574,-0.0012617998290807009,0.06701508909463882,0.07545861601829529,-0.12769699096679688,-0.05865352228283882,0.06425446271896362,0.03679003566503525,0.13421842455863953,-0.0210048109292984,0.0009357748203910887,-0.1780359447002411,-0.09196852892637253,-0.02525741048157215,0.19526179134845734,-0.013594456017017365,-0.05387159809470177,0.005584014113992453,0.1551007330417633,0.09557326138019562,-0.03310081362724304,-0.10350295901298523,-0.161474347114563,0.07071058452129364,-0.01900527812540531,-0.14814262092113495,0.017926951870322227,0.044994425028562546,-0.1308433711528778,-0.03748408332467079,-0.033668432384729385,-0.0347873754799366,-0.020781848579645157,0.12652462720870972,-0.07886561751365662,-0.02994220331311226,-0.09349992126226425,0.179859921336174,-0.10273799300193787,-0.09465789794921875,0.10272997617721558,-0.056962184607982635,0.068843312561512,-0.052575305104255676,0.0005647256039083004,0.011818830855190754,0.04126058146357536,-0.03238661214709282,-0.18857860565185547,-0.050981953740119934,0.0016262574354186654,0.09702417254447937,-0.13021177053451538,0.09975232928991318,-0.07689513266086578,0.009489595890045166,0.15390871465206146,0.08946163952350616,0.09583517909049988,0.047816306352615356,-0.07977036386728287,-0.057049524039030075,0.027655210345983505,0.17003977298736572,-0.08383306860923767,-0.0839180052280426,0.08559206873178482,0.11955786496400833,-0.005223479587584734,-0.07914910465478897,-0.1688855141401291,0.07396262139081955,0.03178398683667183,-0.11087530106306076,0.0662512481212616,0.09351734817028046,0.07971607893705368,0.05166873335838318,-0.02808888629078865,-0.04910367727279663,-0.12602578103542328,0.1536775678396225,0.06523624807596207,-0.0035048648715019226,-0.21070504188537598,0.13460561633110046,0.19674794375896454,0.22057601809501648,-0.1303386390209198,0.006104401778429747,-0.011285181157290936,0.1289728730916977,-0.001349602360278368,0.01760883443057537,0.06052812933921814,-0.11510670185089111,-0.16535210609436035,0.0020338655449450016,0.0008692956180311739,-0.04360119625926018,0.04791371896862984,-0.12445425987243652,-0.03700406104326248,0.13282692432403564,0.14308862388134003,0.0725235715508461,0.0996941402554512,-0.044228438287973404,-0.14810852706432343,0.1356617957353592,0.08734523504972458,-0.045143838971853256,-0.05519243702292442,-0.03184415027499199,0.19748158752918243,-0.033764008432626724,-0.06510327011346817,0.0774659812450409,0.08802983164787292,0.09858351200819016,0.13351529836654663,0.007169404532760382,0.11560651659965515,0.052740294486284256,-0.07144732773303986,-0.18907786905765533,-0.15056902170181274,0.10458274930715561,-0.05187408626079559,0.053483542054891586,0.010775339789688587,-0.06775122880935669,-0.20145875215530396,0.15973101556301117,-0.014426188543438911,0.2304297685623169,-0.14461307227611542,0.036280423402786255,0.18800289928913116,-0.08704789727926254,0.1866171956062317,0.007767636328935623,-0.15187548100948334,-0.12009194493293762,-0.09681065380573273,0.17256927490234375,-0.06117953360080719,0.12221008539199829,-0.09965161234140396,-0.10218901187181473,-0.0048584649339318275,-0.08470118790864944,0.09755182266235352,0.18628329038619995,-0.025085050612688065,0.035738375037908554,-0.14854703843593597,0.1375798135995865,-0.08050430566072464,0.0973464846611023,-0.06291067600250244,0.12312361598014832,0.13780546188354492,0.09322793781757355,0.055912841111421585,0.10082057863473892,0.07655558735132217,0.033622387796640396,0.23515255749225616,-0.12187682837247849,0.0546674020588398,0.09825693815946579,0.036751486361026764,0.0630941092967987,-0.09041302651166916,-0.08841943740844727,0.07062835246324539,0.02722923830151558,0.03825516626238823,-0.048104893416166306,0.1546284258365631,0.07127097249031067,-0.02257390320301056,-0.19984662532806396,0.17109368741512299,-0.1437070667743683,-0.0304777342826128,0.09197653084993362,-0.11017444729804993,-0.01606862060725689,-0.05812559276819229,0.061865050345659256,-0.01771807111799717,-0.09039822965860367,0.015447624959051609,0.0654689371585846,0.026012413203716278,0.1336868852376938,0.04891460761427879,-0.13689346611499786,-0.1947138011455536,-0.17407748103141785,0.19684840738773346,0.004688124638050795,0.06672507524490356,-0.02537899650633335,0.06701186299324036,0.04975925385951996,0.18759742379188538,-0.15796928107738495,-0.07537044584751129,-0.02137969620525837,-0.12243164330720901,-0.02637781947851181,0.20116324722766876,-0.15512150526046753,0.02249508537352085,-0.0055155446752905846,-0.06611272692680359,0.0505102314054966,0.03735663741827011,0.06021244078874588,-0.04366797208786011,0.04184119403362274,-0.029366014525294304,-0.006205796264111996,0.02421141415834427,-0.09272924810647964,-0.05265246331691742,-0.026963943615555763,0.10174042731523514,-0.10064063966274261,0.10154200345277786,0.1131044551730156,0.032778050750494,-0.04121403396129608,-0.028746038675308228,-0.11699254810810089,-0.0887235477566719,0.017291778698563576,0.171759694814682,0.09085851162672043,-0.015361137688159943,-0.006777826696634293,-0.04361928999423981,0.12125714868307114,0.007047363091260195,-0.13237164914608002,0.020141353830695152,-0.005741015542298555,-0.10589482635259628,0.1437053233385086,0.12121132761240005,-0.13451816141605377,-0.04839375615119934,0.06668858230113983,-0.08420474827289581,-0.055960312485694885,-0.021603258326649666,-0.09785051643848419,0.06784667819738388,0.015532081015408039,0.12246399372816086,-0.10411054641008377,0.07890879362821579,-0.05316461995244026,0.1282084733247757,-0.19975844025611877,-0.09956065565347672,0.10765410959720612,0.08803459256887436,0.0018232660368084908,-0.08685111254453659,-0.10657405853271484,-0.07354512065649033,-0.13111665844917297,0.0294231865555048,0.051582273095846176,-0.0264364555478096,0.001301514101214707,0.099164217710495,0.06439633667469025,-0.04604753106832504,-0.04728015512228012,-0.10232851654291153,-0.04013989865779877,-0.035252295434474945,-0.029655003920197487,0.37369248270988464,-0.3638662099838257,0.7218958139419556,-0.5641891956329346,-0.00828368216753006,0.8357234597206116,0.8882839679718018,-0.5659633278846741,0.0946086123585701,0.09690678119659424,-0.4140945076942444,-0.30658262968063354,0.27495941519737244,-0.6680142879486084,0.09781540930271149,0.3976033329963684,-0.09666498005390167,0.19185972213745117,-0.06542163342237473,0.10665015876293182,0.2460164576768875,-0.08188023418188095,0.08160082250833511,-0.04244352877140045,-0.026516368612647057,-0.018940577283501625,-0.030957471579313278,-0.09192867577075958,0.047535188496112823,0.014297234825789928,0.15190453827381134,-0.07813454419374466,-0.029057729989290237,-0.07620213180780411,-0.2315831184387207,0.11068030446767807,-0.015597611665725708,-0.1430492103099823,-0.1395123153924942,0.0631268247961998,-0.022623620927333832,0.16879983246326447,0.037334270775318146,0.06601348519325256,0.07678788155317307,-0.033836182206869125,0.0922011211514473,0.08878879994153976,0.01990177109837532,0.006695183925330639,0.1082831546664238,0.18076874315738678,-0.05937677249312401,-0.09314001351594925,0.16480474174022675,-0.21953722834587097,0.004696826916188002,-0.1758444458246231,0.12054601311683655,-0.20067749917507172,0.17286580801010132,0.22487148642539978,0.1363067477941513,0.03368057310581207,0.19959045946598053,-0.13526570796966553,-0.024725696071982384,-0.138310968875885,0.07902975380420685,0.09195370227098465,0.045947205275297165,-0.016190990805625916,-0.21343113481998444,0.04427322745323181,-0.052581626921892166,0.017439497634768486,0.1647922545671463,0.21521702408790588,-0.16939952969551086,0.0019085577223449945,-0.15569739043712616,-0.29426783323287964,-0.21432258188724518,0.1450270116329193,0.16716885566711426,0.10460507124662399,0.1508464217185974,-0.11148539930582047,0.08372662961483002,0.2310699224472046,-0.19657620787620544,0.13504581153392792,-0.007552033755928278,0.13680417835712433,-0.10048014670610428,0.06953208148479462,-0.15461385250091553,0.016129393130540848,0.013032970018684864,0.08888239413499832,0.320967435836792,0.20697979629039764,0.13411815464496613,0.1742427945137024,0.13870303332805634,-0.04179704934358597,-0.16795963048934937,-0.07653921097517014,-0.038293786346912384,-0.09160079061985016,0.17170172929763794,0.1186060756444931,0.07887670397758484,0.08460474759340286,0.2697785496711731,0.14440342783927917,-0.22705473005771637,-0.15449358522891998,0.11995980888605118,-0.010258878581225872,0.07589416950941086,-0.2532203793525696,-0.19411079585552216,0.16624310612678528,0.21030431985855103,-0.19060705602169037,0.14008252322673798,-0.1369723528623581,0.2129049301147461,0.1496608406305313,0.20411166548728943,-0.1801229864358902,-0.2646259665489197,0.08707962185144424,0.10731592774391174,0.15400296449661255,0.11788222938776016,-0.2190859466791153,0.24318034946918488,-0.1757034957408905,0.054536934942007065,-0.08746051788330078,-0.0044454303570091724,-0.012034254148602486,-0.06978273391723633,-0.060591086745262146,-0.17052021622657776,-0.20372022688388824,0.16198520362377167,0.048093926161527634,-0.11777714639902115,-0.08091630041599274,-0.192003071308136,-0.11013222485780716,0.10812380909919739,0.07900377362966537,0.014630131423473358,-0.13320226967334747,0.12446871399879456,0.07531855255365372,-0.1725892722606659,0.036103714257478714,0.13175217807292938,-0.19218072295188904,-0.2442958801984787,0.021073900163173676,0.01211589202284813,-0.12035257369279861,0.048778973519802094,0.20366163551807404,0.06499787420034409,0.08482915908098221,0.23139159381389618,0.19278375804424286,-0.08162485808134079,-0.06172174587845802,0.08890435844659805,0.2209758460521698,-0.13149112462997437,0.14114783704280853,-0.16222526133060455,-0.21538494527339935,0.10273690521717072,-0.16667123138904572,0.038451630622148514,-0.16551217436790466,-0.17268912494182587,-0.04975148290395737,-0.0528038814663887,0.12785829603672028,0.012333031743764877,0.21276213228702545,0.03541889414191246,-0.10853244364261627,0.16212597489356995,0.0019750993233174086,0.017251065000891685,-0.0036534240934997797,0.01370067335665226,-0.030154084786772728,-0.004967940039932728,-0.16894055902957916,-0.022587601095438004,-0.2151148021221161,-0.06777224689722061,0.12422722578048706,-0.18115919828414917,-0.14843714237213135,0.10408574342727661,-0.07734198123216629,0.2167256474494934,0.13482120633125305,0.2386096715927124,0.013752314262092113,0.15703974664211273,0.021310660988092422,0.12373209744691849,-0.05184585973620415,-0.19060483574867249,0.16338670253753662,0.25555357336997986,-0.18410634994506836,-0.07816266268491745,0.2882554829120636,0.050893109291791916,-0.21675892174243927,-0.10270443558692932,0.13634157180786133,-0.024417471140623093,0.22525754570960999,0.3023397624492645,-0.014234477654099464,-0.04995245113968849,-0.05801461264491081,-0.017243774607777596,0.0808885470032692,-0.12988398969173431,-0.03826264292001724,-0.2381831854581833,0.17316444218158722,-0.1323087364435196,0.20047928392887115,-0.008996167220175266,-0.11326095461845398,0.13276159763336182,0.14365772902965546,0.22276872396469116,0.09355121850967407,-0.24133063852787018,0.11836318671703339,-0.0826459601521492,-0.10316788405179977,0.16387151181697845,0.15472401678562164,-0.17180240154266357,0.05284925177693367,0.2156437486410141,0.12689656019210815,0.1467909961938858,-0.11110869795084,-0.10829176008701324,0.16989190876483917,0.08166611939668655,0.2305566817522049,-0.09531257301568985,-0.11448143422603607,-0.014774180017411709,-0.19154207408428192,0.09335922449827194,0.18798169493675232,0.014390090480446815,0.02522878162562847,0.12792517244815826,-0.13864994049072266,0.1954575926065445,-0.21514689922332764,-0.19487522542476654,-0.06379640102386475,0.15754690766334534,-0.017573479562997818,0.06715729832649231,-0.17550241947174072,0.05312880501151085,-0.015015767887234688,0.01425233669579029,0.16641439497470856,0.08720037341117859,0.007754352875053883,-0.028489382937550545,-0.08441091328859329,-0.05550845339894295,0.07679244875907898,-0.0600656121969223,0.10632192343473434,-0.010057294741272926,-0.05613821744918823,0.046759799122810364,-0.13469953835010529,-0.03317539021372795,-0.05242687836289406,-0.03279250115156174,-0.05333942547440529,0.07903991639614105,0.09975624829530716,0.09912174940109253,0.002997336210682988,-0.06328964233398438,-0.11506924033164978,0.12539169192314148,-0.03604620695114136,0.01486638467758894,-0.030521079897880554,-0.022319743409752846,0.058918990194797516,-0.12036927789449692,-0.18759188055992126,0.003559847129508853,-0.061423324048519135,-0.03171208128333092,-0.11163964867591858,0.0855100229382515,-0.16125032305717468,-0.14389586448669434,-0.0019425239879637957,-0.07563433796167374,0.0051234387792646885,-0.11125863343477249,-0.0884924978017807,0.10085736215114594,-0.13298434019088745,-0.0628911629319191,0.0851571261882782,0.07667992264032364,0.068220354616642,-0.006738866213709116,-0.11101408302783966,0.026287266984581947,0.0213593989610672,0.13597998023033142,-0.17887751758098602,-0.028213750571012497,0.02618587762117386,-0.021620700135827065,-0.021166758611798286,0.08733309060335159,-0.1450854390859604,0.01683465763926506,-0.11977628618478775,0.05728479102253914,-0.1393028199672699,0.07581896334886551,-0.2316204160451889,-0.2044180929660797,0.07711769640445709,0.13532289862632751,-0.0898778960108757,-0.06827201694250107,0.07354072481393814,-0.004393602721393108,0.0414942167699337,-0.11685149371623993,-0.03566048666834831,-0.06767217069864273,0.10660769790410995,0.05962513014674187,-0.14805635809898376,0.13557623326778412,0.09293478727340698,-0.07330314815044403,-0.08524778485298157,-0.047781992703676224,0.06142576411366463,-0.0522598922252655,-0.07104689627885818,0.020184434950351715,0.031236451119184494,0.04142453521490097,0.037621740251779556,-0.01515583973377943,-0.06095533072948456,-0.0314471609890461,-0.09621848165988922,0.06504443287849426,-0.12622174620628357,-0.08677425235509872,-0.11794643849134445,-0.030526205897331238,0.11377223581075668,0.13203489780426025,-0.12237747758626938,-0.00476460438221693,0.10177542269229889,0.05973445624113083,0.13687284290790558,0.014860833063721657,-0.07392706722021103,0.10601852834224701,-0.037182677537202835,0.08760878443717957,-0.05055105686187744,-0.0919533520936966,0.16536113619804382,0.11768819391727448,-0.13759538531303406,-0.12230059504508972,-0.10268338769674301,-0.14984725415706635,0.09616103023290634,-0.015787919983267784,-0.10380738228559494,-0.06548988819122314,-0.0678478330373764,0.07635802775621414,-0.11947348713874817,-0.11596054583787918,-0.05054347217082977,0.06427323818206787,0.09138506650924683,-0.06623552739620209,0.05392809584736824,0.11051525920629501,0.02439446747303009,-0.0193288866430521,0.00027456614770926535,-0.03529491275548935,0.07013962417840958,-0.10816187411546707,0.06958486884832382,0.061044901609420776,-0.07790755480527878,0.08298686146736145,0.1537207067012787,-0.1099521815776825,-0.05778846889734268,0.0006007015472277999,-0.062416672706604004,0.08547814190387726,0.09347222745418549,0.005456789396703243,-0.16518652439117432,-0.1686699241399765,0.07986634969711304,0.09370345622301102,-0.10917644202709198,-0.042016565799713135,-0.09312807768583298,-0.05512914061546326,0.12922260165214539,0.2021685093641281,0.05848398059606552,0.044370219111442566,0.09314142912626266,0.038494449108839035,-0.06208794191479683,-0.003084442112594843,0.05021115019917488,0.06809460371732712,-0.16722001135349274,0.05427898094058037,0.16231973469257355,-0.12611377239227295,0.05671880021691322,-0.036103080958127975,-0.15051411092281342,-0.0012855383101850748,0.08670586347579956,0.0573829784989357,0.1700614094734192,0.04797041788697243,0.0951068103313446,-0.08405905961990356,0.08037769794464111,-0.15355275571346283,-0.12552988529205322,-0.052772488445043564,-0.08291596919298172,0.1093435287475586,0.1363976001739502,0.14916497468948364,0.09390910714864731,-0.11800800263881683,-0.026058295741677284,0.009192712604999542,0.044561754912137985,0.08926178514957428,-0.04086717590689659,-0.07732663303613663,0.060574743896722794,-0.03307650238275528,-0.08773079514503479,0.09939341247081757,0.1250602751970291,-0.035443272441625595,-0.01635686866939068,-0.09600896388292313,-0.021601062268018723,0.15343216061592102,-0.19508105516433716,0.08260498940944672,-0.14251480996608734,-0.034750793129205704,-0.03474030643701553,0.08067668229341507,0.060476478189229965,0.09008733928203583,0.05446053668856621,-0.04887793958187103,-0.10841578245162964,-0.12162750214338303,0.020581332966685295,0.07421167194843292,-0.11941942572593689,0.023571109399199486,-0.09872851520776749,0.04775496572256088,0.14501690864562988,-0.1476249247789383,-0.11768193542957306,0.08358590304851532,0.021068433299660683,-0.019010411575436592,0.01724199578166008,-0.018085455521941185,-0.12323956191539764,-0.11308366060256958,0.10869058966636658,0.0057563805021345615,-0.06152721121907234,-0.06979046761989594,-0.1274637132883072,-0.05454765260219574,-0.09060357511043549,0.14922016859054565,0.09298601746559143,-0.01146151963621378,-0.050340667366981506,-0.09499805420637131,0.02633790858089924,0.07676942646503448,0.043503690510988235,-0.05048437789082527,0.06856811046600342,0.03560325875878334,-0.09172096848487854,-0.16005833446979523,0.28180739283561707,0.09058472514152527,-0.15082189440727234,-0.053197961300611496,-0.016000419855117798,-0.08868343383073807,0.3003005385398865,0.08905833214521408,0.07260236889123917,0.007215808145701885,0.17458049952983856,-0.005349453072994947,0.026260683313012123,0.2778133451938629,0.169272780418396,-0.25305914878845215,0.19764916598796844,-0.012453661300241947,0.07749976217746735,-0.029371347278356552,0.027859283611178398,0.0495382584631443,-0.09495726227760315,-0.17576977610588074,0.09152719378471375,-0.15306711196899414,0.08279771357774734,-0.16488394141197205,-0.00652383454144001,-0.007170526776462793,0.17429393529891968,0.00762947229668498,0.04468435421586037,-0.0035864708479493856,0.05551576986908913,0.15775084495544434,-0.10040564090013504,-0.02738724835216999,-0.055039841681718826,0.12403249740600586,0.12387122213840485,0.004033671226352453,-0.032727308571338654,-0.07563857734203339,0.11747492104768753,0.0008422769024036825,0.14111317694187164,0.0239569004625082,0.14321906864643097,0.1132001280784607,-0.08891011774539948,0.03927214816212654,-0.031249845400452614,0.06593692302703857,-0.061743684113025665,-0.004891692660748959,-0.10755952447652817,-0.11671113967895508,0.08095405995845795,0.05345646291971207,0.004188068676739931,0.08030572533607483,-0.0423022024333477,0.046514034271240234,-0.052992820739746094,0.0520506389439106,-0.010312112048268318,0.0564202219247818,0.08742690831422806,0.13815926015377045,-0.011394013650715351,0.0643979161977768,-0.14721165597438812,-0.11400651931762695,0.011630924418568611,-0.025512071326375008,-0.09533611685037613,-0.048071373254060745,-0.04359554871916771,-0.16772675514221191,0.020204132422804832,0.0631137490272522,0.04276326298713684,-0.06383594125509262,-0.08649227768182755,-0.10162124037742615,-0.007726676296442747,0.09474531561136246,-0.060569312423467636,-0.11623634397983551,-0.12357519567012787,-0.02842385694384575,-0.15409620106220245,-0.16565650701522827,0.26497429609298706,0.01400235015898943,-0.02373415045440197,-0.005330221261829138,-0.11076967418193817,0.058509305119514465,0.033293355256319046,0.002875665435567498,0.10180831700563431,0.06026608124375343,-0.13801473379135132,0.16732946038246155,0.05813724175095558,0.08759928494691849,-0.002936609787866473,0.07003136724233627,-0.11720412969589233,0.021904215216636658,-0.08286786079406738,-0.09050752222537994,0.037774037569761276,0.005448039621114731,-0.012213309295475483,-0.060459204018116,-0.1123945564031601,0.008279413916170597,-0.1337786614894867,0.15683993697166443,0.07229636609554291,0.17218376696109772,-0.08228937536478043,0.002924483036622405,-0.01488758996129036,0.1383121758699417,0.13096722960472107,-0.01710175722837448,-0.1075238287448883,-0.1327255219221115,-0.10766356438398361,0.08580894023180008,0.037457045167684555,0.15607060492038727,0.09978126734495163,0.0112844780087471,-0.06663347035646439,0.141118124127388,0.11670150607824326,0.05393771082162857,-0.07888057082891464,0.07452522218227386,0.014470349997282028,0.07626209408044815,0.042284924536943436,0.04227093979716301,-0.10541211813688278,-0.11476600170135498,-0.002479762537404895,-0.0406828336417675,-0.13352598249912262,0.14078782498836517,0.003852489637210965,0.10259320586919785,-0.13493803143501282,-0.01200536172837019,-0.0968775749206543,-0.12539488077163696,-0.011888687498867512,-0.01730145886540413,0.12285378575325012,-0.07365867495536804,0.09081708639860153,0.05864847078919411,-0.035367514938116074,-0.09422281384468079,-0.12432298809289932,-0.07544601708650589,-0.1379195749759674,-0.006632523145526648,-0.004298263229429722,0.0077424910850822926,-0.0638040080666542,0.12215252220630646,0.0847841203212738,-0.05050993338227272,-0.057489510625600815,0.08149787038564682,0.15858379006385803,-0.10576693713665009,-0.013520877808332443,-0.09317716211080551,-0.03324207663536072,0.1400911808013916,-0.03473914414644241,0.12704454362392426,0.009177529253065586,-0.01359620876610279,-0.1794573962688446,-0.13886645436286926,0.12462187558412552,0.05194362252950668,-0.012897412292659283,0.10743071883916855,-0.14058861136436462,0.025661204010248184,0.18911416828632355,-0.0327354334294796,0.12576204538345337,-0.0455787256360054,-0.08373858779668808,-0.0659618154168129,0.0857725590467453,0.010914814658463001,0.07310499250888824,0.03290196880698204,0.06877367943525314,0.021161172538995743,0.017648423090577126,-0.07566343992948532,-0.07513394951820374,-0.16961415112018585,-0.13124722242355347,0.007932440377771854,0.002064518863335252,-0.07159062474966049,-0.11831581592559814,0.004713365342468023,-0.0742025151848793,-0.04308146983385086,-0.04173429682850838,-0.09170033037662506,0.09006521105766296,-0.17924034595489502,-0.08350181579589844,0.07783813774585724,-0.05561622232198715,-0.041050419211387634,-0.024669960141181946,0.07292245328426361,-0.1279984563589096,-0.0029512830078601837,0.016804885119199753,-0.0333101712167263,0.005852814298123121,-0.12444739788770676,0.13163350522518158,0.2105163186788559,-0.03958289325237274,-0.0704876035451889,0.07406933605670929,0.1502438634634018,0.0810534805059433,0.06763236969709396,0.16522625088691711,-0.05008765310049057,0.03459654375910759,0.14151088893413544,-0.010211674496531487,-0.17227089405059814,-0.019028114154934883,0.06686409562826157,-0.07605244964361191,-0.005349124316126108,0.08836477249860764,0.0015995027497410774,-0.06349828094244003,0.016729887574911118,0.04636741802096367,0.036569155752658844,0.0164948757737875,-0.03479823097586632,0.028730910271406174,0.04964538291096687,0.047350428998470306,-0.02211988903582096,0.01481711957603693,-0.1184023916721344,-0.011420396156609058,0.10912087559700012,0.02426282688975334,-0.0952272042632103,-0.014691412448883057,-0.03690506890416145,-0.13990572094917297,-0.07612377405166626,0.22434101998806,-0.006419721525162458,0.04452943056821823,0.09113974124193192,-0.015846366062760353,0.04573674127459526,0.06943941861391068,-0.07372293621301651,-0.11905565857887268,-0.08099523186683655,0.16817766427993774,-0.049260444939136505,-0.0612933449447155,0.06669432669878006,0.12277814000844955,0.03742256015539169,0.15296928584575653,0.12306339293718338,-0.10936283320188522,-0.09594570100307465,-0.1359620839357376,0.09206320345401764,-0.024063507094979286,0.004448083695024252,0.21847425401210785,-0.2612846791744232,-0.11208245903253555,0.0734110102057457,-0.06311056762933731,-0.11238081008195877,-0.05784771591424942,0.08667613565921783,0.12685848772525787,0.019225843250751495,-0.04142758995294571,0.06954821199178696,0.06807316094636917,-0.15210825204849243,-0.11952480673789978,-0.040916867554187775,0.14233621954917908,-0.012552053667604923,0.0898362249135971,-0.044406499713659286,0.12850825488567352,0.06983952224254608,-0.038524262607097626,0.06330443173646927,0.11631318181753159,-0.08587493747472763,-0.03419744223356247,0.037868816405534744,-0.028565088286995888,0.11251698434352875,-0.07693559676408768,-0.14138340950012207,-0.08915632218122482,-0.3134286403656006,0.28159216046333313,-0.049000490456819534,-0.06142618879675865,-0.07573641091585159,0.006507507059723139,-0.08461017161607742,0.03411967679858208,-0.11041179299354553,0.07675105333328247,0.11243049055337906,0.03464585170149803,0.04266814514994621,-0.1589895337820053,0.10942135006189346,0.2542741298675537,-0.04671633243560791,0.08656617254018784,-0.15395092964172363,-0.09046860784292221,0.026858124881982803,-0.06894438713788986,0.1656506508588791,-0.03660719841718674,-0.0716136172413826,-0.06610798835754395,0.02324838750064373,-0.07463108748197556,-0.04964584484696388,0.09412287175655365,0.05084565654397011,0.038699276745319366,-0.04673383757472038,-0.046419400721788406,0.06547356396913528,0.027392420917749405,0.11017482727766037,0.06574562191963196,0.09325660020112991,-0.07929717749357224,0.061714526265859604,-0.07101050764322281,-0.02317087911069393,-0.009615486487746239,-0.024749763309955597,0.03446514531970024,0.13397932052612305,-0.036238834261894226,-0.18801331520080566,0.11876647174358368,0.01762760989367962,0.12183187901973724,0.0826478824019432,0.1440991759300232,-0.008299964480102062,0.04292697831988335,0.04189383238554001,-0.05771217122673988,0.1075625792145729,0.084587961435318,-0.10672144591808319,0.13067089021205902,-0.06794672459363937,0.09122341871261597,-0.17107942700386047,-0.025208095088601112,0.02651137113571167,-0.07283609360456467,-0.1404068022966385,-0.06715182960033417,-0.04451489821076393,0.10653779655694962,0.10199008136987686,-0.08935198932886124,-0.004741051234304905,-0.032393306493759155,-0.10262549668550491,-0.01405085064470768,-0.07473773509263992,0.10012546926736832,-0.0719875618815422,-0.015470704063773155,-0.0874640941619873,-0.03069343790411949,0.154948890209198,-0.05751872807741165,0.014766285195946693,0.13743294775485992,-0.008551904931664467,-0.015145019628107548,-0.047588787972927094,-0.0070464275777339935,-0.0004078623605892062,0.10275167971849442,0.014623581431806087,-0.019479859620332718,-0.1731267124414444,-0.015076455660164356,0.006903540343046188,0.09422992914915085,0.078336201608181,-0.07858458906412125,-0.00171970936935395,-0.15453468263149261,0.039515383541584015,-0.138015478849411,-0.0895669087767601,-0.07765264809131622,-0.061394717544317245,0.08979944884777069,0.08657203614711761,0.1315111666917801,0.03996057063341141,0.14663070440292358,0.1403854936361313,-0.034068867564201355,0.05123520269989967,0.007590622641146183,0.03250116482377052,-0.0353647880256176,-0.04626696556806564,-0.029022183269262314,-0.16222713887691498,-0.0035910524893552065,-0.20130717754364014,0.09005432575941086,-0.06150510162115097,0.026191532611846924,-0.004845054354518652,0.14328022301197052,-0.055828288197517395,0.07784495502710342,0.0214544590562582,0.14410118758678436,0.03491206839680672,0.1368716061115265,0.08118027448654175,0.0153880026191473,0.08206071704626083,-0.1490437537431717,-0.047099195420742035,0.018227746710181236,0.004959519952535629,-0.1948029100894928,-0.32577288150787354,-0.07592359930276871,0.04904013127088547,0.11447176337242126,-0.15362243354320526,0.03418093919754028,-0.23717470467090607,-0.11220122873783112,-0.09990768134593964,0.02139521948993206,-0.06889743357896805,-0.07467061281204224,0.08972196280956268,0.20392639935016632,0.06486175209283829,0.19382831454277039,-0.07905563712120056,-0.024885941296815872,0.055442288517951965,0.045909639447927475,-0.14338795840740204,-0.08570824563503265,-0.05446528643369675,0.02833455055952072,0.11604609340429306,-0.10127557814121246,-0.012058411724865437,-0.008730832487344742,-0.06119054555892944,-0.004422388039529324,0.05647784471511841,0.1390659660100937,0.14200596511363983,0.0874214768409729,-0.009881940670311451,0.09498146176338196,-0.09231752157211304,0.09050507843494415,0.13272781670093536,0.1567932367324829,-0.06774976849555969,-0.09274544566869736,0.03387727960944176,0.06792783737182617,0.07417184114456177,0.05654675140976906,0.07755424827337265,-0.04157082363963127,-0.2705541253089905,0.25619789958000183,0.217816561460495,-0.4874706566333771,-0.010712181217968464,-0.61495041847229,-0.39287427067756653,-0.28157564997673035,0.745794415473938,-0.7383260726928711,-0.45763903856277466,-0.8345392942428589,0.14666280150413513,-0.5646423697471619,0.249320387840271,-0.5915027260780334,-0.09214864671230316,-0.13212360441684723,0.05213560163974762,0.23414908349514008,0.19854409992694855,-0.027564700692892075,-0.21211448311805725,-0.06281192600727081,-0.12681865692138672,-0.05491127073764801,0.1163024976849556,0.11929494142532349,0.05517194792628288,0.072257861495018,-0.10538189113140106,-0.06314075738191605,0.033377595245838165,-0.09428046643733978,-0.047627128660678864,-0.030659127980470657,-0.22044917941093445,0.17120538651943207,-0.05660005658864975,-0.19784317910671234,0.17855434119701385,-0.16067874431610107,0.10432920604944229,0.21706248819828033,0.06946571916341782,0.06795141845941544,0.06851770728826523,0.15832869708538055,-0.24138885736465454,-0.1797945201396942,0.09004820883274078,0.1407962143421173,0.004302139859646559,0.14785000681877136,-0.08104842156171799,-0.011152987368404865,0.059530969709157944,0.06570269912481308,-0.31633418798446655,-0.10357343405485153,0.30314844846725464,0.059572573751211166,0.1447439342737198,0.19465482234954834,0.09068622440099716,0.10661518573760986,-0.129068985581398,-0.1789686530828476,-0.20352968573570251,0.04320920258760452,-0.12051943689584732,-0.06642044335603714,-0.04015427082777023,0.08102498948574066,0.048913970589637756,0.16588132083415985,0.17002765834331512,-0.13075710833072662,0.034708764404058456,0.07539974898099899,0.24006234109401703,-0.014762879349291325,-0.13663384318351746,-0.13056470453739166,0.10989309102296829,-0.02886098250746727,-0.05354312062263489,0.2048618197441101,0.2043633610010147,-0.030408166348934174,-0.13233636319637299,0.256334513425827,-0.000015997849914128892,-0.07716799527406693,-0.13373929262161255,-0.033466510474681854,-0.10396911203861237,-0.16970568895339966,-0.34930238127708435,-0.03578273206949234,0.1313142031431198,-0.2602418065071106,0.009778452105820179,-0.06257320195436478,0.07666487991809845,0.20098114013671875,0.020280687138438225,-0.17216025292873383,-0.3292005658149719,-0.1602533459663391,0.02155950665473938,-0.06524588167667389,0.05361827835440636,-0.07551465928554535,0.1776488721370697,-0.2502179443836212,0.08789832890033722,0.1708877980709076,-0.32576388120651245,-0.19183678925037384,0.21536818146705627,-0.046495307236909866,-0.19203877449035645,0.10918991267681122,0.06954007595777512,-0.09934180229902267,-0.09870784729719162,0.1731031835079193,0.10342255234718323,-0.009330050088465214,0.034659985452890396,0.11973778158426285,0.19033244252204895,-0.15401165187358856,-0.02585388906300068,0.07175938785076141,-0.09647887945175171,0.2562442123889923,-0.1958833485841751,0.09340060502290726,-0.20412297546863556,0.044185835868120193,0.13788928091526031,0.044235266745090485,-0.04283580556511879,0.14093467593193054,-0.19227437674999237,-0.16372492909431458,-0.2121477723121643,-0.14893023669719696,0.015927564352750778,-0.0921969935297966,0.0076956734992563725,-0.01904975064098835,0.2242511361837387,-0.09587115049362183,-0.03594980388879776,0.13899917900562286,-0.06485999375581741,0.13529600203037262,-0.1272849142551422,0.038517944514751434,-0.04268680885434151,0.06485255062580109,0.06210137531161308,-0.09513112157583237,0.13685959577560425,-0.0182762760668993,-0.11091496050357819,0.031572114676237106,0.1401902586221695,0.3511715531349182,0.2693973481655121,0.05480124056339264,0.14682963490486145,-0.12965218722820282,-0.19012323021888733,-0.025606738403439522,-0.09046385437250137,0.018032142892479897,0.010876133106648922,0.009418278001248837,-0.09634103626012802,-0.020206836983561516,0.19991983473300934,0.24828176200389862,-0.21609188616275787,0.212385356426239,0.34755265712738037,0.06070626527070999,-0.020523857325315475,0.2944522202014923,0.03291402384638786,0.24541284143924713,-0.1486930400133133,-0.07034745067358017,-0.18854311108589172,-0.09950123727321625,0.06878341734409332,0.14714393019676208,-0.17586380243301392,0.1574374884366989,0.18153533339500427,-0.1689244955778122,0.07398870587348938,-0.11204264312982559,0.06868521124124527,-0.030317658558487892,-0.12903045117855072,-0.1631513386964798,-0.15886816382408142,0.23335883021354675,0.013138916343450546,0.003503047628328204,-0.11317209899425507,0.13525469601154327,-0.08634632080793381,-0.08236555010080338,-0.23738136887550354,-0.2942006587982178,0.08158303797245026,-0.14084045588970184,-0.03794329985976219,0.04530793055891991,0.09011228382587433,0.06692514568567276,-0.17883020639419556,0.21928800642490387,-0.21175801753997803,-0.041797202080488205,-0.04068968445062637,-0.0641568973660469,0.20589937269687653,0.16596654057502747,0.0015168917598202825,-0.17257151007652283,0.09420061111450195,0.12362812459468842,0.016664961352944374,-0.18024732172489166,-0.06906629353761673,0.16603925824165344,-0.002368126530200243,-0.033108171075582504,-0.15617872774600983,-0.1268182247877121,0.14469194412231445,-0.03182220458984375,0.007736323866993189,0.07861128449440002,-0.18040746450424194,-0.031004754826426506,-0.038911182433366776,0.09759730845689774,0.18766003847122192,0.13511919975280762,0.1989722102880478,-0.18514397740364075,-0.036704447120428085,0.027862245216965675,-0.2367943674325943,0.04917478561401367,-0.11355934292078018,0.1091814935207367,0.1865500956773758,-0.19146814942359924,0.19504575431346893,0.0968058630824089,-0.15836316347122192,0.27934709191322327,-0.1946900486946106,-0.18791507184505463,-0.11508417129516602,-0.003922025207430124,-0.024696148931980133,-0.04713891074061394,-0.1902327984571457,-0.03280423954129219,0.13699641823768616,0.15389347076416016,0.12969480454921722,0.017794372513890266,0.03670647740364075,-0.18229468166828156,0.0696803629398346,-0.25377708673477173,-0.12172287702560425,-0.04671783000230789,0.09717699885368347,0.03388030827045441,-0.060108352452516556,0.062375470995903015,-0.13305753469467163,-0.07017543911933899,0.057171985507011414,0.05495363846421242,-0.022865822538733482,0.09277660399675369,-0.07599975913763046,-0.09232557564973831,0.12947654724121094,0.023910727351903915,-0.02762528695166111,0.0648697093129158,-0.029761753976345062,0.024477532133460045,-0.03616388887166977,-0.027660783380270004,0.042183712124824524,-0.021440643817186356,0.049262937158346176,-0.1335373818874359,-0.08452089130878448,0.10519087314605713,-0.03102695941925049,0.06086639314889908,0.09954200685024261,-0.13218717277050018,-0.06320258229970932,0.21486112475395203,-0.15140868723392487,-0.07996706664562225,0.03165814280509949,-0.0007786666974425316,-0.005994000937789679,-0.09856120496988297,0.01714923605322838,0.0006030158838257194,0.03587890416383743,0.0892321988940239,0.15349514782428741,0.10571914911270142,-0.16325153410434723,0.06211213767528534,-0.21455015242099762,0.01748630590736866,-0.07159154117107391,-0.10312488675117493,0.007128098979592323,-0.0486312136054039,0.12213417142629623,-0.10020927339792252,0.11439961940050125,0.11939724534749985,0.12438012659549713,-0.027651967480778694,-0.05355685576796532,-0.11040227115154266,0.11257242411375046,-0.0736364796757698,-0.017196467146277428,-0.012372393161058426,-0.03152037784457207,-0.12172786146402359,0.12576548755168915,-0.07932358980178833,0.15521644055843353,-0.06931441277265549,-0.09174641966819763,-0.01622534729540348,0.0674072876572609,-0.006262497510761023,-0.16902536153793335,0.0874558687210083,0.1818304806947708,0.08532621711492538,0.19322600960731506,0.21367482841014862,0.04171421378850937,-0.1224750205874443,-0.10797610133886337,-0.10102289170026779,-0.03841935843229294,0.07078807055950165,-0.07902105152606964,-0.043979912996292114,-0.11971613764762878,-0.17845843732357025,0.005530169233679771,0.19141390919685364,-0.003953146748244762,0.09211425483226776,-0.09381674975156784,0.007807240821421146,0.042345594614744186,-0.07835250347852707,-0.08032592386007309,0.07859912514686584,-0.042237602174282074,-0.12231048941612244,0.14229263365268707,0.041474323719739914,0.10518474131822586,-0.1544075459241867,-0.0005942534771747887,0.08514410257339478,-0.047214314341545105,-0.1054929569363594,0.0841546356678009,0.04454869031906128,0.013753864914178848,0.007183619309216738,0.02165297605097294,0.09533850848674774,-0.022798197343945503,-0.0555705688893795,0.08206610381603241,0.05147157609462738,0.08066518604755402,0.013801841996610165,0.03508608043193817,-0.05433333292603493,0.015274638310074806,-0.1571333110332489,-0.12989383935928345,0.04228904843330383,-0.00709910411387682,-0.025360852479934692,0.029500531032681465,0.006719634402543306,0.10417971760034561,0.03523056209087372,0.07113721966743469,0.022442666813731194,0.05996083468198776,0.08631362020969391,0.12316355109214783,-0.12807321548461914,0.03673325479030609,-0.10841581225395203,-0.03268253803253174,0.05448972433805466,-0.1914457231760025,-0.08520901948213577,0.06375323235988617,-0.02443520352244377,0.08830532431602478,-0.035334568470716476,0.04851365461945534,0.16284076869487762,-0.14483347535133362,0.08596068620681763,0.09457937628030777,-0.11741987615823746,0.0004139461962040514,-0.06273790448904037,-0.05168914049863815,-0.045353829860687256,-0.1762641966342926,0.10150659829378128,0.1928836852312088,0.032304346561431885,-0.13732944428920746,0.017819806933403015,-0.015662336722016335,0.07136788964271545,0.03922904655337334,0.08995961397886276,-0.026270825415849686,-0.06566077470779419,-0.0523601695895195,-0.29789087176322937,0.05478479340672493,0.16493679583072662,-0.012728109955787659,0.1224348172545433,-0.016503429040312767,-0.14128728210926056,-0.019297366961836815,-0.038453057408332825,-0.0015261502703651786,0.05483259633183479,-0.06269724667072296,0.05016126111149788,0.05314532294869423,0.06531135737895966,-0.0323827788233757,-0.20387770235538483,-0.11297731846570969,0.07067932933568954,0.07837054878473282,-0.09032491594552994,-0.005913769826292992,-0.01409126166254282,0.12903772294521332,0.06468809396028519,0.012501712888479233,0.10946329683065414,-0.09668165445327759,0.010886340402066708,0.17591840028762817,-0.10864323377609253,-0.07996087521314621,0.024147743359208107,-0.040274813771247864,0.008580812253057957,0.011578676290810108,0.08188410848379135,-0.147196963429451,-0.06817051768302917,0.09957202523946762,-0.04337894916534424,-0.10404857248067856,0.04671354964375496,-0.01658625155687332,-0.1269778460264206,0.058126527816057205,0.14701054990291595,0.23225167393684387,0.025047270581126213,-0.1675945669412613,0.1140102967619896,-0.1152438372373581,0.006686749402433634,0.06765232235193253,-0.13026832044124603,-0.09441032260656357,0.017397111281752586,-0.021148009225726128,-0.21646277606487274,-0.3016497492790222,0.24341341853141785,-0.1406979262828827,0.08466154336929321,0.049397364258766174,0.10528535395860672,-0.22330765426158905,-0.036118075251579285,0.0945376455783844,-0.010062292218208313,-0.09458665549755096,0.12041047215461731,-0.02764398790895939,-0.024100812152028084,-0.041010208427906036,-0.09444224089384079,-0.07250918447971344,-0.033728934824466705,-0.10757503658533096,0.12770363688468933,-0.017488596960902214,-0.06805024296045303,0.0532446913421154,-0.14813795685768127,-0.09688904881477356,0.05179667845368385,-0.06482712179422379,0.10613523423671722,0.016210461035370827,-0.10186490416526794,-0.1315300017595291,0.045896101742982864,0.07801904529333115,-0.015754837542772293,-0.13494127988815308,-0.0865020826458931,0.020452525466680527,-0.07680962979793549,0.24084149301052094,0.12654553353786469,0.03623787313699722,0.043144673109054565,0.12193292379379272,0.0823860615491867,0.11572784930467606,-0.0448794886469841,-0.024806426838040352,0.054715994745492935,0.11477261036634445,0.08631878346204758,0.07269280403852463,-0.042087167501449585,-0.10890069603919983,0.03687305003404617,-0.0744226798415184,-0.01869138330221176,-0.09152273088693619,-0.058664482086896896,0.03816378861665726,0.0555790476500988,-0.0745532438158989,-0.045310016721487045,0.08049967885017395,-0.16264872252941132,-0.10645143687725067,-0.010056447237730026,0.12854908406734467,0.07356014102697372,0.03528045862913132,-0.0019538546912372112,0.10011010617017746,-0.06452576816082001,0.13982214033603668,0.007666671182960272,-0.005862192250788212,-0.04173728823661804,-0.11491182446479797,0.09497418999671936,0.061310186982154846,-0.13557873666286469,-0.1371188461780548,-0.041820548474788666,0.1141253337264061,-0.07254290580749512,0.09088346362113953,-0.03164437413215637,-0.1896398663520813,-0.11936993151903152,-0.08771274238824844,0.01261264830827713,-0.02180485986173153,0.050540369004011154,-0.1337168961763382,-0.12021545320749283,0.043790195137262344,-0.10275019705295563,-0.025609193369746208,-0.11490633338689804,-0.16454365849494934,-0.06259236484766006,0.09464878588914871,0.16379733383655548,0.050773985683918,0.00833619013428688,0.07276473194360733,0.13224613666534424,-0.17314979434013367,-0.0045127589255571365,-0.021579191088676453,0.10089707374572754,-0.09218018501996994,0.09365030378103256,0.029902027919888496,-0.13759849965572357,-0.025260917842388153,0.09100525081157684,-0.13191744685173035,0.045308567583560944,-0.05347108095884323,0.061732735484838486,0.12105606496334076,-0.03917373716831207,-0.11516773700714111,-0.07661288231611252,0.12220586836338043,-0.08393801003694534,0.05585369095206261,-0.022952813655138016,0.0054799276404082775,0.06961639970541,-0.052085209637880325,-0.1686943918466568,-0.04090075567364693,-0.09582975506782532,-0.011197267100214958,-0.2561725974082947,0.1652137041091919,-0.02393069677054882,0.00991432648152113,-0.11416318267583847,0.09426264464855194,0.13304847478866577,0.12031225860118866,0.07022058218717575,-0.03188347816467285,-0.031186984851956367,0.011990017257630825,-0.15877987444400787,0.01946808397769928,-0.06729906797409058,0.0012311291648074985,-0.14829549193382263,-0.07836158573627472,-0.16464106738567352,0.01257722545415163,0.052838582545518875,-0.04944795370101929,-0.005929591134190559,0.037376489490270615,0.10716363787651062,-0.07393268495798111,-0.0036781367380172014,0.11123668402433395,0.0832023173570633,-0.15989015996456146,-0.04718658700585365,-0.021266553550958633,-0.07014782726764679,-0.09204715490341187,-0.09654336422681808,0.08300724625587463,0.009311932139098644,0.010115575976669788,0.046744946390390396,-0.05166914314031601,0.03279414400458336,0.09407488256692886,-0.0981927141547203,0.053013306111097336,-0.009099689312279224,0.08934009075164795,0.07042061537504196,0.0852120965719223,0.07821029424667358,-0.14698289334774017,0.03197912871837616,0.03199521824717522,-0.09223174303770065,-0.10572201013565063,0.12702134251594543,0.003092073602601886,0.11701765656471252,-0.027747243642807007,0.137211874127388,0.14753901958465576,0.12827470898628235,-0.001699294545687735,0.11017736047506332,-0.033824171870946884,-0.0008429046720266342,-0.11269349604845047,-0.04403851181268692,-0.13882111012935638,0.13825145363807678,0.1723114252090454,0.09197019785642624,0.03125952184200287,0.039510373026132584,0.10599216818809509,-0.07014963775873184,-0.037108708173036575,-0.1457449048757553,-0.013507828116416931,0.011781609617173672,0.044685401022434235,-0.044432785362005234,-0.002254823688417673,-0.02364935353398323,-0.10312321037054062,0.03583766520023346,-0.14700010418891907,0.04204413667321205,-0.13612954318523407,-0.0905851274728775,-0.04812783747911453,-0.14709196984767914,0.07425838708877563,0.15170198678970337,-0.025680577382445335,0.02234669402241707,0.07812771201133728,0.12133051455020905,-0.14380207657814026,-0.13914050161838531,0.11287696659564972,-0.13039985299110413,-0.04159381613135338,0.0038918033242225647,-0.043959327042102814,-0.0470692403614521,-0.12320573627948761,0.03967471793293953,-0.028380099684000015,0.14652948081493378,-0.15169726312160492,0.09348117560148239,-0.03184516355395317,-0.039104681462049484,-0.0523548498749733,-0.0044634281657636166,0.008462532423436642,0.02695675939321518,0.07164102047681808,0.11528530716896057,0.02114916779100895,0.05485507473349571,0.08225560188293457,0.041429050266742706,0.08964311331510544,0.09171055257320404,0.13802383840084076,-0.11977367848157883,0.07209718972444534,0.04335508495569229,-0.013882556930184364,-0.030154431238770485,0.10347875952720642,0.14382578432559967,-0.16598936915397644,0.08352360129356384,0.08768920600414276,-0.00773052079603076,-0.015066760592162609,0.09847582876682281,-0.03718312457203865,-0.017538510262966156,0.03265766054391861,0.011086092330515385,0.0815005972981453,0.0068024760112166405,0.05454472824931145,0.03500806912779808,-0.10139758139848709,0.04579692706465721,0.06611938029527664,0.002465970115736127,-0.010533287189900875,0.11449892073869705,-0.10999079793691635,-0.10223039984703064,-0.01615855097770691,0.16431137919425964,-0.22696685791015625,-0.0734184980392456,-0.1639411896467209,0.01060250960290432,0.023198142647743225,-0.04327690973877907,0.1379755288362503,0.03906058520078659,-0.04588402435183525,0.022460514679551125,0.12822693586349487,0.09221906214952469,0.18317489326000214,-0.10716597735881805,0.07046044617891312,0.07968927174806595,0.044941406697034836,-0.028727315366268158,0.020520871505141258,-0.13785700500011444,-0.18708519637584686,-0.016994057223200798,0.03083336353302002,0.16531789302825928,0.09647542238235474,0.12746192514896393,-0.05800119414925575,-0.13202409446239471,-0.12390543520450592,0.08943634480237961,-0.1492985039949417,-0.1049128994345665,-0.01854253187775612,-0.20593993365764618,0.08034225553274155,0.1534774750471115,0.07547282427549362,0.10346046835184097,-0.04583339765667915,0.05497710779309273,-0.007888554595410824,-0.019565055146813393,0.006367637310177088,-0.16434374451637268,-0.05141334980726242,0.19257047772407532,0.013815759681165218,0.0052349683828651905,0.1703062355518341,-0.10268939286470413,-0.2716480493545532,-0.21557173132896423,-0.11622890830039978,-0.09349557757377625,0.15638874471187592,0.11376810073852539,0.004762754309922457,-0.11931616812944412,-0.04960222542285919,-0.14370045065879822,-0.009401114657521248,-0.029783811420202255,-0.020077917724847794,-0.0466226227581501,0.08326786756515503,0.09527778625488281,0.049689047038555145,-0.0017406359547749162,-0.010218617506325245,0.06251058727502823,-0.1159546971321106,0.10143443197011948,-0.09930133819580078,0.08602183312177658,-0.09151127934455872,-0.00637456588447094,0.0295135285705328,-0.14479270577430725,0.061757538467645645,-0.08808525651693344,0.05440158024430275,-0.04019620642066002,0.03135400265455246,0.1404641568660736,-0.13579460978507996,0.012960662133991718,-0.04212147369980812,0.07785965502262115,-0.0798661857843399,0.03706105053424835,-0.06864690780639648,0.06495953351259232,0.022794270887970924,0.11423707008361816,-0.011865303851664066,0.03269069269299507,-0.21674844622612,0.15228652954101562,0.01898191124200821,0.1512393355369568,-0.04143953323364258,-0.043239519000053406,-0.07605323940515518,0.12135546654462814,-0.0779954269528389,-0.017886485904455185,0.0900549665093422,-0.017988696694374084,-0.13071469962596893,-0.1372440755367279,-0.08487315475940704,0.12360623478889465,-0.10172196477651596,0.08434005826711655,0.11111028492450714,-0.04072514921426773,0.0015835334779694676,-0.07620607316493988,0.04048497602343559,-0.023002900183200836,0.006895042024552822,0.06098805367946625,0.07454391568899155,-0.03980869799852371,0.002777071902528405,0.024152999743819237,-0.008330801501870155,0.046971485018730164,-0.05076757073402405,0.13583187758922577,0.10520027577877045,-0.19378067553043365,-0.14593705534934998,-0.10698948055505753,0.01063279714435339,-0.007735352497547865,-0.09000764042139053,0.07144937664270401,-0.031220590695738792,0.006379948928952217,0.14314593374729156,-0.14189206063747406,-0.03299645334482193,-0.07993702590465546,-0.08398667722940445,-0.14873605966567993,0.03702784702181816,0.025378156453371048,0.06460054218769073,0.14234766364097595,0.15765325725078583,0.021404286846518517,-0.008031515404582024,-0.00697748176753521,0.004431985784322023,-0.01373238768428564,0.031971197575330734,-0.08656176924705505,-0.10217074304819107,0.009317937307059765,-0.03567304089665413,-0.06481901556253433,-0.12989698350429535,0.0019228648161515594,-0.07550500333309174,-0.10904265940189362,-0.06394889205694199,0.028973039239645004,-0.1339646428823471,-0.019094737246632576,-0.025215553119778633,0.01613115705549717,0.05609174817800522,-0.08315877616405487,0.0458175465464592,0.1248968094587326,0.053927332162857056,0.024911854416131973,0.01977705955505371,0.08492119610309601,0.0010528048733249307,-0.04681633040308952,0.11586370319128036,-0.11778949946165085,-0.080051951110363,-0.11573979258537292,-0.08607369661331177,-0.2023143619298935,-0.19642230868339539,0.17955726385116577,-0.0021244261879473925,-0.11612434685230255,-0.07854317128658295,-0.05171607434749603,0.03325655683875084,-0.05095512419939041,0.06983736902475357,0.052825018763542175,0.035479120910167694,-0.07287151366472244,0.04718710482120514,0.22032342851161957,-0.12844422459602356,0.08739721029996872,0.10277847945690155,-0.11751340329647064,0.059660300612449646,0.08700383454561234,0.010438109748065472,0.10103624314069748,0.014160909689962864,0.19034820795059204,0.007108898833394051,-0.05519924685359001,0.014905674383044243,-0.003883965313434601,0.1489693522453308,0.014585865661501884,0.04550175741314888,0.11608584970235825,0.005333226174116135,-0.05270598083734512,0.041603539139032364,-0.14229410886764526,-0.018141571432352066,0.10308872163295746,-0.2290404736995697,-0.10771087557077408,0.053651463240385056,-0.09391956776380539,0.07931054383516312,0.12082874029874802,-0.08517172932624817,0.12369729578495026,-0.14366298913955688,0.15112212300300598,-0.006922889035195112,-0.11524990946054459,-0.10722038149833679,-0.0812157690525055,0.12124574184417725,0.16170747578144073,-0.055663883686065674,0.09377319365739822,0.1028088703751564,0.021718505769968033,0.035792071372270584,-0.08972762525081635,0.09180062264204025,-0.01144509669393301,-0.06877746433019638,-0.07902471721172333,0.13397902250289917,0.058040715754032135,0.06905079632997513,0.021032847464084625,-0.11658836156129837,0.05164516717195511,0.010355988517403603,0.029591048136353493,-0.2806806266307831,-0.30138832330703735,0.7187954187393188,0.2817669212818146,-0.3092251121997833,-0.0895221009850502,-0.19008614122867584,-0.07275751978158951,0.4238332211971283,-0.5510616898536682,0.858748197555542,0.5016769170761108,0.14940835535526276,-0.21363595128059387,0.09797050058841705,-0.3715425431728363,0.1538832187652588,-0.1132703647017479,0.06088266894221306,-0.09077272564172745,0.08701532334089279,0.1540440171957016,0.17421406507492065,0.03064676932990551,0.16825778782367706,0.13061904907226562,0.17161627113819122,0.09824299812316895,-0.24537329375743866,0.05291086435317993,-0.11638280749320984,-0.12328748404979706,0.17936092615127563,-0.03380321338772774,0.06698036938905716,0.28915461897850037,0.12164295464754105,0.15314733982086182,-0.037507254630327225,-0.23247508704662323,-0.20147234201431274,0.07886060327291489,0.019917597994208336,-0.09040630608797073,0.12292105704545975,0.23359061777591705,0.06882692128419876,-0.11397744715213776,0.06197267025709152,-0.19970332086086273,0.09973006695508957,-0.029294991865754128,0.18803322315216064,-0.10251639038324356,-0.027138691395521164,-0.21326017379760742,-0.056263770908117294,-0.040835440158843994,-0.12879900634288788,0.22946783900260925,0.23251281678676605,-0.23281706869602203,-0.06573353707790375,0.057126644998788834,0.24469631910324097,-0.015189710073173046,0.18621720373630524,0.1026470810174942,-0.012111792340874672,0.1195550262928009,-0.2441614419221878,0.16095073521137238,0.2653249204158783,-0.025487227365374565,0.14769679307937622,0.22522665560245514,0.0767718032002449,0.10164438188076019,0.11408273130655289,-0.09252413362264633,0.0789799690246582,-0.09062707424163818,0.1947973370552063,-0.13628411293029785,0.08242348581552505,-0.08323361724615097,0.06823974847793579,-0.03523422032594681,0.19553281366825104,-0.016619976609945297,-0.16296058893203735,0.09078354388475418,-0.22489222884178162,-0.15151043236255646,0.16365067660808563,-0.12006288766860962,-0.06446004658937454,-0.08933243900537491,-0.02561914548277855,-0.13599011301994324,-0.16021421551704407,-0.016543135046958923,0.19412513077259064,0.10203421860933304,-0.14705294370651245,-0.19722919166088104,-0.03215944394469261,0.08607302606105804,0.002089864807203412,0.13818062841892242,0.19568413496017456,-0.01704888790845871,0.04804381728172302,0.07723452150821686,-0.07338762283325195,0.15518827736377716,0.1503574550151825,-0.08003196865320206,0.05699591338634491,-0.07888919860124588,-0.19334910809993744,0.04149208962917328,0.20840400457382202,-0.09631279855966568,0.147822305560112,0.024908307939767838,0.03698233515024185,0.03891142085194588,0.1638638824224472,0.15978072583675385,-0.2699988782405853,-0.24540004134178162,-0.005736153107136488,-0.12837493419647217,0.09182393550872803,-0.04558439552783966,0.009258925914764404,0.0935516506433487,0.0203178022056818,0.17280313372612,0.001738264923915267,0.13967862725257874,0.04167942330241203,-0.05712779983878136,-0.050972092896699905,0.2862316071987152,-0.03869396448135376,0.38684603571891785,0.2644873857498169,0.028252562507987022,-0.21623708307743073,-0.08961925655603409,-0.08857987076044083,0.1299588680267334,0.009195965714752674,0.23706039786338806,-0.21210505068302155,-0.06943275034427643,0.0036894134245812893,-0.07859832793474197,0.2422589212656021,-0.10382134467363358,-0.1372661143541336,0.3526376187801361,0.058678485453128815,0.1679990291595459,-0.10625599324703217,-0.09306710958480835,-0.012044453993439674,0.03949006274342537,0.11052020639181137,-0.012834806926548481,-0.0016514561139047146,-0.06467881798744202,0.14833411574363708,-0.11657395958900452,0.3320831060409546,-0.14559295773506165,-0.08259963244199753,0.06903044134378433,0.23061653971672058,-0.13336704671382904,0.10422496497631073,-0.1373898684978485,0.2599833905696869,0.06668141484260559,-0.16113047301769257,0.13676641881465912,0.05535275116562843,-0.2770548462867737,0.026174869388341904,0.13172155618667603,-0.04080243408679962,0.02371923252940178,-0.024147389456629753,0.22379016876220703,-0.10293816030025482,0.2220926284790039,0.20513515174388885,0.11850763112306595,-0.07446383684873581,-0.20575407147407532,-0.11680754274129868,0.2797014117240906,-0.22738783061504364,-0.22488102316856384,-0.05043226107954979,0.08049759268760681,-0.3043188452720642,-0.19599635899066925,0.012007969431579113,0.19878429174423218,0.055107731372117996,0.10061322152614594,-0.1546381711959839,-0.25193896889686584,0.1378963440656662,0.0033051269128918648,-0.039085935801267624,0.06983335316181183,-0.003835845272988081,0.182717964053154,-0.005058837588876486,-0.2869093418121338,-0.15711693465709686,0.10596620291471481,-0.11080292612314224,0.014988752081990242,0.04304060712456703,-0.11986320465803146,0.14145085215568542,-0.1813865602016449,0.04483023285865784,-0.022726645693182945,0.14906297624111176,-0.2049170285463333,0.015020716935396194,0.07339803874492645,-0.16243873536586761,-0.05630103871226311,0.11290692538022995,0.20568694174289703,-0.022759880870580673,0.13732130825519562,-0.08567246794700623,-0.04469459503889084,0.09624157845973969,-0.24331051111221313,0.20126734673976898,0.1580236405134201,0.12235502153635025,0.20851802825927734,-0.015706859529018402,0.027791906148195267,-0.011583537794649601,-0.196762815117836,-0.1959010511636734,-0.04855718836188316,-0.11593188345432281,-0.2426823377609253,-0.16505703330039978,-0.04495411366224289,-0.0578286275267601,-0.2011002153158188,0.022435685619711876,0.17759884893894196,0.1743677854537964,0.17992332577705383,-0.20882825553417206,-0.05238327756524086,-0.05987462028861046,0.08716528117656708,0.07651549577713013,0.06158212199807167,0.1156112402677536,0.1527581512928009,-0.07223488390445709,0.150412917137146,0.129164457321167,-0.009626062586903572,-0.18151627480983734,-0.1646394282579422,0.06017211452126503,0.0949692577123642,0.18703755736351013,0.11834750324487686,0.07786361128091812,-0.00213972432538867,0.01605048030614853,-0.18456071615219116,0.05711660161614418,-0.16205278038978577,-0.08249575644731522,-0.05099375173449516,0.062018562108278275,-0.03351113200187683,0.006109287962317467,-0.2084755152463913,-0.04236597940325737,0.03297650068998337,0.020229021087288857,-0.15756367146968842,-0.13479264080524445,0.21917155385017395,0.15933139622211456,0.13739758729934692,0.11145609617233276,-0.02864716574549675,-0.1012628972530365,-0.119059719145298,0.05727231130003929,0.06521884351968765,-0.1992034912109375,-0.3106738328933716,-0.21538755297660828,-0.06433828920125961,-0.03823314979672432,-0.1744176149368286,-0.14557509124279022,-0.14113134145736694,0.1522466540336609,-0.011773201636970043,-0.18481415510177612,-0.1523638367652893,-0.12883087992668152,0.02907569706439972,-0.04887324944138527,0.08730065077543259,0.07069618999958038,-0.013211943209171295,-0.25125882029533386,-0.23305240273475647,-0.18409913778305054,0.09799335151910782,-0.02457522600889206,0.03634607791900635,-0.045414216816425323,0.12537690997123718,0.03741907328367233,0.04001681134104729,-0.21130035817623138,-0.09219007939100266,0.014819077216088772,-0.11844968050718307,0.03141535073518753,-0.06458666175603867,0.11294566094875336,0.15435411036014557,0.01931934617459774,0.02981668710708618,0.14959654211997986,0.10390379279851913,-0.27863046526908875,-0.05166018381714821,-0.1361420899629593,0.09978366643190384,-0.04587002471089363,-0.028409143909811974,-0.10922342538833618,-0.10353460907936096,-0.07960014790296555,-0.020746611058712006,-0.09962940216064453,-0.06487060338258743,0.1048920527100563,0.08930782973766327,-0.07632939517498016,0.08280004560947418,-0.024142619222402573,0.14208638668060303,0.023269983008503914,-0.1127903014421463,-0.0528707429766655,0.009394299238920212,0.0814092606306076,-0.14259839057922363,0.05990450084209442,-0.14051522314548492,0.03864333778619766,0.08538473397493362,0.041480790823698044,-0.04825936630368233,0.06223152205348015,-0.01982407458126545,-0.08551370352506638,-0.10080515593290329,0.06850995123386383,0.144117534160614,0.07959675043821335,-0.13052219152450562,-0.1371791809797287,-0.006597129162400961,0.07676364481449127,-0.08101622015237808,0.06252540647983551,-0.06547299772500992,0.12830698490142822,-0.02606257051229477,-0.02064344473183155,-0.11157235503196716,-0.13741102814674377,0.018978387117385864,0.013865875080227852,0.08690589666366577,-0.13887493312358856,0.01611204445362091,-0.0214471984654665,0.07841317355632782,-0.05436859652400017,0.11558490991592407,0.06446667015552521,0.09956596791744232,-0.005193469580262899,0.04617811739444733,-0.004520986694842577,0.13773229718208313,-0.03206344321370125,-0.10004790872335434,-0.09696853905916214,-0.07571905851364136,-0.06402485817670822,0.01815926656126976,-0.04738736152648926,-0.09118041396141052,-0.027803950011730194,-0.06265874207019806,0.08658692985773087,-0.09602507203817368,-0.07207474112510681,-0.09246045351028442,-0.03680654615163803,0.032464779913425446,0.020515358075499535,0.15477856993675232,-0.05611667037010193,0.00342951575294137,0.0956425666809082,0.23289963603019714,0.10700643062591553,0.03566296771168709,-0.024173423647880554,0.031063023954629898,0.08125897496938705,0.0049260747618973255,0.07817045599222183,0.11313973367214203,-0.08291356265544891,0.051909156143665314,-0.12011032551527023,-0.038076598197221756,0.10410192608833313,-0.017750779166817665,0.04399232193827629,0.04564795270562172,0.0038478774949908257,0.12136983126401901,0.012938153930008411,-0.11751244217157364,-0.05527195706963539,-0.14794480800628662,0.01747610606253147,0.10140114277601242,-0.03343318775296211,0.17800273001194,0.062163256108760834,0.02850073017179966,0.13583990931510925,0.08303611725568771,0.009511856362223625,0.142167866230011,-0.09039811044931412,0.06192971393465996,0.07562681287527084,-0.12870556116104126,-0.14091677963733673,0.04493042081594467,-0.022314827889204025,-0.04477013275027275,-0.008593440987169743,-0.11786264926195145,0.13714635372161865,-0.011500977911055088,-0.08671531081199646,0.1324266493320465,0.022989589720964432,0.01827496849000454,-0.04021910950541496,0.12868240475654602,-0.010825511068105698,0.12013067305088043,-0.039840470999479294,0.04389507696032524,0.09377222508192062,-0.11734632402658463,-0.11187686026096344,-0.1926593780517578,0.11043833941221237,0.09708847105503082,-0.031032631173729897,-0.06098640337586403,0.055769387632608414,0.08906833827495575,0.04507758840918541,-0.01723889261484146,-0.026539446786046028,0.1105608344078064,-0.0978773981332779,-0.1340598165988922,-0.06899690628051758,0.03181317076086998,0.12509769201278687,0.005635500885546207,-0.022032706066966057,-0.06915921717882156,-0.08775635063648224,-0.08212549984455109,-0.10050970315933228,0.04041554406285286,-0.04344554245471954,-0.11813848465681076,-0.04484029859304428,-0.08672778308391571,-0.02155284769833088,-0.08462638407945633,-0.0048142289742827415,0.03774845227599144,-0.09290964901447296,-0.025674084201455116,-0.10032983869314194,0.036019910126924515,-0.09438759833574295,-0.06058184430003166,0.1956980675458908,-0.09844256937503815,-0.004225980024784803,0.16730384528636932,0.0840991660952568,-0.04292897507548332,0.1194503977894783,-0.18791840970516205,0.143449068069458,-0.12294073402881622,-0.09525597095489502,-0.10973139107227325,-0.25690770149230957,0.07463738322257996,-0.029969239607453346,0.062507264316082,-0.013712262734770775,-0.03886537253856659,-0.03692692145705223,-0.057951632887125015,-0.16568581759929657,0.2817382216453552,-0.08447813242673874,-0.03921330347657204,0.20922300219535828,-0.06063470616936684,-0.07889848202466965,-0.04650368541479111,-0.18155239522457123,0.05639222264289856,-0.014743591658771038,0.07294134795665741,-0.028092116117477417,0.028377125039696693,-0.1370675265789032,-0.006362413056194782,-0.06938133388757706,-0.12603680789470673,-0.034543976187705994,0.1707133948802948,-0.11512821912765503,-0.03383035585284233,0.017697012051939964,0.0585210919380188,0.11083610355854034,0.04761750251054764,-0.13143716752529144,-0.07070688158273697,-0.06679505854845047,-0.02667962945997715,-0.00600931653752923,0.14709407091140747,0.05988210439682007,-0.125151127576828,-0.08110234141349792,-0.16979505121707916,-0.08047307282686234,0.03320848196744919,-0.04033967852592468,-0.15587298572063446,-0.12280943989753723,0.03962377458810806,-0.09935855865478516,-0.08761855959892273,-0.05680633708834648,0.18197393417358398,0.004008008632808924,-0.009559969417750835,-0.05013806372880936,0.18341785669326782,0.0671326071023941,0.003686566138640046,-0.009746671654284,-0.005851733963936567,-0.0917501375079155,-0.013805501163005829,0.07204810529947281,-0.03916946426033974,-0.15211883187294006,-0.07743386924266815,0.19052419066429138,-0.039164211601018906,-0.03949706628918648,-0.1142350360751152,0.06846140325069427,-0.09021785110235214,-0.024456176906824112,0.18451757729053497,0.09590271860361099,0.08294028043746948,0.03731638565659523,-0.1625634878873825,-0.009810286574065685,-0.2023726999759674,0.00581804383546114,0.1420544981956482,-0.0774003267288208,0.1582082062959671,-0.20619772374629974,-0.08558683842420578,0.10496948659420013,-0.18707072734832764,0.09051733464002609,0.019030453637242317,-0.140122652053833,0.12810687720775604,-0.028574343770742416,0.07496172189712524,-0.07170858234167099,-0.08256137371063232,0.03933341056108475,-0.1073560118675232,0.05802731588482857,-0.016579745337367058,0.03826063871383667,-0.06215868517756462,0.008133193477988243,-0.07723931223154068,0.022121010348200798,-0.001711369608528912,-0.14336326718330383,-0.015435012988746166,-0.3195609748363495,0.10091724991798401,-0.12545272707939148,-0.03167964890599251,-0.11547043919563293,0.09677117317914963,0.14820896089076996,-0.009761694818735123,0.14226248860359192,0.11946389824151993,-0.16380460560321808,0.0336565300822258,-0.060522954910993576,-0.12453269213438034,0.02256341278553009,0.14079220592975616,-0.20195601880550385,0.06222756206989288,-0.0260006096214056,0.16517587006092072,0.14800040423870087,0.14512597024440765,-0.035523202270269394,0.07307673245668411,0.038011688739061356,-0.22236189246177673,0.10590459406375885,-0.026411211118102074,-0.06702186912298203,0.024052511900663376,-0.1231958344578743,0.02386617474257946,0.02335204742848873,-0.12384700775146484,0.1536523550748825,-0.1428017020225525,-0.017233995720744133,-0.11849650740623474,-0.08435100317001343,-0.0483972392976284,-0.133579283952713,-0.11104336380958557,0.07366377860307693,-0.23791559040546417,-0.0068010324612259865,0.11073564738035202,0.12325811386108398,-0.005750149488449097,0.2267635613679886,-0.22501997649669647,0.12077155709266663,0.1645246148109436,0.0487203523516655,-0.0642649233341217,0.10711516439914703,-0.012686682865023613,-0.12111811339855194,-0.15739259123802185,0.13241444528102875,-0.10008567571640015,0.1400976926088333,-0.007171075325459242,-0.01785985566675663,-0.06712352484464645,-0.03787785768508911,0.06973617523908615,-0.03755179047584534,0.11299460381269455,0.031980469822883606,0.11153487861156464,-0.08123015612363815,0.043338365852832794,0.08914565294981003,-0.012686097994446754,0.010801846161484718,0.12274323403835297,-0.09158172458410263,-0.0015585098881274462,0.0715595930814743,0.07582326978445053,0.1293899267911911,-0.054121263325214386,0.05189838260412216,-0.08273358643054962,-0.03215290233492851,-0.084579236805439,0.1100853830575943,-0.013214992359280586,0.05144708976149559,0.08250167965888977,0.054795023053884506,0.019050797447562218,0.02999793365597725,-0.09925950318574905,0.04121733829379082,0.00028256516088731587,-0.050576381385326385,0.11845780909061432,0.05791765823960304,-0.05762384086847305,-0.12081587314605713,-0.11530525982379913,0.05768666788935661,-0.06569437682628632,-0.06883127987384796,-0.10794404149055481,0.09567593038082123,-0.070741206407547,0.1145729348063469,0.1052723377943039,-0.09699822962284088,0.041660651564598083,-0.03225639835000038,0.10908912122249603,0.010186471976339817,-0.1735227257013321,-0.0926414281129837,-0.0016265190206468105,-0.022875890135765076,0.09989093989133835,-0.11984335631132126,-0.02879859320819378,0.17403897643089294,0.08872818201780319,0.03628825768828392,-0.11800382286310196,-0.1480325162410736,-0.14239072799682617,-0.06414394080638885,0.110623300075531,0.11053277552127838,0.057251762598752975,0.12731607258319855,0.13693591952323914,-0.04114984720945358,-0.04016069322824478,0.04128044843673706,0.05442936345934868,-0.06887099891901016,0.12548239529132843,0.058130525052547455,-0.06012725085020065,0.06784223020076752,-0.05712796002626419,-0.031072763726115227,-0.009438475593924522,0.012211866676807404,-0.08901448547840118,0.035770826041698456,-0.13822461664676666,0.09568610042333603,-0.046839695423841476,0.11191799491643906,0.08435767889022827,0.004716925788670778,0.09120488166809082,-0.06339088082313538,0.08136261254549026,0.06290898472070694,0.07998232543468475,0.08040972799062729,-0.0449967086315155,-0.008425639942288399,0.08370658755302429,0.09110688418149948,0.022339241579174995,0.048446040600538254,-0.0894683226943016,-0.038283638656139374,-0.07969294488430023,0.12067610025405884,-0.0637090802192688,-0.06570620834827423,0.051514364778995514,-0.10351146757602692,-0.09156839549541473,0.11366630345582962,-0.009528044611215591,-0.05768191069364548,-0.07163754105567932,-0.04052383080124855,-0.09970833361148834,-0.15648062527179718,0.05385436490178108,-0.055936917662620544,0.10300739109516144,-0.11007176339626312,-0.1463908553123474,0.010251856409013271,-0.08051587641239166,0.10110645741224289,0.14298079907894135,0.14808687567710876,-0.24993757903575897,0.18088476359844208,0.1433691680431366,-0.020975833758711815,0.06489324569702148,0.042579155415296555,0.0880553349852562,-0.15753856301307678,0.08977961540222168,-0.04814800247550011,0.03228455409407616,-0.10667315125465393,-0.16996820271015167,-0.11215466260910034,0.08872085064649582,-0.029675493016839027,0.09243819117546082,-0.031346213072538376,0.11370369046926498,-0.07120237499475479,-0.052690792828798294,-0.0007112642051652074,-0.11622630059719086,0.12668882310390472,0.0108058275654912,-0.048434652388095856,-0.15866263210773468,0.02322464995086193,-0.16194762289524078,-0.0013768930220976472,0.0895857959985733,-0.06845042109489441,0.22905224561691284,-0.023635918274521828,-0.0320286899805069,-0.13282690942287445,0.07695722579956055,-0.11395952105522156,0.08003005385398865,0.03108866512775421,0.06561855971813202,-0.16740718483924866,0.22747230529785156,-0.21496820449829102,-0.1197376698255539,0.08916693180799484,-0.07244065403938293,-0.10283206403255463,0.04899876192212105,-0.06416034698486328,-0.1105761006474495,-0.0290771946310997,0.10524077713489532,0.014339882880449295,0.040802475064992905,-0.05198968946933746,0.12036624550819397,0.006808925420045853,0.04198992997407913,-0.045760106295347214,0.06771226227283478,-0.005980879999697208,0.156656876206398,0.049220625311136246,-0.04582081362605095,0.05626140162348747,-0.13905441761016846,0.08176973462104797,0.059898052364587784,0.03477627784013748,-0.01873244345188141,-0.13837113976478577,0.03605515882372856,0.05022547021508217,0.08014454692602158,0.0013042442733421922,0.03960248827934265,0.10483665019273758,-0.06217010319232941,0.11319443583488464,0.1564314365386963,0.16682842373847961,0.12266898155212402,-0.1189691498875618,0.0778755247592926,0.13699296116828918,-0.08128508925437927,-0.017314566299319267,-0.08441942930221558,-0.01918734610080719,-0.11958976089954376,0.045560549944639206,-0.049322258681058884,-0.1987534612417221,0.07149253040552139,-0.03311868757009506,-0.005230388604104519,0.07727043330669403,0.10076840966939926,-0.054901909083127975,0.00040903492481447756,0.06511817127466202,-0.04378177598118782,-0.03226128965616226,0.0029231279622763395,-0.054698243737220764,0.09778322279453278,-0.046781834214925766,-0.13877111673355103,0.1191626787185669,0.07558559626340866,0.0720624104142189,0.15004414319992065,-0.04770061746239662,0.022694243118166924,0.11749374121427536,-0.11268114298582077,-0.03350266069173813,-0.0499265231192112,-0.047311779111623764,0.052085116505622864,0.04946321249008179,-0.08179642260074615,0.03943625092506409,0.10292013734579086,-0.06823783367872238,-0.08437548577785492,-0.08607534319162369,0.15250380337238312,-0.16327674686908722,-0.00974155031144619,0.08356042951345444,-0.08293074369430542,0.09611108154058456,-0.07906117290258408,0.017914406955242157,-0.002794842468574643,-0.058836162090301514,0.10684177279472351,0.018015628680586815,-0.09813932329416275,0.10137329995632172,-0.001985088689252734,-0.07166676223278046,-0.054938461631536484,-0.03026844747364521,0.1014779657125473,-0.12865464389324188,-0.14537082612514496,-0.1507619172334671,0.01643718034029007,-0.05746867507696152,-0.010434354655444622,0.12889550626277924,-0.022087259218096733,-0.13583365082740784,0.03422905132174492,-0.11853338032960892,0.0052189212292432785,0.011131815612316132,0.04712553322315216,-0.10704004019498825,0.15358999371528625,0.1321742683649063,-0.10865364223718643,0.07133059948682785,-0.0005231397808529437,-0.1425062119960785,-0.1010940745472908,-0.14744605123996735,0.040966521948575974,0.04460621252655983,0.057612765580415726,-0.048690326511859894,0.12498246133327484,0.04049594700336456,0.04348072037100792,-0.0625186339020729,0.1604643017053604,0.02178153768181801,-0.033011578023433685,-0.11490687727928162,-0.0996713861823082,0.1152840256690979,-0.09761599451303482,0.02888578549027443,-0.057029929012060165,-0.048017725348472595,-0.13208191096782684,-0.021358752623200417,0.12663955986499786,-0.21263960003852844,0.18144769966602325,-0.15737460553646088,0.03483329340815544,-0.11570224165916443,-0.097842276096344,-0.14135675132274628,-0.07464558631181717,0.012934213504195213,-0.12754090130329132,-0.002852502977475524,0.0623055137693882,0.06092580407857895,0.1034984365105629,0.05726068466901779,0.019796380773186684,0.03143327683210373,0.1621636152267456,0.08705560863018036,-0.02789110504090786,0.09998615086078644,-0.11401236057281494,0.13613668084144592,0.06066843494772911,-0.06465139985084534,-0.0930095911026001,0.09845335781574249,0.13635310530662537,0.028671180829405785,-0.07724509388208389,0.09080233424901962,0.07460512220859528,-0.031999096274375916,0.0958915576338768,0.38791584968566895,0.09802161902189255,0.4841974377632141,-0.8441999554634094,-0.37866225838661194,0.06295120716094971,0.2265693098306656,-0.11692073941230774,0.13867072761058807,0.35645124316215515,-0.6709353923797607,0.2615639567375183,-0.007104203570634127,-0.5073884725570679,0.03888032212853432,-0.1644180715084076,-0.029230449348688126,-0.2219613790512085,0.223956897854805,-0.153956800699234,0.037632256746292114,0.22063963115215302,0.06711208820343018,-0.04413619264960289,-0.3491379916667938,0.08494151383638382,-0.10648587346076965,-0.1218590959906578,0.1390409618616104,-0.06950691342353821,0.1423989236354828,-0.004920682869851589,-0.21419239044189453,-0.15881040692329407,0.158150777220726,-0.17835864424705505,0.0038052527233958244,0.070448137819767,0.22590160369873047,-0.008300963789224625,-0.17885012924671173,-0.005475993268191814,-0.14447763562202454,0.014500430785119534,0.00260444195009768,0.08404543250799179,0.11183586716651917,0.20246289670467377,0.037542231380939484,0.1409486085176468,-0.08164127171039581,-0.24038513004779816,-0.10674764215946198,-0.24869197607040405,-0.23341290652751923,0.059725016355514526,0.15397898852825165,-0.18116578459739685,-0.06970484554767609,-0.0940505638718605,0.027449410408735275,0.10649435967206955,-0.04625376686453819,0.3218139410018921,-0.1886059045791626,-0.07060743123292923,-0.0813157856464386,0.18086662888526917,0.16425277292728424,0.17548668384552002,0.24123941361904144,0.1341530978679657,-0.18209734559059143,-0.10909682512283325,0.07801129668951035,-0.21673056483268738,0.20319895446300507,0.07669577747583389,0.07999733090400696,-0.19839823246002197,0.22159434854984283,-0.06675100326538086,-0.08401374518871307,0.10399351269006729,0.06475036591291428,-0.026723258197307587,0.0035736754070967436,-0.1335359364748001,0.223627969622612,0.21962538361549377,0.14659635722637177,0.04587265104055405,-0.21424804627895355,-0.156288281083107,-0.1706702709197998,-0.0791846215724945,-0.2349373698234558,0.24340389668941498,0.093236543238163,0.1979854255914688,-0.11174320429563522,0.21569091081619263,0.00376298138871789,-0.10018066316843033,0.08570251613855362,0.12140098214149475,-0.1959957480430603,0.22054286301136017,-0.09086187183856964,0.08365381509065628,-0.26118698716163635,0.01790057308971882,-0.0060972473584115505,-0.14991119503974915,-0.1596539318561554,-0.013541759923100471,-0.09265519678592682,-0.2883993685245514,0.11839700490236282,0.13954681158065796,-0.2173617035150528,-0.017177825793623924,0.004565540235489607,0.0599859356880188,0.03783688694238663,0.05184980854392052,0.08099758625030518,-0.128501757979393,-0.14319773018360138,0.1947472095489502,-0.20187105238437653,0.14692063629627228,0.13429681956768036,-0.39882007241249084,-0.17475056648254395,0.18916013836860657,0.05841854587197304,-0.023563794791698456,0.0062882136553525925,0.16922789812088013,-0.14915627241134644,0.08259856700897217,0.08270350098609924,-0.04830527305603027,-0.020854180678725243,-0.003952696919441223,-0.08199501782655716,-0.07899141311645508,0.16880282759666443,-0.20478184521198273,-0.2744709253311157,-0.03388804569840431,0.020993676036596298,0.012499394826591015,-0.03900179639458656,-0.10161224007606506,0.19694265723228455,0.19880442321300507,0.02228887937963009,0.02588707022368908,0.08915121108293533,0.22092494368553162,0.055765748023986816,0.06828824430704117,-0.16947820782661438,0.22388190031051636,-0.12585465610027313,0.22388474643230438,-0.4067315459251404,-0.1483963578939438,0.10646625608205795,-0.14204877614974976,0.45289406180381775,-0.042263660579919815,0.2957336902618408,0.15700943768024445,-0.013022614642977715,0.13880465924739838,-0.1841488927602768,-0.20394998788833618,-0.18241572380065918,-0.04130005091428757,0.0022053115535527468,-0.18511144816875458,0.2206600308418274,-0.032749418169260025,-0.1737549901008606,0.015613008290529251,-0.10395033657550812,0.04775264486670494,0.08024068921804428,0.051577210426330566,0.14580033719539642,0.12204330414533615,-0.12959428131580353,-0.09964120388031006,-0.08208456635475159,-0.20256692171096802,0.04967738315463066,0.14929229021072388,-0.2564748227596283,0.0687982589006424,0.24897155165672302,0.11444467306137085,-0.08429699391126633,0.23492169380187988,-0.1471836268901825,-0.08319056779146194,0.23823238909244537,0.14309430122375488,0.2524188458919525,0.23251035809516907,-0.17788149416446686,-0.13127854466438293,-0.18559874594211578,0.11559434235095978,0.1628938466310501,0.10846386104822159,-0.20126718282699585,-0.16259947419166565,-0.2122334986925125,0.1341162770986557,-0.11717627197504044,-0.12245979905128479,-0.10425448417663574,0.12595973908901215,-0.0045807380229234695,0.292050302028656,0.033179305493831635,0.19319503009319305,0.02297392673790455,-0.0969737321138382,-0.014325715601444244,0.23611381649971008,0.11973254382610321,-0.15435096621513367,-0.14732693135738373,-0.22874987125396729,-0.07395942509174347,0.07219219207763672,0.2390708476305008,-0.0349925197660923,0.09717921912670135,0.09316880255937576,-0.1858101189136505,-0.2039123773574829,0.06258779764175415,0.1921420693397522,-0.09783316403627396,0.02995837666094303,-0.26172178983688354,0.07439763844013214,0.08965729176998138,0.0173140037804842,-0.026504455134272575,0.10024222731590271,-0.015564607456326485,0.16107399761676788,-0.21496444940567017,-0.10911960154771805,-0.19473378360271454,-0.3119276165962219,0.127907395362854,-0.007519288919866085,-0.09995545446872711,0.06434102356433868,-0.15297235548496246,-0.02771221101284027,0.09174980223178864,-0.04434865340590477,0.11494149267673492,0.050364088267087936,-0.18894408643245697,0.04146713390946388,0.11214929819107056,-0.03489936515688896,0.07806583493947983,0.006782251875847578,-0.006361246574670076,0.017618117853999138,-0.18829596042633057,0.1510111689567566,0.09331362694501877,0.0369369313120842,0.009277044795453548,-0.19761332869529724,-0.07304179668426514,0.006291698198765516,0.06817968934774399,-0.05543949455022812,-0.024469902738928795,0.06642837077379227,0.1438651978969574,-0.1420404464006424,0.042163122445344925,0.07735258340835571,-0.08263444155454636,0.02856053225696087,0.02025763876736164,-0.012510472908616066,-0.02798643708229065,0.022235224023461342,-0.13876384496688843,0.03884096071124077,0.023275485262274742,0.06584291905164719,0.07245570421218872,0.006867977790534496,0.10666404664516449,0.1398029327392578,0.13948018848896027,-0.07508058845996857,0.08180349320173264,-0.2152712047100067,0.07647918909788132,0.3866252899169922,0.006626263726502657,0.15142443776130676,0.05603310838341713,0.022999443113803864,-0.06413579732179642,0.10033208131790161,-0.06842562556266785,-0.14821185171604156,0.010304768569767475,0.048720382153987885,0.10424471646547318,-0.033597853034734726,-0.0286247581243515,-0.025196954607963562,0.16292700171470642,-0.12018689513206482,0.02697998657822609,-0.05930444970726967,0.009821981191635132,-0.12945030629634857,-0.06678883731365204,-0.013482606038451195,0.13492333889007568,-0.09037069231271744,-0.07799415290355682,0.06473276019096375,-0.16355019807815552,-0.06821337342262268,-0.049043893814086914,-0.11978638172149658,0.11923884600400925,0.05554303899407387,0.11966016888618469,-0.03002096153795719,-0.0036625221837311983,0.11864566802978516,-0.14464130997657776,-0.03270068019628525,-0.1732477992773056,0.11356163024902344,0.09613770246505737,-0.12456849217414856,-0.036208927631378174,-0.11538548022508621,-0.0018806317821145058,0.15239842236042023,0.17061910033226013,-0.15586388111114502,0.008508153259754181,-0.035124022513628006,-0.0353701114654541,-0.1509687751531601,-0.057320740073919296,-0.18021559715270996,-0.08396937698125839,-0.07921625673770905,0.033324070274829865,-0.12669996917247772,-0.004498716909438372,0.1206282451748848,-0.1475885808467865,0.04641388729214668,0.06651899218559265,0.10536868125200272,-0.052198220044374466,-0.11778280138969421,0.004012748599052429,-0.01599166728556156,-0.11453027278184891,-0.042765241116285324,0.10426445305347443,-0.01402225997298956,0.13552892208099365,0.1315789818763733,-0.03101068176329136,-0.039179738610982895,-0.006498083937913179,-0.09656329452991486,0.10868530720472336,-0.0007434344734065235,-0.12354539334774017,-0.10923045128583908,-0.09707754105329514,0.026392947882413864,0.09580627828836441,0.11450982838869095,-0.04448571801185608,-0.07716647535562515,-0.10299520939588547,-0.08934829384088516,-0.05741782858967781,-0.11917392909526825,0.04716578125953674,-0.15248951315879822,-0.008892050012946129,0.16378799080848694,0.0012002902803942561,0.0576554536819458,0.09920210391283035,0.19261136651039124,0.07101186364889145,-0.01438955869525671,0.09829478710889816,0.015656759962439537,-0.059057656675577164,-0.01187322661280632,0.054448459297418594,0.03382450342178345,0.013180366717278957,0.08863212913274765,0.00707310950383544,0.038279011845588684,0.010838808491826057,0.07393664121627808,-0.11424654722213745,0.06000128015875816,-0.1470356434583664,-0.0291163120418787,0.06771934032440186,-0.04298460856080055,0.07811202108860016,-0.14151839911937714,0.1308353990316391,0.10965367406606674,0.026428675279021263,0.05635761842131615,-0.1519891917705536,0.07482510805130005,0.04938604682683945,0.06251609325408936,0.06077458709478378,-0.10362663120031357,0.08432305604219437,0.14965957403182983,0.1241002306342125,-0.12285812944173813,0.10653536021709442,0.18003930151462555,0.01749538630247116,-0.10467498749494553,0.02863261289894581,-0.11249002069234848,0.024068539962172508,-0.1265399158000946,0.0115017956122756,-0.06870108097791672,0.15226760506629944,0.09334319829940796,0.0959848016500473,-0.06910554319620132,-0.09419597685337067,-0.03274592384696007,0.027956344187259674,0.07500678300857544,0.004889226984232664,-0.15915517508983612,0.10540595650672913,-0.13282211124897003,0.14266763627529144,-0.11996117234230042,0.02197582647204399,0.05938258394598961,0.016153613105416298,0.05120374634861946,-0.10807529091835022,0.23805677890777588,0.10605128854513168,-0.06652764230966568,0.07158063352108002,-0.07451572269201279,0.10114090889692307,0.031430553644895554,0.0875760093331337,-0.0869525820016861,0.20078584551811218,0.07996054738759995,0.11173614114522934,0.058321841061115265,0.11849427223205566,0.13867487013339996,-0.027177074924111366,-0.174072727560997,0.09703578799962997,-0.060444120317697525,-0.09693735837936401,0.05677950382232666,0.007954210042953491,-0.0015984178753569722,0.03185798600316048,-0.09704563766717911,0.24904941022396088,-0.06500321626663208,0.24606947600841522,0.09899406880140305,-0.034582313150167465,0.04016672447323799,-0.1321043223142624,0.10482300817966461,-0.14176063239574432,-0.1186007559299469,-0.19238515198230743,0.010462016798555851,-0.050015244632959366,-0.09014513343572617,0.03340701758861542,-0.10381913930177689,-0.048237916082143784,-0.05271584168076515,-0.030334213748574257,-0.07290749996900558,0.020276349037885666,0.1598505973815918,-0.1432465761899948,0.0971258133649826,-0.11918596178293228,-0.214280366897583,-0.05203403905034065,-0.016117071732878685,0.09121998399496078,-0.014621240086853504,-0.0630226582288742,-0.05444573238492012,0.09124722331762314,-0.04280358552932739,-0.08612627536058426,-0.050608668476343155,0.021465113386511803,-0.04036050662398338,-0.13438282907009125,0.02820531651377678,0.10111406445503235,-0.05610129237174988,-0.15039318799972534,-0.0718599334359169,0.011013232171535492,0.03162778913974762,-0.10726119577884674,-0.13030582666397095,0.05926889553666115,-0.21499265730381012,0.1296013742685318,-0.01682160049676895,0.042654410004615784,0.021321291103959084,-0.03595506027340889,-0.09909345209598541,0.17357896268367767,0.013703449629247189,0.07885434478521347,-0.1292559653520584,-0.17359083890914917,-0.18754377961158752,-0.1314542442560196,-0.1352386325597763,-0.10528303682804108,0.1321796029806137,-0.08009018003940582,0.09036414325237274,0.09365919977426529,0.003181434702128172,0.017521079629659653,-0.26954886317253113,0.07811479270458221,0.003459336468949914,-0.20206540822982788,-0.1345386803150177,-0.10548946261405945,-0.07927772402763367,0.027819622308015823,-0.08307293802499771,-0.09183266013860703,0.07933515310287476,0.10343024134635925,0.1539444625377655,-0.08759377151727676,0.13245046138763428,0.051686108112335205,0.09984586387872696,-0.005785143468528986,0.11348829418420792,0.015282968990504742,-0.1106957271695137,-0.020605644211173058,-0.00225539761595428,-0.06332331895828247,-0.024209657683968544,0.1530114859342575,0.14308065176010132,-0.23324279487133026,-0.10371874272823334,-0.1390572041273117,0.18637849390506744,0.0036559097934514284,0.028594641014933586,-0.013563651591539383,0.06792514026165009,-0.0645446851849556,0.1341862976551056,0.14912396669387817,0.0905226469039917,-0.09757707267999649,0.08995309472084045,-0.09364138543605804,-0.048728518187999725,-0.02356974594295025,0.13578927516937256,-0.09172184020280838,0.053968437016010284,0.0481933169066906,0.24021942913532257,0.03106265515089035,0.11455360800027847,0.05605889856815338,-0.04635428264737129,0.001367356046102941,-0.1302253007888794,0.07571019977331161,0.15356114506721497,0.19672390818595886,-0.007412989158183336,-0.0022377315908670425,-0.13672102987766266,-0.0155883664265275,-0.1336076408624649,-0.12977705895900726,-0.06371850520372391,0.006879926193505526,0.048448994755744934,-0.0820615142583847,0.09515497833490372,-0.2519623339176178,-0.07273054122924805,0.005642787087708712,0.08707127720117569,0.10906851291656494,-0.014228426851332188,0.28157851099967957,0.04261282831430435,-0.029119422659277916,-0.01303624827414751,0.029559211805462837,-0.07672328501939774,-0.07654207944869995,0.13734416663646698,0.019965875893831253,-0.07823395729064941,-0.0757821723818779,-0.11044003069400787,0.10708803683519363,-0.08216308802366257,0.10982739925384521,-0.07245543599128723,-0.10356850922107697,0.051752105355262756,-0.035650432109832764,-0.07372671365737915,0.04362822696566582,0.14237430691719055,0.132957324385643,0.1280359923839569,0.015105204656720161,0.03935714066028595,-0.0682302936911583,-0.2270536869764328,-0.04646897315979004,-0.07541944831609726,-0.0779000073671341,-0.00376554555259645,0.16920794546604156,-0.08194560557603836,0.19386982917785645,0.08208579570055008,0.011723943054676056,0.07795244455337524,-0.07924435287714005,-0.20048031210899353,-0.0497237890958786,-0.0037390715442597866,-0.2238999605178833,-0.01398612093180418,0.07785011827945709,-0.2342381477355957,0.13514240086078644,-0.1376643180847168,-0.15062421560287476,0.19161145389080048,0.025246119126677513,-0.006921710446476936,0.16375932097434998,-0.06500367820262909,0.05103018134832382,-0.040849748998880386,0.07099676877260208,-0.060912858694791794,-0.07214853167533875,-0.07406515628099442,0.044294461607933044,0.019960526376962662,-0.12580227851867676,-0.17539888620376587,-0.14268848299980164,-0.2593531906604767,0.013972682878375053,0.1561535745859146,0.03396928682923317,0.00708823511376977,-0.05144902318716049,0.0166257843375206,0.013953316025435925,0.017130684107542038,0.06396530568599701,0.10949131101369858,-0.11612822115421295,-0.03391600027680397,-0.09275171905755997,-0.11749598383903503,-0.014030015096068382,-0.05216757208108902,-0.07922196388244629,0.21482159197330475,0.05329214408993721,0.0910404771566391,-0.011671184562146664,0.027820585295557976,-0.05201706290245056,0.06808394938707352,0.1724410355091095,0.0058832899667322636,-0.2193051129579544,0.18685723841190338,0.15750527381896973,-0.1812957376241684,-0.02103116177022457,-0.17510217428207397,0.023942628875374794,0.08962194621562958,-0.07020410895347595,-0.004723380785435438,0.04485339671373367,-0.15165340900421143,0.08351483941078186,0.10940316319465637,0.010418652556836605,0.0965583398938179,-0.06280145049095154,0.10310797393321991,0.016742045059800148,0.12341728061437607,0.007544349413365126,0.004439301788806915,0.11500005424022675,-0.047905489802360535,-0.16739197075366974,0.1066596508026123,-0.016338767483830452,0.013443383388221264,0.05779231712222099,-0.023080604150891304,0.0781383290886879,0.05172960087656975,-0.05351049453020096,-0.012144222855567932,0.07387518137693405,-0.005353256594389677,-0.1090981513261795,0.014368022792041302,0.08748049288988113,-0.07980391383171082,0.146071195602417,-0.009138382971286774,0.053709451109170914,-0.06273096799850464,-0.10961458086967468,